{"learner":{"attributes":{"scikit_learn":"{\"use_label_encoder\": true, \"n_estimators\": 100, \"objective\": \"binary:logistic\", \"max_depth\": 6, \"learning_rate\": 0.300000012, \"verbosity\": null, \"booster\": \"gbtree\", \"tree_method\": \"exact\", \"gamma\": 0, \"min_child_weight\": 1, \"max_delta_step\": 0, \"subsample\": 1, \"colsample_bytree\": 1, \"colsample_bylevel\": 1, \"colsample_bynode\": 1, \"reg_alpha\": 0, \"reg_lambda\": 1, \"scale_pos_weight\": 1, \"base_score\": 0.5, \"missing\": NaN, \"num_parallel_tree\": 1, \"kwargs\": {\"probability\": true, \"learningRate\": 0.33, \"nEstimators\": 17.0, \"maxDepth\": 8.0, \"minChildWeight\": 10.0, \"gammaValue\": 4.36, \"subSample\": 0.79, \"colSampleByTree\": 0.77}, \"random_state\": 0, \"n_jobs\": 3, \"monotone_constraints\": \"()\", \"interaction_constraints\": \"\", \"importance_type\": \"gain\", \"gpu_id\": -1, \"validate_parameters\": 1, \"classes_\": [0.0, 1.0], \"n_classes_\": 2, \"_le\": {\"classes_\": [0.0, 1.0]}, \"_features_count\": 9, \"n_features_in_\": 9, \"type\": \"XGBClassifier\"}"},"gradient_booster":{"model":{"gbtree_model_param":{"num_trees":"100","size_leaf_vector":"0"},"tree_info":[0,0,0,0,0,0,0,0,0,0,0,0,0,0,0,0,0,0,0,0,0,0,0,0,0,0,0,0,0,0,0,0,0,0,0,0,0,0,0,0,0,0,0,0,0,0,0,0,0,0,0,0,0,0,0,0,0,0,0,0,0,0,0,0,0,0,0,0,0,0,0,0,0,0,0,0,0,0,0,0,0,0,0,0,0,0,0,0,0,0,0,0,0,0,0,0,0,0,0,0],"trees":[{"base_weights":[-1.6862745E0,-1.8277067E0,3.4920636E-1,-1.9640719E0,-1.323077E0,1.1489362E0,-1.6E0,-7E-1,-1.697479E0,-3.3333334E-1,1.4871795E0,-8.648649E-1,8E-1,-1.7565217E0,-0E0,-5E-1,-0E0,1.7037038E0,7.5E-1,-1E0,4E-1,-5E-1,1.3333334E0,5E-1,-1.125E0],"categories":[],"categories_nodes":[],"categories_segments":[],"categories_sizes":[],"default_left":[true,true,true,false,true,true,false,true,true,true,true,true,false,false,false,false,false,false,true,true,false,false,false,false,false],"id":0,"left_children":[1,3,5,-1,7,9,-1,11,13,15,17,19,-1,-1,-1,-1,-1,-1,21,23,-1,-1,-1,-1,-1],"loss_changes":[6.6707275E1,1.2179138E1,2.6390003E1,0E0,1.0184227E1,6.386798E0,0E0,5.6378384E0,2.981659E0,1.6666666E-1,2.7849007E-1,3.5621614E0,0E0,0E0,0E0,0E0,0E0,0E0,3.5833335E0,3.75E0,0E0,0E0,0E0,0E0,0E0],"parents":[2147483647,0,0,1,1,2,2,4,4,5,5,7,7,8,8,9,9,10,10,11,11,18,18,19,19],"right_children":[2,4,6,-1,8,10,-1,12,14,16,18,20,-1,-1,-1,-1,-1,-1,22,24,-1,-1,-1,-1,-1],"split_conditions":[1.5E0,5E-1,5.3550005E-1,-5.892216E-1,2.4849999E-1,1.6666667E-1,-4.8000002E-1,9.775599E0,1.178873E1,5.1606727E0,3.485E-1,2.3300001E-1,2.4000001E-1,-5.2695656E-1,-0E0,-1.5E-1,-0E0,5.1111114E-1,2.52E-1,-1.7510548E0,1.20000005E-1,-1.5E-1,4.0000004E-1,1.5E-1,-3.375E-1],"split_indices":[2,2,5,0,6,4,0,1,1,1,5,6,0,0,0,0,0,0,6,7,0,0,0,0,0],"split_type":[0,0,0,0,0,0,0,0,0,0,0,0,0,0,0,0,0,0,0,0,0,0,0,0,0],"sum_hessian":[2.285E2,2.1375E2,1.475E1,1.66E2,4.775E1,1.075E1,4E0,1.9E1,2.875E1,2E0,8.75E0,1.75E1,1.5E0,2.775E1,1E0,1E0,1E0,5.75E0,3E0,1.6E1,1.5E0,1E0,2E0,1E0,1.5E1],"tree_param":{"num_deleted":"0","num_feature":"9","num_nodes":"25","size_leaf_vector":"0"}},{"base_weights":[-1.2905376E0,-1.4021186E0,2.664161E-1,-9.2136E-1,-1.5043503E0,9.464638E-1,-1.1796159E0,-1.4541817E0,-5.2303284E-1,-1.5136713E0,-0E0,1.1967642E0,-3.785967E-1,-9.808128E-3,-8.505766E-1,-1.5247337E0,-7.4913174E-1,-4.3734393E-1,1.2936211E0,-1.0297335E0,4.0135878E-1,6.6386275E-2,-1.0774925E0,-9.538676E-1,1.7763059E-1,-1.2946513E0,-3.8594937E-1],"categories":[],"categories_nodes":[],"categories_segments":[],"categories_sizes":[],"default_left":[true,true,true,true,true,true,false,false,true,true,false,false,false,true,true,false,true,true,false,true,false,false,false,false,false,false,false],"id":1,"left_children":[1,3,5,7,9,11,-1,-1,13,15,-1,-1,-1,17,19,-1,21,23,-1,25,-1,-1,-1,-1,-1,-1,-1],"loss_changes":[3.7363953E1,8.386902E0,1.5944993E1,7.187546E0,2.2770996E0,4.0386534E0,0E0,0E0,3.8565116E0,2.2277832E-1,0E0,0E0,0E0,6.120767E0,3.558444E0,0E0,1.214392E0,2.791186E0,0E0,1.6403065E0,0E0,0E0,0E0,0E0,0E0,0E0,0E0],"parents":[2147483647,0,0,1,1,2,2,3,3,4,4,5,5,8,8,9,9,13,13,14,14,16,16,17,17,19,19],"right_children":[2,4,6,8,10,12,-1,-1,14,16,-1,-1,-1,18,20,-1,22,24,-1,26,-1,-1,-1,-1,-1,-1,-1],"split_conditions":[1.5E0,2.4849999E-1,5.25E-1,3E-1,1.178873E1,6.413502E-1,-3.5388476E-1,-4.3625453E-1,-1.25E-1,1.3E0,-0E0,3.590293E-1,-1.1357901E-1,8.091276E0,2.2999999E-1,-4.574201E-1,7.22E-1,1.005E2,3.8808635E-1,9.95E1,1.2040764E-1,1.9915882E-2,-3.2324776E-1,-2.861603E-1,5.328918E-2,-3.883954E-1,-1.1578482E-1],"split_indices":[2,6,5,2,1,7,0,0,3,2,0,0,0,1,6,0,5,0,0,0,0,0,0,0,0,0,0],"split_type":[0,0,0,0,0,0,0,0,0,0,0,0,0,0,0,0,0,0,0,0,0,0,0,0,0,0,0],"sum_hessian":[2.1192351E2,1.9784422E2,1.4079285E1,3.644926E1,1.6139496E2,9.810858E0,4.268428E0,1.445835E1,2.1990911E1,1.6039496E2,1E0,8.333504E0,1.4773532E0,8.968389E0,1.3022522E1,1.571271E2,3.2678454E0,7.2536097E0,1.7147787E0,1.1547514E1,1.4750085E0,1.1670877E0,2.1007578E0,3.6428618E0,3.6107476E0,7.4647584E0,4.082756E0],"tree_param":{"num_deleted":"0","num_feature":"9","num_nodes":"27","size_leaf_vector":"0"}},{"base_weights":[-1.0918841E0,-1.2167071E0,-3.7812166E-2,-1.3134859E0,-8.302226E-1,5.556756E-1,-1.2586325E0,-1.1098028E0,-3.0494067E-1,-5.3642565E-1,8.439846E-1,-2.578717E-1,-1.2517478E0,-6.289497E-1,4.4730932E-1,-9.064442E-1,1.5802711E-2,4.32394E-1,1.3969322E0,-1.0121536E0,5.077105E-1,-3.370074E-1,-1.2898355E0,3.241002E-1,-8.861765E-1,9.0572274E-1,-3.7891775E-1,-4.563699E-1,7.961834E-1,-1.1668668E0,-3.5853466E-1,-4.764635E-2,9.9124134E-1],"categories":[],"categories_nodes":[],"categories_segments":[],"categories_sizes":[],"default_left":[true,true,true,false,true,true,false,true,true,true,true,true,true,true,true,false,false,true,false,false,false,false,false,false,true,false,false,false,true,false,false,false,false],"id":2,"left_children":[1,3,5,-1,7,9,-1,11,13,15,17,19,21,23,25,-1,-1,27,-1,-1,-1,-1,-1,-1,29,-1,-1,-1,31,-1,-1,-1,-1],"loss_changes":[2.4042313E1,5.0310974E0,1.5492267E1,0E0,4.874073E0,4.9968076E0,0E0,2.4325829E0,3.6224613E0,7.5516343E-1,2.0829477E0,3.12036E0,2.3674583E-1,2.7379246E0,2.1275744E0,0E0,0E0,3.0199614E0,0E0,0E0,0E0,0E0,0E0,0E0,7.8718996E-1,0E0,0E0,0E0,1.0668199E0,0E0,0E0,0E0,0E0],"parents":[2147483647,0,0,1,1,2,2,4,4,5,5,7,7,8,8,9,9,10,10,11,11,12,12,13,13,14,14,17,17,24,24,28,28],"right_children":[2,4,6,-1,8,10,-1,12,14,16,18,20,22,24,26,-1,-1,28,-1,-1,-1,-1,-1,-1,30,-1,-1,-1,32,-1,-1,-1,-1],"split_conditions":[1.3E0,5E-1,5.3550005E-1,-3.9404577E-1,2.857143E-1,1.6666667E-1,-3.775898E-1,3.45E-1,7.9588995E0,1.3571428E0,1E2,-3.5021096E-1,1.9549999E-1,-9.219409E-1,3.9200002E-1,-2.7193326E-1,4.7408137E-3,1.5E0,4.190797E-1,-3.036461E-1,1.5231316E-1,-1.01102225E-1,-3.8695064E-1,9.723006E-2,1.005E2,2.7171683E-1,-1.1367533E-1,-1.3691097E-1,5.74822E0,-3.5006005E-1,-1.075604E-1,-1.4293906E-2,2.973724E-1],"split_indices":[2,2,5,0,8,4,0,5,1,8,0,7,6,7,6,0,0,2,0,0,0,0,0,0,0,0,0,0,1,0,0,0,0],"split_type":[0,0,0,0,0,0,0,0,0,0,0,0,0,0,0,0,0,0,0,0,0,0,0,0,0,0,0,0,0,0,0,0,0],"sum_hessian":[1.8208035E2,1.6266348E2,1.9416862E1,1.2817015E2,3.449334E1,1.3431922E1,5.984941E0,2.1785357E1,1.2707985E1,2.6256158E0,1.0806307E1,3.513658E0,1.8271698E1,8.996795E0,3.7111897E0,1.1881022E0,1.4375136E0,7.2165756E0,3.589731E0,1.6076586E0,1.9059994E0,1.1240417E0,1.7147655E1,1.8568841E0,7.1399107E0,2.3250005E0,1.3861893E0,2.022056E0,5.194519E0,3.8698092E0,3.2701013E0,1.1171983E0,4.077321E0],"tree_param":{"num_deleted":"0","num_feature":"9","num_nodes":"33","size_leaf_vector":"0"}},{"base_weights":[-9.632876E-1,-1.0831785E0,-3.591478E-2,-6.552488E-1,-1.1812433E0,4.496842E-1,-1.105675E0,-1.1276835E0,-3.2464024E-1,-1.1930424E0,-1.8838676E-2,-4.6266332E-1,7.0536745E-1,-4.7458905E-1,4.7843316E-1,-7.9365116E-1,1.3006574E-2,3.5186756E-1,1.1807834E0,-7.591457E-1,7.817055E-2,8.116318E-1,-6.959505E-2,-3.757129E-1,6.652914E-1,3.6281165E-1,-9.512447E-1,-3.882774E-1,8.295978E-1,9.8487973E-1,2.1428727E-2],"categories":[],"categories_nodes":[],"categories_segments":[],"categories_sizes":[],"default_left":[true,true,true,true,true,true,false,false,true,false,false,true,true,true,true,false,false,true,false,true,true,false,false,false,true,false,false,false,false,false,false],"id":3,"left_children":[1,3,5,7,9,11,-1,-1,13,-1,-1,15,17,19,21,-1,-1,23,-1,25,27,-1,-1,-1,29,-1,-1,-1,-1,-1,-1],"loss_changes":[1.6910843E1,4.889633E0,1.0100518E1,3.9147272E0,1.4663849E0,3.4582045E0,0E0,0E0,2.3378148E0,0E0,0E0,5.681063E-1,1.4135056E0,2.4615617E0,6.510186E-1,0E0,0E0,1.9981897E0,0E0,2.5382247E0,2.4590783E0,0E0,0E0,0E0,1.1557112E0,0E0,0E0,0E0,0E0,0E0,0E0],"parents":[2147483647,0,0,1,1,2,2,3,3,4,4,5,5,8,8,11,11,12,12,13,13,14,14,17,17,19,19,20,20,24,24],"right_children":[2,4,6,8,10,12,-1,-1,14,-1,-1,16,18,20,22,-1,-1,24,-1,26,28,-1,-1,-1,30,-1,-1,-1,-1,-1,-1],"split_conditions":[1.3E0,2.4849999E-1,5.3550005E-1,3E-1,1.1689167E1,1.6666667E-1,-3.317025E-1,-3.3830506E-1,8.091276E0,-3.5791272E-1,-5.651603E-3,1.3571428E0,1E2,1.99E-1,-3.75E-1,-2.3809536E-1,3.9019722E-3,1.5E0,3.5423502E-1,-1.5084388E0,2.5E0,2.4348955E-1,-2.0878514E-2,-1.1271387E-1,3.485E-1,1.088435E-1,-2.8537342E-1,-1.1648323E-1,2.4887934E-1,2.9546392E-1,6.4286184E-3],"split_indices":[2,6,5,2,1,4,0,0,1,0,0,8,0,6,3,0,0,2,0,7,8,0,0,0,5,0,0,0,0,0,0],"split_type":[0,0,0,0,0,0,0,0,0,0,0,0,0,0,0,0,0,0,0,0,0,0,0,0,0,0,0,0,0,0,0],"sum_hessian":[1.5144836E2,1.3396176E2,1.7486595E1,2.6407597E1,1.0755417E2,1.2425774E1,5.0608225E0,9.879296E0,1.65283E1,1.064473E2,1.1068592E0,2.5428116E0,9.882961E0,1.42724085E1,2.255891E0,1.1052492E0,1.4375625E0,6.6662993E0,3.2166624E0,9.175535E0,5.0968733E0,1.1037887E0,1.1521022E0,1.9472429E0,4.719056E0,1.2114387E0,7.964096E0,3.4429467E0,1.6539268E0,2.7997348E0,1.9193214E0],"tree_param":{"num_deleted":"0","num_feature":"9","num_nodes":"31","size_leaf_vector":"0"}},{"base_weights":[-8.6335003E-1,-1.1070498E0,-3.776972E-1,-9.3643665E-2,-1.1163778E0,-3.0589715E-1,5.1034474E-1,-4.7827375E-1,3.0391958E-1,6.9714886E-1,-2.9805136E-1,5.843406E-1,-5.674256E-1,7.33034E-1,-2.4360076E-1,9.494302E-1,2.6159337E-1,-7.2821534E-1,1.01655625E-1,6.348042E-2,9.66985E-1,-5.005903E-1,1.5717325E-1,-4.468579E-1,7.0731926E-1],"categories":[],"categories_nodes":[],"categories_segments":[],"categories_sizes":[],"default_left":[true,false,true,true,false,true,true,true,true,true,false,false,true,true,true,false,true,false,false,false,false,false,false,false,false],"id":4,"left_children":[1,-1,3,5,-1,7,9,11,13,15,-1,-1,17,19,21,-1,23,-1,-1,-1,-1,-1,-1,-1,-1],"loss_changes":[1.4376884E1,0E0,8.978075E0,4.304085E0,0E0,2.7278285E0,1.5349505E0,2.1828465E0,1.5942521E0,5.6897855E-1,0E0,0E0,2.0682144E0,5.0682735E-1,4.2866176E-1,0E0,1.6134355E0,0E0,0E0,0E0,0E0,0E0,0E0,0E0,0E0],"parents":[2147483647,0,0,2,2,3,3,5,5,6,6,7,7,8,8,9,9,12,12,13,13,14,14,16,16],"right_children":[2,-1,4,6,-1,8,10,12,14,16,-1,-1,18,20,22,-1,24,-1,-1,-1,-1,-1,-1,-1,-1],"split_conditions":[5E-1,-3.3211496E-1,5.295E-1,1.5E0,-3.3491337E-1,8.01433E0,6.413502E-1,-1.8101265E0,-1.25E-1,3.4149998E-1,-8.941541E-2,1.7530218E-1,7.3571424E0,-6.25E-1,3.45E-1,2.8482908E-1,2.53E-1,-2.1846461E-1,3.0496689E-2,1.9044127E-2,2.900955E-1,-1.501771E-1,4.7151975E-2,-1.3405737E-1,2.1219578E-1],"split_indices":[2,0,5,2,0,1,7,7,3,5,0,0,8,3,5,0,6,0,0,0,0,0,0,0,0],"split_type":[0,0,0,0,0,0,0,0,0,0,0,0,0,0,0,0,0,0,0,0,0,0,0,0,0],"sum_hessian":[1.2400705E2,8.172038E1,4.2286663E1,3.1355816E1,1.0930849E1,2.3567327E1,7.7884874E0,1.8541828E1,5.0255003E0,6.4383326E0,1.3501545E0,1.0052822E0,1.7536547E1,2.6274407E0,2.3980596E0,3.3298252E0,3.1085076E0,1.4067536E1,3.4690096E0,1.0095396E0,1.6179011E0,1.3093817E0,1.088678E0,1.1994781E0,1.9090295E0],"tree_param":{"num_deleted":"0","num_feature":"9","num_nodes":"25","size_leaf_vector":"0"}},{"base_weights":[-7.727559E-1,-1.0426881E0,-3.026942E-1,-6.4274323E-1,-1.0819682E0,-5.659592E-2,-1.0384233E0,-9.450437E-1,2.1601295E-1,-3.0014205E-1,3.6443922E-1,-5.000398E-1,3.6828467E-1,5.692827E-1,-4.4970992E-1,-7.392709E-1,1.6395514E-1,6.5935695E-1,-1.5615493E-1,2.589352E-1,8.622325E-1,-9.09858E-1,-1.1819586E-1,-7.499725E-1,6.9153196E-1,1.5931177E-1,8.487852E-1,5.740685E-1,-5.9010094E-1,1.1079531E0,3.59723E-2],"categories":[],"categories_nodes":[],"categories_segments":[],"categories_sizes":[],"default_left":[true,true,true,true,false,true,false,false,false,true,true,true,true,true,false,true,true,true,false,true,true,false,false,false,false,false,false,false,false,false,false],"id":5,"left_children":[1,3,5,7,-1,9,-1,-1,-1,11,13,15,17,19,-1,21,23,25,-1,27,29,-1,-1,-1,-1,-1,-1,-1,-1,-1,-1],"loss_changes":[1.2696548E1,3.215332E-1,6.9695444E0,2.3465185E0,0E0,3.2005184E0,0E0,0E0,0E0,2.8092515E0,2.1737046E0,2.5909357E0,8.812751E-1,6.5213203E-1,0E0,1.1226373E0,2.8988445E0,1.9349897E-1,0E0,1.9721177E0,8.78633E-1,0E0,0E0,0E0,0E0,0E0,0E0,0E0,0E0,0E0,0E0],"parents":[2147483647,0,0,1,1,2,2,3,3,5,5,9,9,10,10,11,11,12,12,13,13,15,15,16,16,17,17,19,19,20,20],"right_children":[2,4,6,8,-1,10,-1,-1,-1,12,14,16,18,20,-1,22,24,26,-1,28,30,-1,-1,-1,-1,-1,-1,-1,-1,-1,-1],"split_conditions":[5E-1,2.3249999E-1,5.295E-1,3E-1,-3.2459047E-1,1.3E0,-3.11527E-1,-2.8351313E-1,6.480389E-2,8.01433E0,6.413502E-1,8.333334E-1,4.335E-1,2.05E-1,-1.3491298E-1,7.285714E0,5.5113087E0,1.07999995E-1,-4.684648E-2,1.6600001E-1,-4.2827004E-1,-2.729574E-1,-3.545876E-2,-2.2499177E-1,2.074596E-1,4.7793534E-2,2.5463557E-1,1.7222056E-1,-1.770303E-1,3.3238593E-1,1.0791691E-2],"split_indices":[2,6,5,2,0,2,0,0,0,1,7,4,5,6,0,8,1,6,0,6,7,0,0,0,0,0,0,0,0,0,0],"split_type":[0,0,0,0,0,0,0,0,0,0,0,0,0,0,0,0,0,0,0,0,0,0,0,0,0,0,0,0,0,0,0],"sum_hessian":[1.0155105E2,6.373381E1,3.781724E1,7.252533E0,5.6481277E1,2.9145216E1,8.672026E0,5.289897E0,1.9626359E0,1.8646408E1,1.0498808E1,1.4547723E1,4.0986853E0,8.628582E0,1.8702257E0,1.0611229E1,3.9364936E0,2.4703448E0,1.6283405E0,5.1046576E0,3.5239244E0,7.9599447E0,2.651284E0,1.2864387E0,2.650055E0,1.1845174E0,1.2858274E0,3.9590516E0,1.1456062E0,2.4533887E0,1.0705357E0],"tree_param":{"num_deleted":"0","num_feature":"9","num_nodes":"31","size_leaf_vector":"0"}},{"base_weights":[-6.9704187E-1,-9.9123186E-1,-2.5211734E-1,-5.6376153E-1,-1.03885E0,-4.2372372E-2,-9.7442573E-1,-8.8332623E-1,1.6730279E-1,-2.3150128E-1,3.1430963E-1,-1.2083896E-1,3.6733267E-1,5.660474E-2,-5.0980455E-1,6.515249E-1,-4.9334827E-1,2.5125054E-1,-7.130013E-1,-9.811892E-1,8.841145E-2,1.7405128E-1,1.0284097E0,-2.0396085E-2,-6.819671E-1,-4.897085E-1,4.220281E-1,8.93327E-1,-4.471014E-1,8.5982394E-1,-4.195236E-1],"categories":[],"categories_nodes":[],"categories_segments":[],"categories_sizes":[],"default_left":[true,true,true,true,false,true,false,false,true,true,true,false,false,true,true,true,true,true,false,false,true,true,false,false,false,false,false,false,false,false,false],"id":6,"left_children":[1,3,5,7,-1,9,-1,-1,11,13,15,-1,-1,17,19,21,23,25,-1,-1,27,29,-1,-1,-1,-1,-1,-1,-1,-1,-1],"loss_changes":[1.0826359E1,4.4427872E-1,5.2646985E0,1.8434384E0,0E0,1.9742243E0,0E0,0E0,2.2008982E-1,1.5519536E0,3.0970502E0,0E0,0E0,1.7121363E0,2.8395875E0,1.1923089E0,3.046366E-1,1.3337848E0,0E0,0E0,2.649298E0,2.2190597E0,0E0,0E0,0E0,0E0,0E0,0E0,0E0,0E0,0E0],"parents":[2147483647,0,0,1,1,2,2,3,3,5,5,8,8,9,9,10,10,13,13,14,14,15,15,16,16,17,17,20,20,21,21],"right_children":[2,4,6,8,-1,10,-1,-1,12,14,16,-1,-1,18,20,22,24,26,-1,-1,28,30,-1,-1,-1,-1,-1,-1,-1,-1,-1],"split_conditions":[5E-1,2.3249999E-1,5.295E-1,3E-1,-3.1165498E-1,4.0714283E0,-2.9232773E-1,-2.6499787E-1,5.3066072E0,3.55E-1,7.714286E0,-3.625169E-2,1.101998E-1,3.0714285E0,4.165E-1,1.99E-1,9.714286E0,5.0852165E0,-2.139004E-1,-2.9435676E-1,3.075E-1,6.6428576E0,3.0852294E-1,-6.118826E-3,-2.0459013E-1,-1.4691256E-1,1.2660843E-1,2.679981E-1,-1.3413043E-1,2.579472E-1,-1.2585708E-1],"split_indices":[2,6,5,2,0,8,0,0,1,5,8,0,0,8,5,6,8,1,0,0,6,8,0,0,0,0,0,0,0,0,0],"split_type":[0,0,0,0,0,0,0,0,0,0,0,0,0,0,0,0,0,0,0,0,0,0,0,0,0,0,0,0,0,0,0],"sum_hessian":[8.362116E1,4.959827E1,3.4022896E1,6.258103E0,4.3340168E1,2.7186966E1,6.835928E0,4.209682E0,2.0484211E0,1.799576E1,9.191206E0,1.0015666E0,1.0468546E0,9.233566E0,8.762195E0,6.620369E0,2.5708368E0,7.907233E0,1.3263333E0,4.5425477E0,4.2196465E0,3.5653098E0,3.0550594E0,1.0489019E0,1.521935E0,1.1312994E0,6.7759337E0,1.4188455E0,2.800801E0,1.4460723E0,2.1192374E0],"tree_param":{"num_deleted":"0","num_feature":"9","num_nodes":"31","size_leaf_vector":"0"}},{"base_weights":[-6.248756E-1,-1.0031352E0,-2.69204E-1,-6.5768704E-2,-9.5511603E-1,2.2002906E-1,-3.0400065E-1,7.73745E-1,7.119125E-2,-4.081106E-1,1.8699676E-1,-3.2653302E-1,3.4877542E-1,-6.357932E-1,-2.3306526E-2,-3.3019197E-1,7.4970263E-1,-7.825084E-1,6.195787E-1,8.0062217E-1,-1.1026736E-2,-8.927643E-1,-2.2365263E-1,-3.1763002E-1,6.982585E-1],"categories":[],"categories_nodes":[],"categories_segments":[],"categories_sizes":[],"default_left":[true,false,true,true,false,true,true,false,true,true,true,true,true,true,true,false,false,false,false,false,false,false,false,false,false],"id":7,"left_children":[1,-1,3,5,-1,7,9,-1,11,13,15,17,19,21,23,-1,-1,-1,-1,-1,-1,-1,-1,-1,-1],"loss_changes":[9.280611E0,0E0,5.2332306E0,2.1330361E0,0E0,1.1296904E0,9.4379103E-1,0E0,1.4863672E0,1.2394147E0,1.3111231E0,2.9121099E0,1.2777601E0,7.488365E-1,1.5724089E0,0E0,0E0,0E0,0E0,0E0,0E0,0E0,0E0,0E0,0E0],"parents":[2147483647,0,0,2,2,3,3,5,5,6,6,8,8,9,9,10,10,11,11,12,12,13,13,14,14],"right_children":[2,-1,4,6,-1,8,10,-1,12,14,16,18,20,22,24,-1,-1,-1,-1,-1,-1,-1,-1,-1,-1],"split_conditions":[3E-1,-3.0094057E-1,5.295E-1,-1.25E-1,-2.8653482E-1,-9.3037975E-1,1.5E0,2.3212351E-1,9E-1,9.95E1,1.3571428E0,8.020707E0,1.555E-1,9E-1,5.531953E0,-9.905759E-2,2.249108E-1,-2.3475252E-1,1.8587363E-1,2.4018666E-1,-3.308021E-3,-2.678293E-1,-6.7095794E-2,-9.5289014E-2,2.0947756E-1],"split_indices":[2,0,5,3,0,7,2,0,2,0,8,1,6,2,1,0,0,0,0,0,0,0,0,0,0],"split_type":[0,0,0,0,0,0,0,0,0,0,0,0,0,0,0,0,0,0,0,0,0,0,0,0,0],"sum_hessian":[6.998951E1,3.3035545E1,3.6953964E1,2.9346071E1,7.607893E0,1.3375911E1,1.59701605E1,1.9442413E0,1.1431669E1,1.3315572E1,2.6545897E0,4.6264806E0,6.805188E0,7.955923E0,5.359648E0,1.5985513E0,1.0560383E0,3.2385798E0,1.3879008E0,2.473608E0,4.33158E0,4.182164E0,3.773759E0,4.2044673E0,1.1551813E0],"tree_param":{"num_deleted":"0","num_feature":"9","num_nodes":"25","size_leaf_vector":"0"}},{"base_weights":[-5.483944E-1,-9.691534E-1,-2.1532775E-1,-4.156183E-2,-9.0781176E-1,-1.6364251E-1,3.8085118E-1,-5.832765E-3,-5.0132227E-1,-1.3812347E-1,5.793177E-1,-1.2702447E-1,8.263255E-1,-6.617997E-1,1.5981916E-1,7.8538406E-1,1.4172459E-1,1.9833492E-1,-6.5444726E-1,-9.567288E-1,4.289336E-2],"categories":[],"categories_nodes":[],"categories_segments":[],"categories_sizes":[],"default_left":[true,false,true,true,false,true,true,true,true,false,true,true,false,true,false,false,false,false,false,false,false],"id":8,"left_children":[1,-1,3,5,-1,7,9,11,13,-1,15,17,-1,19,-1,-1,-1,-1,-1,-1,-1],"loss_changes":[8.201612E0,0E0,4.1477013E0,1.5502588E0,0E0,1.2271922E0,7.772996E-1,1.793562E0,8.8455594E-1,0E0,3.476354E-1,2.7865133E0,0E0,1.3090518E0,0E0,0E0,0E0,0E0,0E0,0E0,0E0],"parents":[2147483647,0,0,2,2,3,3,5,5,6,6,7,7,8,8,10,10,11,11,13,13],"right_children":[2,-1,4,6,-1,8,10,12,14,-1,16,18,-1,20,-1,-1,-1,-1,-1,-1,-1],"split_conditions":[3E-1,-2.9074603E-1,5.295E-1,1.5E0,-2.7234355E-1,3.75E-1,1.6666667E-1,9.858322E0,4.645E-1,-4.143704E-2,3.485E-1,6.801171E0,2.4789765E-1,4.4285717E0,4.794575E-2,2.3561522E-1,4.251738E-2,5.950048E-2,-1.9633418E-1,-2.8701866E-1,1.2868009E-2],"split_indices":[2,0,5,2,0,3,4,1,5,0,5,1,0,8,0,0,0,0,0,0,0],"split_type":[0,0,0,0,0,0,0,0,0,0,0,0,0,0,0,0,0,0,0,0,0],"sum_hessian":[5.9013195E1,2.523029E1,3.3782906E1,2.7853588E1,5.929319E0,2.2083797E1,5.76979E0,1.574355E1,6.3402467E0,1.6802119E0,4.089578E0,1.4481837E1,1.261713E0,5.1010776E0,1.2391692E0,2.2399738E0,1.8496046E0,9.3425255E0,5.1393123E0,3.3439217E0,1.7571559E0],"tree_param":{"num_deleted":"0","num_feature":"9","num_nodes":"21","size_leaf_vector":"0"}},{"base_weights":[-4.7891435E-1,-9.3503904E-1,-1.7590266E-1,-2.8949633E-2,-8.610768E-1,-1.3023093E-1,3.2826263E-1,-5.65049E-1,-5.698823E-3,6.6495633E-1,4.5598537E-2,-6.949088E-1,-8.54326E-2,1.7970118E-1,-4.129547E-1,-2.4073932E-1,4.1314667E-1,4.492139E-1,-3.6383688E-1,6.896486E-2,-6.6420126E-1,-4.3276036E-1,7.223901E-2],"categories":[],"categories_nodes":[],"categories_segments":[],"categories_sizes":[],"default_left":[true,false,true,true,false,true,true,true,true,false,true,false,false,true,true,true,false,false,false,false,false,false,false],"id":9,"left_children":[1,-1,3,5,-1,7,9,11,13,-1,15,-1,-1,17,19,21,-1,-1,-1,-1,-1,-1,-1],"loss_changes":[6.9453E0,0E0,3.211211E0,1.037634E0,0E0,1.1956574E0,5.748321E-1,2.4700749E-1,1.4500144E0,0E0,5.7623786E-1,0E0,0E0,2.0997446E0,7.7269924E-1,2.222718E-1,0E0,0E0,0E0,0E0,0E0,0E0,0E0],"parents":[2147483647,0,0,2,2,3,3,5,5,6,6,7,7,8,8,10,10,13,13,14,14,15,15],"right_children":[2,-1,4,6,-1,8,10,12,14,-1,16,-1,-1,18,20,22,-1,-1,-1,-1,-1,-1,-1],"split_conditions":[3E-1,-2.8051174E-1,5.295E-1,1.5E0,-2.5832304E-1,2.9000002E-1,1.69E-1,1.25E-1,3.75E-1,1.9948691E-1,5.880398E0,-2.0847265E-1,-2.562978E-2,2.715E-1,-8.9240503E-1,2.43E-1,1.2394401E-1,1.3476418E-1,-1.0915107E-1,2.068946E-2,-1.9926038E-1,-1.2982811E-1,2.1671705E-2],"split_indices":[2,0,5,2,0,5,6,3,3,0,1,0,0,6,7,6,0,0,0,0,0,0,0],"split_type":[0,0,0,0,0,0,0,0,0,0,0,0,0,0,0,0,0,0,0,0,0,0,0],"sum_hessian":[5.044142E1,1.930129E1,3.1140131E1,2.6498997E1,4.6411333E0,2.1140425E1,5.3585734E0,3.919092E0,1.7221333E1,1.8283198E0,3.5302534E0,2.7308176E0,1.1882745E0,1.2217956E1,5.003376E0,2.17828E0,1.3519733E0,8.28392E0,3.934035E0,1.9632154E0,3.040161E0,1.1128181E0,1.0654621E0],"tree_param":{"num_deleted":"0","num_feature":"9","num_nodes":"23","size_leaf_vector":"0"}},{"base_weights":[-4.1676718E-1,-8.986052E-1,-1.5139684E-1,-2.995354E-2,-8.1368554E-1,-1.2549083E-1,2.8976804E-1,-2.904838E-1,2.3599078E-1,-1.5865196E-1,5.854051E-1,-8.0078E-2,-8.2643044E-1,-3.2174248E-1,4.8136613E-1,3.66861E-1,-5.8896E-1,7.6537246E-1,1.341237E-1,-2.7559954E-1,8.0704576E-1,3.504215E-2,8.5618347E-1],"categories":[],"categories_nodes":[],"categories_segments":[],"categories_sizes":[],"default_left":[true,false,true,true,false,true,true,true,true,true,true,true,false,false,true,false,false,false,false,false,false,false,false],"id":10,"left_children":[1,-1,3,5,-1,7,9,11,13,15,17,19,-1,-1,21,-1,-1,-1,-1,-1,-1,-1,-1],"loss_changes":[5.634923E0,0E0,2.4132144E0,8.5035896E-1,0E0,1.3338895E0,9.45722E-1,1.6270103E0,1.1402994E0,9.7200114E-1,2.2954404E-1,2.2846599E0,0E0,0E0,8.7355924E-1,0E0,0E0,0E0,0E0,0E0,0E0,0E0,0E0],"parents":[2147483647,0,0,2,2,3,3,5,5,6,6,7,7,8,8,9,9,10,10,11,11,14,14],"right_children":[2,-1,4,6,-1,8,10,12,14,16,18,20,-1,-1,22,-1,-1,-1,-1,-1,-1,-1,-1],"split_conditions":[3E-1,-2.695816E-1,5.295E-1,8.027224E0,-2.4410567E-1,1.3E0,3.5714287E-1,2.71E-1,1.6666667E-1,1.91E-1,9.1539755E0,4.2049998E-1,-2.4792914E-1,-9.652275E-2,1E2,1.100583E-1,-1.76688E-1,2.2961174E-1,4.023711E-2,-8.267987E-2,2.4211374E-1,1.0512646E-2,2.5685504E-1],"split_indices":[2,0,5,1,0,2,8,6,4,6,1,5,0,0,0,0,0,0,0,0,0,0,0],"split_type":[0,0,0,0,0,0,0,0,0,0,0,0,0,0,0,0,0,0,0,0,0,0,0],"sum_hessian":[4.4133106E1,1.4826363E1,2.9306744E1,2.5648777E1,3.6579666E0,2.0215578E1,5.433199E0,1.4015031E1,6.200547E0,2.342885E0,3.0903137E0,1.0889404E1,3.1256268E0,1.799376E0,4.401171E0,1.1211401E0,1.2217449E0,1.7117026E0,1.3786111E0,9.487663E0,1.4017415E0,2.508088E0,1.8930831E0],"tree_param":{"num_deleted":"0","num_feature":"9","num_nodes":"23","size_leaf_vector":"0"}},{"base_weights":[-3.5338825E-1,-8.582545E-1,-1.1813299E-1,-1.3625244E-2,-7.653182E-1,4.3116666E-2,-5.372217E-1,-1.0578163E-1,3.8337818E-1,-1.7704852E-3,-6.792134E-1,-5.0923474E-2,7.6640785E-1,1.2366905E-1,-4.29536E-1,6.719851E-1,-4.6570623E-1,9.0563995E-1,2.7287698E-1],"categories":[],"categories_nodes":[],"categories_segments":[],"categories_sizes":[],"default_left":[true,false,true,true,false,true,false,true,true,true,false,true,true,false,false,false,false,false,false],"id":11,"left_children":[1,-1,3,5,-1,7,-1,9,11,13,-1,15,17,-1,-1,-1,-1,-1,-1],"loss_changes":[4.6152563E0,0E0,1.9001827E0,7.7598804E-1,0E0,1.2457284E0,0E0,1.0324376E0,1.2795106E0,8.9406836E-1,0E0,1.6419799E0,2.943182E-2,0E0,0E0,0E0,0E0,0E0,0E0],"parents":[2147483647,0,0,2,2,3,3,5,5,7,7,8,8,9,9,11,11,12,12],"right_children":[2,-1,4,6,-1,8,-1,10,12,14,-1,16,18,-1,-1,-1,-1,-1,-1],"split_conditions":[3E-1,-2.5747636E-1,5.295E-1,9.714286E0,-2.2959547E-1,4.0714283E0,-1.6116652E-1,6.25E-1,1.99E-1,3.055E-1,-2.0376404E-1,6.6428576E0,4.145E-1,3.7100717E-2,-1.2886082E-1,2.0159553E-1,-1.3971187E-1,2.71692E-1,8.18631E-2],"split_indices":[2,0,5,8,0,8,0,3,6,6,0,8,5,0,0,0,0,0,0],"split_type":[0,0,0,0,0,0,0,0,0,0,0,0,0,0,0,0,0,0,0],"sum_hessian":[3.8711605E1,1.146313E1,2.7248474E1,2.433922E1,2.9092546E0,2.278741E1,1.5518084E0,1.6330366E1,6.457045E0,1.4672163E1,1.6582029E0,3.4323242E0,3.0247207E0,1.1894942E1,2.7772212E0,1.0252928E0,2.4070315E0,1.7078812E0,1.3168395E0],"tree_param":{"num_deleted":"0","num_feature":"9","num_nodes":"19","size_leaf_vector":"0"}},{"base_weights":[-2.9991442E-1,-1.21071845E-1,-8.9990675E-1,-6.240804E-1,-1.1402346E-2,-7.704844E-1,-1.1631363E-2,-4.772949E-1,4.7426067E-2,-3.3769798E-1,1.2627636E-1,-6.7256093E-1,4.1397404E-2,9.225346E-1,-3.4388269E-3,-5.081722E-1,1.4156526E-1],"categories":[],"categories_nodes":[],"categories_segments":[],"categories_sizes":[],"default_left":[true,true,false,true,true,false,false,false,true,true,true,false,false,false,true,false,false],"id":12,"left_children":[1,3,-1,5,7,-1,-1,-1,9,11,13,-1,-1,-1,15,-1,-1],"loss_changes":[3.7472773E0,1.5838671E0,0E0,4.5226216E-1,6.9951737E-1,0E0,0E0,0E0,7.361531E-1,5.5508184E-1,2.0362916E0,0E0,0E0,0E0,1.3836977E0,0E0,0E0],"parents":[2147483647,0,0,1,1,3,3,4,4,8,8,9,9,10,10,14,14],"right_children":[2,4,-1,6,8,-1,-1,-1,10,12,14,-1,-1,-1,16,-1,-1],"split_conditions":[4.725E-1,3E-1,-2.6997203E-1,5.2250004E-1,-1.6666667E-1,-2.3114532E-1,-3.489409E-3,-1.4318848E-1,-1.164557E0,5.601633E0,-9.2827004E-1,-2.017683E-1,1.2419222E-2,2.767604E-1,-5.801688E-1,-1.5245166E-1,4.246958E-2],"split_indices":[6,2,0,5,4,0,0,0,7,1,7,0,0,0,7,0,0],"split_type":[0,0,0,0,0,0,0,0,0,0,0,0,0,0,0,0,0],"sum_hessian":[3.493738E1,2.7840593E1,7.0967884E0,4.1438613E0,2.3696732E1,3.1361394E0,1.0077219E0,1.8592256E0,2.1837507E1,3.153291E0,1.8684216E1,1.2632844E0,1.8900064E0,1.7611815E0,1.6923035E1,3.2178242E0,1.370521E1],"tree_param":{"num_deleted":"0","num_feature":"9","num_nodes":"17","size_leaf_vector":"0"}},{"base_weights":[-2.5543734E-1,-1.01712316E-1,-8.613988E-1,-5.640259E-1,-2.9792793E-2,-6.7766845E-1,-1.4972192E-1,-1.8034615E-1,1.9206776E-1,-7.4124426E-1,-1.746446E-2,-6.347925E-1,3.6293852E-1,-2.8645906E-1,3.2826436E-1,-1.2666757E-1,6.386835E-1,1.4000882E-1,-7.043265E-1,-2.591553E-1,5.092276E-1,3.7955618E-1,-4.1621253E-1,8.75429E-1,9.056473E-2],"categories":[],"categories_nodes":[],"categories_segments":[],"categories_sizes":[],"default_left":[true,true,false,true,true,false,false,true,true,false,true,false,true,true,true,true,true,false,false,false,false,false,false,false,false],"id":13,"left_children":[1,3,-1,5,7,-1,-1,9,11,-1,13,-1,15,17,19,21,23,-1,-1,-1,-1,-1,-1,-1,-1],"loss_changes":[3.0342774E0,9.0973467E-1,0E0,7.253909E-2,8.7538636E-1,0E0,0E0,1.404125E0,1.7364814E0,0E0,1.307149E0,0E0,1.3594778E0,1.5011599E0,7.882766E-1,7.804165E-1,7.283609E-1,0E0,0E0,0E0,0E0,0E0,0E0,0E0,0E0],"parents":[2147483647,0,0,1,1,3,3,4,4,7,7,8,8,10,10,12,12,13,13,14,14,15,15,16,16],"right_children":[2,4,-1,6,8,-1,-1,10,12,-1,14,-1,16,18,20,22,24,-1,-1,-1,-1,-1,-1,-1,-1],"split_conditions":[5.5050004E-1,-1.6666667E-1,-2.5841966E-1,6.161373E0,9.95E1,-2.0330055E-1,-4.4916578E-2,5E-1,-1.164557E0,-2.2237329E-1,2.105E-1,-1.9043776E-1,5.0784693E0,1.345E-1,5.7487473E0,3.2450002E-1,2.095E-1,4.2002648E-2,-2.1129796E-1,-7.774659E-2,1.5276828E-1,1.1386686E-1,-1.24863766E-1,2.626287E-1,2.716942E-2],"split_indices":[5,4,0,1,0,0,0,2,7,0,6,0,1,6,1,5,6,0,0,0,0,0,0,0,0],"split_type":[0,0,0,0,0,0,0,0,0,0,0,0,0,0,0,0,0,0,0,0,0,0,0,0,0],"sum_hessian":[3.251416E1,2.6866348E1,5.6478105E0,2.695656E0,2.4170692E1,1.6165586E0,1.0790974E0,1.4510837E1,9.659855E0,2.4664783E0,1.2044358E1,1.1893637E0,8.470491E0,6.8703284E0,5.1740303E0,3.2465794E0,5.2239122E0,3.7292595E0,3.141069E0,1.1167829E0,4.057247E0,1.0681741E0,2.1784053E0,3.23115E0,1.9927622E0],"tree_param":{"num_deleted":"0","num_feature":"9","num_nodes":"25","size_leaf_vector":"0"}},{"base_weights":[-2.2583869E-1,-9.5977455E-2,-8.3242804E-1,-1.5505855E-1,7.0575815E-1,-7.334143E-1,-5.7569973E-2,-1.18358165E-1,5.2836704E-1,-2.2019859E-1,2.4401991E-1,-4.759928E-1,7.673628E-2,5.767723E-1,-2.8041087E-2],"categories":[],"categories_nodes":[],"categories_segments":[],"categories_sizes":[],"default_left":[true,true,false,true,false,false,true,true,false,true,true,false,false,false,false],"id":14,"left_children":[1,3,-1,5,-1,-1,7,9,-1,11,13,-1,-1,-1,-1],"loss_changes":[2.37786E0,1.3802673E0,0E0,1.4128978E0,0E0,0E0,8.8781536E-1,8.586017E-1,0E0,1.3695587E0,4.9225503E-1,0E0,0E0,0E0,0E0],"parents":[2147483647,0,0,1,1,3,3,6,6,7,7,9,9,10,10],"right_children":[2,4,-1,6,-1,-1,8,10,-1,12,14,-1,-1,-1,-1],"split_conditions":[4.725E-1,4.305E-1,-2.4972843E-1,3E-1,2.1172746E-1,-2.200243E-1,9.858322E0,1.5E0,1.5851012E-1,9.95E1,1.69E-1,-1.4279784E-1,2.3020884E-2,1.7303169E-1,-8.412327E-3],"split_indices":[6,6,0,2,0,0,1,2,0,0,6,0,0,0,0],"split_type":[0,0,0,0,0,0,0,0,0,0,0,0,0,0,0],"sum_hessian":[3.020069E1,2.5829273E1,4.371416E0,2.4807749E1,1.0215238E0,2.6375103E0,2.2170238E1,2.0809366E1,1.3608713E0,1.6550478E1,4.258889E0,8.567227E0,7.98325E0,1.4119502E0,2.846939E0],"tree_param":{"num_deleted":"0","num_feature":"9","num_nodes":"15","size_leaf_vector":"0"}},{"base_weights":[-1.785905E-1,-6.406682E-2,-7.861213E-1,-1.11927435E-1,4.986611E-1,-6.6004807E-1,-3.6614694E-2,2.4747536E-1,-1.2250252E-1,-2.0066193E-1,7.462893E-1,9.8188125E-2,-3.3156142E-1,2.2113386E-1,-4.5654276E-1,-2.7745545E-1,3.6578876E-1,-5.3903E-1,-2.2864895E-2],"categories":[],"categories_nodes":[],"categories_segments":[],"categories_sizes":[],"default_left":[true,true,false,true,false,false,true,true,true,true,false,true,true,false,false,false,false,false,false],"id":15,"left_children":[1,3,-1,5,-1,-1,7,9,11,13,-1,15,17,-1,-1,-1,-1,-1,-1],"loss_changes":[1.9757648E0,7.450367E-1,0E0,9.8313856E-1,0E0,0E0,5.7961774E-1,1.3919976E0,8.6096275E-1,5.0195897E-1,0E0,1.0570719E0,5.9284055E-1,0E0,0E0,0E0,0E0,0E0,0E0],"parents":[2147483647,0,0,1,1,3,3,6,6,7,7,8,8,9,9,11,11,12,12],"right_children":[2,4,-1,6,-1,-1,8,10,12,14,-1,16,18,-1,-1,-1,-1,-1,-1],"split_conditions":[5.5050004E-1,4.505E-1,-2.358364E-1,3E-1,1.4959833E-1,-1.9801442E-1,-9.135021E-1,-1.164557E0,3.5149997E-1,-1.7510548E0,2.238868E-1,1.265E-1,7.1428575E-2,6.634016E-2,-1.3696283E-1,-8.3236635E-2,1.0973663E-1,-1.6170901E-1,-6.8594688E-3],"split_indices":[5,6,0,2,0,0,7,7,5,7,0,6,8,0,0,0,0,0,0],"split_type":[0,0,0,0,0,0,0,0,0,0,0,0,0,0,0,0,0,0,0],"sum_hessian":[2.8120811E1,2.4590744E1,3.5300682E0,2.3401518E1,1.1892258E0,1.8890505E0,2.1512468E1,4.557223E0,1.6955246E1,2.7154074E0,1.8418154E0,8.506154E0,8.449091E0,1.076572E0,1.6388354E0,3.5233855E0,4.982768E0,4.6068044E0,3.842287E0],"tree_param":{"num_deleted":"0","num_feature":"9","num_nodes":"19","size_leaf_vector":"0"}},{"base_weights":[-1.4779262E-1,-4.5558773E-2,-7.6012725E-1,-9.865839E-2,6.045153E-1,-6.4740956E-1,-2.423503E-2,-7.718778E-2,4.6516505E-1,-1.3920298E-1,4.02997E-1,-6.297397E-2,-6.392568E-1],"categories":[],"categories_nodes":[],"categories_segments":[],"categories_sizes":[],"default_left":[true,true,false,true,false,false,true,true,false,true,false,false,false],"id":16,"left_children":[1,3,-1,5,-1,-1,7,9,-1,11,-1,-1,-1],"loss_changes":[1.6962225E0,9.142141E-1,0E0,9.5413697E-1,0E0,0E0,6.047388E-1,6.7146176E-1,0E0,6.856829E-1,0E0,0E0,0E0],"parents":[2147483647,0,0,1,1,3,3,6,6,7,7,9,9],"right_children":[2,4,-1,6,-1,-1,8,10,-1,12,-1,-1,-1],"split_conditions":[4.725E-1,4.355E-1,-2.2803818E-1,3E-1,1.813546E-1,-1.9422288E-1,9.858322E0,1.9E0,1.3954952E-1,3.275E-1,1.208991E-1,-1.8892191E-2,-1.9177704E-1],"split_indices":[6,6,0,2,0,0,1,2,0,6,0,0,0],"split_type":[0,0,0,0,0,0,0,0,0,0,0,0,0],"sum_hessian":[2.664882E1,2.3756842E1,2.891981E0,2.2747042E1,1.0097982E0,1.7971293E0,2.0949913E1,1.9664509E1,1.2854052E0,1.8044226E1,1.6202817E0,1.6634388E1,1.4098389E0],"tree_param":{"num_deleted":"0","num_feature":"9","num_nodes":"13","size_leaf_vector":"0"}},{"base_weights":[-1.2007698E-1,-3.335603E-2,-7.1242046E-1,-8.217941E-2,5.3936327E-1,-6.094584E-1,-1.6232796E-2,3.283741E-2,-4.2658967E-1,1.4439844E-1,-2.3669502E-1,3.2103944E-1,-2.4055645E-1,-5.020681E-1,4.3023968E-1],"categories":[],"categories_nodes":[],"categories_segments":[],"categories_sizes":[],"default_left":[true,true,false,true,false,false,true,true,false,true,true,false,false,false,false],"id":17,"left_children":[1,3,-1,5,-1,-1,7,9,-1,11,13,-1,-1,-1,-1],"loss_changes":[1.3320225E0,7.17423E-1,0E0,7.9156274E-1,0E0,0E0,4.4721717E-1,6.399105E-1,0E0,1.0882704E0,1.326777E0,0E0,0E0,0E0,0E0],"parents":[2147483647,0,0,1,1,3,3,6,6,7,7,9,9,10,10],"right_children":[2,4,-1,6,-1,-1,8,10,-1,12,14,-1,-1,-1,-1],"split_conditions":[4.725E-1,4.425E-1,-2.1372615E-1,3E-1,1.6180898E-1,-1.8283752E-1,9.714286E0,3.101266E-1,-1.2797691E-1,3.75E-1,1.25E-1,9.631184E-2,-7.2166935E-2,-1.5062043E-1,1.290719E-1],"split_indices":[6,6,0,2,0,0,8,7,0,3,3,0,0,0,0],"split_type":[0,0,0,0,0,0,0,0,0,0,0,0,0,0,0],"sum_hessian":[2.5393293E1,2.307182E1,2.3214748E0,2.2048712E1,1.0231066E0,1.5348735E0,2.0513838E1,1.9144527E1,1.3693116E0,1.3868527E1,5.2759995E0,9.620214E0,4.2483134E0,3.9510705E0,1.3249291E0],"tree_param":{"num_deleted":"0","num_feature":"9","num_nodes":"15","size_leaf_vector":"0"}},{"base_weights":[-1.0559964E-1,-3.18079E-2,-6.6248626E-1,-1.04100056E-1,2.4486633E-1,-2.7042523E-1,1.071762E-1,3.969868E-1,-1.9187425E-1,3.1214017E-1,-4.4464195E-1,-6.0530597E-1,2.761148E-1,8.54612E-2,5.107848E-1,4.047937E-1,7.418013E-2,-6.1117005E-1,2.5976908E-1,6.340919E-1,-6.185269E-2,-7.0794564E-1,-2.0903431E-1,-2.3371402E-2,1.0488876E0,2.7615026E-1,-3.8386717E-1],"categories":[],"categories_nodes":[],"categories_segments":[],"categories_sizes":[],"default_left":[true,true,false,true,true,true,true,true,false,true,true,false,true,false,false,false,false,true,false,true,true,false,false,false,false,false,false],"id":18,"left_children":[1,3,-1,5,7,9,11,13,-1,15,17,-1,19,-1,-1,-1,-1,21,-1,23,25,-1,-1,-1,-1,-1,-1],"loss_changes":[1.0258855E0,4.964601E-1,0E0,7.0967543E-1,4.2007005E-1,1.2676005E0,1.2803333E0,1.0399896E-1,0E0,3.937733E-2,1.21147E0,0E0,1.0267686E0,0E0,0E0,0E0,0E0,1.4609146E-1,0E0,1.1297727E0,6.621613E-1,0E0,0E0,0E0,0E0,0E0,0E0],"parents":[2147483647,0,0,1,1,3,3,4,4,5,5,6,6,7,7,9,9,10,10,12,12,17,17,19,19,20,20],"right_children":[2,4,-1,6,8,10,12,14,-1,16,18,-1,20,-1,-1,-1,-1,22,-1,24,26,-1,-1,-1,-1,-1,-1],"split_conditions":[5.5050004E-1,1.5E0,-1.9874589E-1,9.95E1,6.413502E-1,-1.0210971E0,1.05000004E-1,-6.308017E-1,-5.7562277E-2,9.2857146E-1,9.858322E0,-1.815918E-1,2.085E-1,2.563836E-2,1.5323545E-1,1.21438116E-1,2.225404E-2,7.993561E0,7.7930726E-2,5.402611E0,5.0793066E0,-2.123837E-1,-6.271029E-2,-7.011421E-3,3.146663E-1,8.284508E-2,-1.1516016E-1],"split_indices":[5,2,0,0,7,7,6,7,0,8,1,0,6,0,0,0,0,1,0,1,1,0,0,0,0,0,0],"split_type":[0,0,0,0,0,0,0,0,0,0,0,0,0,0,0,0,0,0,0,0,0,0,0,0,0,0,0],"sum_hessian":[2.447737E1,2.2546856E1,1.9305137E0,1.837056E1,4.1762953E0,1.0122087E1,8.248474E0,3.1649423E0,1.0113528E0,2.1479278E0,7.9741583E0,1.0858811E0,7.162593E0,1.3152884E0,1.8496538E0,1.0413587E0,1.106569E0,6.5565157E0,1.4176427E0,3.0528276E0,4.109765E0,4.671771E0,1.8847446E0,1.5460109E0,1.5068167E0,2.074594E0,2.0351713E0],"tree_param":{"num_deleted":"0","num_feature":"9","num_nodes":"27","size_leaf_vector":"0"}},{"base_weights":[-8.468859E-2,-1.7546285E-2,-6.292088E-1,-6.385364E-2,4.8279956E-1,-5.404046E-1,-9.828838E-3,-2.6862022E-1,6.269665E-2,-5.9475595E-1,8.920158E-2,-5.2896567E-2,2.503849E-1,-3.9973882E-1,5.330392E-1,-4.3481115E-1,8.0941744E-2,3.7775844E-1,-1.8595631E-1],"categories":[],"categories_nodes":[],"categories_segments":[],"categories_sizes":[],"default_left":[true,true,false,true,false,false,true,true,true,false,true,true,true,false,false,false,false,false,false],"id":19,"left_children":[1,3,-1,5,-1,-1,7,9,11,-1,13,15,17,-1,-1,-1,-1,-1,-1],"loss_changes":[8.683258E-1,5.5077726E-1,0E0,5.462386E-1,0E0,0E0,3.9710602E-1,5.9269273E-1,3.7417167E-1,0E0,8.802908E-1,6.036392E-1,4.3234527E-1,0E0,0E0,0E0,0E0,0E0,0E0],"parents":[2147483647,0,0,1,1,3,3,6,6,7,7,8,8,10,10,11,11,12,12],"right_children":[2,4,-1,6,-1,-1,8,10,12,-1,14,16,18,-1,-1,-1,-1,-1,-1],"split_conditions":[4.725E-1,4.4349998E-1,-1.8876265E-1,3E-1,1.4483987E-1,-1.6212139E-1,5.1054287E0,2E0,1.1E0,-1.7842679E-1,-3.75E-1,1.035E-1,8.333334E-1,-1.1992165E-1,1.5991177E-1,-1.3044335E-1,2.4282524E-2,1.1332754E-1,-5.5786896E-2],"split_indices":[6,6,0,2,0,0,1,8,2,0,3,6,4,0,0,0,0,0,0],"split_type":[0,0,0,0,0,0,0,0,0,0,0,0,0,0,0,0,0,0,0],"sum_hessian":[2.3052458E1,2.1440903E1,1.6115565E0,2.042311E1,1.0177919E0,1.1628398E0,1.926027E1,3.6242216E0,1.5636048E1,1.5496451E0,2.0745766E0,1.0120942E1,5.515106E0,1.034409E0,1.0401676E0,2.042833E0,8.07811E0,4.372869E0,1.1422371E0],"tree_param":{"num_deleted":"0","num_feature":"9","num_nodes":"19","size_leaf_vector":"0"}},{"base_weights":[-8.052233E-2,-2.3566457E-2,-5.827859E-1,-6.57749E-2,4.210938E-1,4.0025932E-1,-1.117426E-1,-4.8202688E-1,-3.0189842E-2,4.4534737E-1,-1.337661E-1,-8.8291906E-2,7.587735E-1,2.5067198E-1,-3.0238873E-1],"categories":[],"categories_nodes":[],"categories_segments":[],"categories_sizes":[],"default_left":[true,true,false,true,false,false,true,false,true,true,true,false,false,false,false],"id":20,"left_children":[1,3,-1,5,-1,-1,7,-1,9,11,13,-1,-1,-1,-1],"loss_changes":[6.5604717E-1,4.419321E-1,0E0,4.9507743E-1,0E0,0E0,5.8688617E-1,0E0,9.160427E-1,6.257993E-1,1.0512671E0,0E0,0E0,0E0,0E0],"parents":[2147483647,0,0,1,1,3,3,6,6,8,8,9,9,10,10],"right_children":[2,4,-1,6,-1,-1,8,-1,10,12,14,-1,-1,-1,-1],"split_conditions":[4.725E-1,4.465E-1,-1.7483577E-1,-1.45E-2,1.2632814E-1,1.200778E-1,2.9000002E-1,-1.4460807E-1,1.345E-1,1.05000004E-1,3.5149997E-1,-2.6487572E-2,2.2763206E-1,7.52016E-2,-9.071662E-2],"split_indices":[6,6,0,6,0,0,5,0,6,6,5,0,0,0,0],"split_type":[0,0,0,0,0,0,0,0,0,0,0,0,0,0,0],"sum_hessian":[2.2413313E1,2.1070835E1,1.3424778E0,2.0022335E1,1.0485002E0,1.1056384E0,1.8916697E1,2.5279794E0,1.6388718E1,2.341011E0,1.4047706E1,1.1319885E0,1.2090225E0,4.1346483E0,9.913057E0],"tree_param":{"num_deleted":"0","num_feature":"9","num_nodes":"15","size_leaf_vector":"0"}},{"base_weights":[-5.4824673E-2,-5.561392E-1,-7.311788E-5,4.6291538E-2,-4.1295865E-1,-4.996351E-2,2.8414613E-1,3.7600867E-2,-5.5933726E-1,-3.3452656E-2,5.1447874E-1,-8.931315E-2,3.671118E-1,2.9395923E-1,-3.1957647E-1,6.360314E-1,1.4560042E-1,1.8236758E-1,-4.5913807E-1,7.7264154E-1,-4.12727E-2],"categories":[],"categories_nodes":[],"categories_segments":[],"categories_sizes":[],"default_left":[true,false,true,true,false,true,true,true,false,true,true,true,true,false,false,false,false,false,false,false,false],"id":21,"left_children":[1,-1,3,5,-1,7,9,11,-1,13,15,17,19,-1,-1,-1,-1,-1,-1,-1,-1],"loss_changes":[6.238875E-1,0E0,4.3057144E-1,4.7718984E-1,0E0,7.010988E-1,4.5434496E-1,6.16068E-1,0E0,4.1722307E-1,6.543434E-2,1.1762486E0,7.065841E-1,0E0,0E0,0E0,0E0,0E0,0E0,0E0,0E0],"parents":[2147483647,0,0,2,2,3,3,5,5,6,6,7,7,9,9,10,10,11,11,12,12],"right_children":[2,-1,4,6,-1,8,10,12,-1,14,16,18,20,-1,-1,-1,-1,-1,-1,-1,-1],"split_conditions":[-1E-1,-1.6684176E-1,9.714286E0,4.0714283E0,-1.238876E-1,6.25E-1,1.99E-1,4.5850003E-1,-1.6780119E-1,6.785714E0,4.0850002E-1,3.55E-1,3.055E-1,8.818777E-2,-9.5872946E-2,1.9080943E-1,4.3680128E-2,5.4710276E-2,-1.3774143E-1,2.3179246E-1,-1.2381811E-2],"split_indices":[2,0,8,8,0,3,6,5,0,8,5,5,6,0,0,0,0,0,0,0,0],"split_type":[0,0,0,0,0,0,0,0,0,0,0,0,0,0,0,0,0,0,0,0,0],"sum_hessian":[2.1731487E1,1.2380635E0,2.0493423E1,1.9222708E1,1.270716E0,1.424712E1,4.975587E0,1.2947542E1,1.2995775E0,2.4508905E0,2.5246966E0,9.873594E0,3.0739486E0,1.1302077E0,1.3206829E0,1.3542227E0,1.1704738E0,5.984294E0,3.8892999E0,1.0948278E0,1.979121E0],"tree_param":{"num_deleted":"0","num_feature":"9","num_nodes":"21","size_leaf_vector":"0"}},{"base_weights":[-4.619322E-2,3.2701197E-3,-5.197493E-1,-3.673662E-1,4.9249142E-2,-1.2474819E-1,2.0867863E-1,-3.13289E-1,2.5115186E-1,8.0103314E-1,4.541318E-2,9.765863E-2,-6.6642684E-1,-4.323149E-2,4.7021163E-1,3.8717416E-1,-2.78126E-1,-2.0819896E-1,4.6708822E-1,-4.696418E-2,6.688686E-1,-5.459921E-1,2.37853E-1],"categories":[],"categories_nodes":[],"categories_segments":[],"categories_sizes":[],"default_left":[true,true,false,false,true,true,true,true,true,false,true,true,false,false,false,true,true,false,false,false,false,false,false],"id":22,"left_children":[1,3,-1,-1,5,7,9,11,13,-1,15,17,-1,-1,-1,19,21,-1,-1,-1,-1,-1,-1],"loss_changes":[5.1342326E-1,3.7211433E-1,0E0,0E0,5.631733E-1,7.7921915E-1,9.7703207E-1,1.0849501E0,2.6904085E-1,0E0,1.1332173E0,5.627986E-1,0E0,0E0,0E0,6.341275E-1,8.6879885E-1,0E0,0E0,0E0,0E0,0E0,0E0],"parents":[2147483647,0,0,1,1,4,4,5,5,6,6,7,7,8,8,10,10,11,11,15,15,16,16],"right_children":[2,4,-1,-1,6,8,10,12,14,-1,16,18,-1,-1,-1,20,22,-1,-1,-1,-1,-1,-1],"split_conditions":[5.5050004E-1,-1.6666667E-1,-1.559248E-1,-1.1020986E-1,-2.78481E-1,1.3E0,-2.0042193E-1,-9.2827004E-1,2.0699999E-1,2.4030995E-1,5.556666E0,-1.164557E0,-1.9992806E-1,-1.2969448E-2,1.410635E-1,5.1234455E0,8.020707E0,-6.2459692E-2,1.4012647E-1,-1.4089255E-2,2.0066059E-1,-1.6379763E-1,7.13559E-2],"split_indices":[5,4,0,0,7,2,7,7,6,0,1,7,0,0,0,1,1,0,0,0,0,0,0],"split_type":[0,0,0,0,0,0,0,0,0,0,0,0,0,0,0,0,0,0,0,0,0,0,0],"sum_hessian":[2.0846436E1,1.9774107E1,1.0723282E0,1.4109106E0,1.8363197E1,8.884458E0,9.47874E0,6.027698E0,2.856759E0,1.2040219E0,8.274718E0,3.1201847E0,2.9075136E0,1.5612816E0,1.2954775E0,3.928393E0,4.346325E0,1.9457191E0,1.1744654E0,1.8738129E0,2.05458E0,2.822751E0,1.523574E0],"tree_param":{"num_deleted":"0","num_feature":"9","num_nodes":"23","size_leaf_vector":"0"}},{"base_weights":[-3.3633802E-2,1.5002489E-2,-4.7499698E-1,5.7813972E-2,-3.5590085E-1,-3.9429516E-2,2.9499438E-1,-1.4780101E-1,2.0644514E-1,6.858323E-1,2.237094E-2,6.844744E-2,-5.0767887E-1,5.25621E-1,-1.2778859E-1,-3.538208E-1,3.7748864E-1,-2.0453276E-1,2.9788893E-1,-7.5404865E-1,3.8209382E-2,-3.5941005E-1,1.7848384E-1],"categories":[],"categories_nodes":[],"categories_segments":[],"categories_sizes":[],"default_left":[true,true,false,true,false,true,true,true,true,false,true,true,true,false,true,false,false,false,false,false,false,false,false],"id":23,"left_children":[1,3,-1,5,-1,7,9,11,13,-1,15,17,19,-1,21,-1,-1,-1,-1,-1,-1,-1,-1],"loss_changes":[4.5782286E-1,3.362647E-1,0E0,4.4256273E-1,0E0,4.0710175E-1,5.761043E-1,8.4350836E-1,5.7291996E-1,0E0,7.0849633E-1,5.22705E-1,5.6940114E-1,0E0,2.8549573E-1,0E0,0E0,0E0,0E0,0E0,0E0,0E0,0E0],"parents":[2147483647,0,0,1,1,3,3,5,5,6,6,7,7,8,8,10,10,11,11,12,12,14,14],"right_children":[2,4,-1,6,-1,8,10,12,14,-1,16,18,20,-1,22,-1,-1,-1,-1,-1,-1,-1,-1],"split_conditions":[4.7E-1,9.5E0,-1.424991E-1,4.0714283E0,-1.0677026E-1,4.19E-1,6.6428576E0,3.55E-1,3.055E-1,2.057497E-1,1.99E-1,3.02E-1,6.1258144E0,1.5768631E-1,-2.4472573E-1,-1.06146246E-1,1.132466E-1,-6.135983E-2,8.936668E-2,-2.262146E-1,1.1462815E-2,-1.0782302E-1,5.3545155E-2],"split_indices":[6,8,0,8,0,5,8,5,6,0,6,5,1,0,7,0,0,0,0,0,0,0,0],"split_type":[0,0,0,0,0,0,0,0,0,0,0,0,0,0,0,0,0,0,0,0,0,0,0],"sum_hessian":[1.999558E1,1.8880987E1,1.1145935E0,1.7683947E1,1.1970413E0,1.31331415E1,4.550804E0,9.392283E0,3.740858E0,1.247167E0,3.3036373E0,6.3727436E0,3.0195398E0,1.6206278E0,2.1202304E0,1.6059918E0,1.6976454E0,2.9598255E0,3.412918E0,1.8178055E0,1.2017343E0,1.1084538E0,1.0117766E0],"tree_param":{"num_deleted":"0","num_feature":"9","num_nodes":"23","size_leaf_vector":"0"}},{"base_weights":[-3.230351E-2,1.780628E-1,-1.2567882E-1,-6.2943615E-2,4.6328664E-1,-5.387189E-1,1.6050892E-2,3.604686E-1,-2.8862256E-1,1.7115317E-1,-2.628368E-1,2.303794E-1,-6.136913E-1,3.490989E-1,-1.6275872E-1,3.3685315E-1,-5.927237E-1,1.5332988E-2,6.834069E-1,-4.909358E-1,3.357065E-1,-2.724269E-1,3.7479448E-1],"categories":[],"categories_nodes":[],"categories_segments":[],"categories_sizes":[],"default_left":[true,true,true,true,false,false,true,false,true,true,true,false,false,true,true,false,false,true,false,false,false,false,false],"id":24,"left_children":[1,3,5,7,-1,-1,9,-1,11,13,15,-1,-1,17,19,-1,-1,21,-1,-1,-1,-1,-1],"loss_changes":[4.2096448E-1,4.8640466E-1,8.6565924E-1,5.326718E-1,0E0,0E0,5.584674E-1,0E0,7.2873974E-1,5.4606366E-1,1.1169615E0,0E0,0E0,6.2434816E-1,7.446403E-1,0E0,0E0,5.024074E-1,0E0,0E0,0E0,0E0,0E0],"parents":[2147483647,0,0,1,1,2,2,3,3,6,6,8,8,9,9,10,10,13,13,14,14,17,17],"right_children":[2,4,6,8,-1,-1,10,-1,12,14,16,-1,-1,18,20,-1,-1,22,-1,-1,-1,-1,-1],"split_conditions":[1.55E-1,1.035E-1,1.99E-1,-1.45E-2,1.3898599E-1,-1.6161567E-1,6.1181433E-2,1.0814058E-1,-1.25E-1,3.75E-1,2.3249999E-1,6.911382E-2,-1.841074E-1,-3.75E-1,7.3690834E0,1.0105595E-1,-1.7781712E-1,1.3E0,2.0502208E-1,-1.4728075E-1,1.0071196E-1,-8.172807E-2,1.1243835E-1],"split_indices":[6,6,6,6,0,0,7,0,3,3,6,0,0,3,1,0,0,2,0,0,0,0,0],"split_type":[0,0,0,0,0,0,0,0,0,0,0,0,0,0,0,0,0,0,0,0,0,0,0],"sum_hessian":[1.929147E1,5.65171E0,1.3639759E1,3.4857037E0,2.1660063E0,2.7690227E0,1.0870737E1,1.0042661E0,2.4814374E0,7.2339215E0,3.6368153E0,1.0678335E0,1.4136039E0,4.6894007E0,2.544521E0,1.2831337E0,2.3536816E0,2.8699596E0,1.8194408E0,1.5434543E0,1.0010667E0,1.7284265E0,1.1415331E0],"tree_param":{"num_deleted":"0","num_feature":"9","num_nodes":"23","size_leaf_vector":"0"}},{"base_weights":[-2.2951176E-2,-6.954177E-2,3.4382683E-1,-1.7884582E-1,7.839855E-2,-6.1715794E-1,-3.814258E-2,-2.0396677E-1,2.4700518E-1,3.0505863E-1,-1.5047535E-1,-4.547086E-1,1.07964635E-1,-1.2181893E-1,4.7619736E-1,-2.7349338E-1,2.563052E-1,8.08645E-1,2.3023227E-2,-4.1442388E-1,1.2904105E-1],"categories":[],"categories_nodes":[],"categories_segments":[],"categories_sizes":[],"default_left":[true,true,false,true,true,false,true,true,true,false,true,false,false,false,true,true,false,false,false,false,false],"id":25,"left_children":[1,3,-1,5,7,-1,9,11,13,-1,15,-1,-1,-1,17,19,-1,-1,-1,-1,-1],"loss_changes":[3.547332E-1,3.0523962E-1,0E0,6.3399535E-1,4.4779116E-1,0E0,3.9815366E-1,3.360297E-1,5.3805053E-1,0E0,4.4807988E-1,0E0,0E0,0E0,5.397312E-1,4.0992513E-1,0E0,0E0,0E0,0E0,0E0],"parents":[2147483647,0,0,1,1,3,3,4,4,6,6,7,7,8,8,10,10,14,14,15,15],"right_children":[2,4,-1,6,8,-1,10,12,14,-1,16,-1,-1,-1,18,20,-1,-1,-1,-1,-1],"split_conditions":[1.9E0,9.95E1,1.0314805E-1,5E-1,5.0784693E0,-1.8514739E-1,-1.0189874E0,2.7857141E0,-2.8481013E-1,9.151759E-2,9.858322E0,-1.3641259E-1,3.238939E-2,-3.654568E-2,2.7004218E-1,1.5E0,7.689156E-2,2.4259351E-1,6.9069685E-3,-1.2432717E-1,3.8712315E-2],"split_indices":[2,0,0,2,1,0,7,8,7,0,1,0,0,0,7,2,0,0,0,0,0],"split_type":[0,0,0,0,0,0,0,0,0,0,0,0,0,0,0,0,0,0,0,0,0],"sum_hessian":[1.8359493E1,1.7009262E1,1.3502319E0,9.661824E0,7.3474364E0,1.5249949E0,8.136829E0,2.6686058E0,4.6788306E0,1.5834314E0,6.553398E0,1.2256576E0,1.4429482E0,1.9727299E0,2.706101E0,5.283295E0,1.2701032E0,1.1085029E0,1.597598E0,3.8913617E0,1.3919333E0],"tree_param":{"num_deleted":"0","num_feature":"9","num_nodes":"21","size_leaf_vector":"0"}},{"base_weights":[-1.29718855E-2,-3.6043727E-1,3.349713E-2,-1.0795931E-1,1.5513231E-1,-5.4784423E-1,3.4781538E-2,4.6288672E-1,-4.496297E-2,-1.7921762E-1,2.974214E-1,-7.4751824E-2,9.011856E-1,2.4083498E-1,-4.549567E-1,2.278762E-2,-3.7683636E-1,1.6560541E-2,5.0885344E-1,5.4140806E-1,-1.3690005E-1,-6.649562E-1,-2.69592E-3,2.3092629E-1,-1.7902024E-1],"categories":[],"categories_nodes":[],"categories_segments":[],"categories_sizes":[],"default_left":[true,false,true,true,true,false,true,true,true,true,true,false,false,true,true,true,false,false,false,false,false,false,false,false,false],"id":26,"left_children":[1,-1,3,5,7,-1,9,11,13,15,17,-1,-1,19,21,23,-1,-1,-1,-1,-1,-1,-1,-1,-1],"loss_changes":[3.1436038E-1,0E0,3.166188E-1,5.6201035E-1,6.2312627E-1,0E0,4.730959E-1,9.963499E-1,9.1089404E-1,1.9779205E-1,2.1303591E-1,0E0,0E0,6.058744E-1,2.9786456E-1,1.7939778E-1,0E0,0E0,0E0,0E0,0E0,0E0,0E0,0E0,0E0],"parents":[2147483647,0,0,2,2,3,3,4,4,6,6,7,7,8,8,9,9,10,10,13,13,14,14,15,15],"right_children":[2,-1,4,6,8,-1,10,12,14,16,18,-1,-1,20,22,24,-1,-1,-1,-1,-1,-1,-1,-1,-1],"split_conditions":[-1.6666667E-1,-1.08131185E-1,-2.763713E-1,5E-1,5.2555723E0,-1.6435328E-1,1.1E0,5.0784693E0,2.4149999E-1,-9.451477E-1,2.065E-1,-2.2425547E-2,2.7035567E-1,2.7004218E-1,3.725E-1,7.0000005E-1,-1.13050915E-1,4.9681626E-3,1.5265603E-1,1.6242242E-1,-4.1070018E-2,-1.9948687E-1,-8.08776E-4,6.927789E-2,-5.3706076E-2],"split_indices":[4,0,7,4,1,0,2,1,6,7,6,0,0,7,6,2,0,0,0,0,0,0,0,0,0],"split_type":[0,0,0,0,0,0,0,0,0,0,0,0,0,0,0,0,0,0,0,0,0,0,0,0,0],"sum_hessian":[1.7721651E1,1.2934625E0,1.6428188E1,7.6472282E0,8.78096E0,1.1782322E0,6.468996E0,2.9422827E0,5.838678E0,3.739598E0,2.7293978E0,1.6939061E0,1.2483766E0,3.683545E0,2.1551325E0,2.2867641E0,1.452834E0,1.6353573E0,1.0940405E0,1.80999E0,1.8735551E0,1.1505847E0,1.0045478E0,1.054695E0,1.2320691E0],"tree_param":{"num_deleted":"0","num_feature":"9","num_nodes":"25","size_leaf_vector":"0"}},{"base_weights":[-1.3281232E-2,-8.074435E-2,1.8426715E-1,4.1530835E-3,-4.655734E-1,-9.7030364E-2,3.723188E-1,1.1510628E-1,-3.028901E-1,4.9032918E-1,5.9897467E-2,-3.268964E-2,4.0127215E-1,6.1846342E-2,-5.608543E-1,-1.980754E-1,1.3909176E-1,1.167108E-1,5.0064725E-1,3.6601786E-2,-4.367505E-1,-1.1530071E-1,2.7040637E-1],"categories":[],"categories_nodes":[],"categories_segments":[],"categories_sizes":[],"default_left":[true,true,true,true,false,false,true,true,true,false,false,true,true,false,false,true,true,false,false,false,false,false,false],"id":27,"left_children":[1,3,5,7,-1,-1,9,11,13,-1,-1,15,17,-1,-1,19,21,-1,-1,-1,-1,-1,-1],"loss_changes":[2.558015E-1,4.649105E-1,2.956785E-1,4.6414217E-1,0E0,0E0,8.667335E-2,4.3524176E-1,3.7530252E-1,0E0,0E0,2.4080314E-1,3.9821625E-2,0E0,0E0,2.532969E-1,1.7379844E-1,0E0,0E0,0E0,0E0,0E0,0E0],"parents":[2147483647,0,0,1,1,2,2,3,3,6,6,7,7,8,8,11,11,12,12,15,15,16,16],"right_children":[2,4,6,8,-1,-1,10,12,14,-1,-1,16,18,-1,-1,20,22,-1,-1,-1,-1,-1,-1],"split_conditions":[8.027224E0,7.11534E0,3.5714287E-1,2.6950002E-1,-1.3967203E-1,-2.9109111E-2,8.984333E0,5.874611E0,-2.0042193E-1,1.4709876E-1,1.7969241E-2,1.8987343E-2,8.333334E-1,1.8553903E-2,-1.682563E-1,3.75E-1,1.765E-1,3.501324E-2,1.5019418E-1,1.0980536E-2,-1.3102515E-1,-3.4590214E-2,8.1121914E-2],"split_indices":[1,1,8,6,0,0,1,1,7,0,0,7,4,0,0,3,6,0,0,0,0,0,0],"split_type":[0,0,0,0,0,0,0,0,0,0,0,0,0,0,0,0,0,0,0,0,0,0,0],"sum_hessian":[1.7077497E1,1.3170885E1,3.9066126E0,1.1600826E1,1.5700593E0,1.7591728E0,2.14744E0,8.9806795E0,2.6201465E0,1.1453575E0,1.0020823E0,6.5061955E0,2.474484E0,1.400387E0,1.2197595E0,3.2368197E0,3.2693758E0,1.2032928E0,1.2711911E0,2.0589774E0,1.1778425E0,1.1545826E0,2.1147933E0],"tree_param":{"num_deleted":"0","num_feature":"9","num_nodes":"23","size_leaf_vector":"0"}},{"base_weights":[-1.3278954E-2,-7.3280975E-2,1.5968287E-1,-1.6079512E-3,-4.041772E-1,-1.3274395E-1,2.9436493E-1,9.284108E-2,-2.70311E-1,4.955163E-1,-5.2984897E-2,-1.8622418E-1,2.1860154E-1,1.17240265E-1,-4.7763357E-1,9.319697E-2,-4.5353752E-1,4.329824E-1,-8.932837E-2,8.35856E-2,5.561322E-1,-3.334973E-1,1.4093627E-1],"categories":[],"categories_nodes":[],"categories_segments":[],"categories_sizes":[],"default_left":[true,true,true,true,false,false,true,true,true,false,false,true,true,false,false,false,false,true,true,false,false,false,false],"id":28,"left_children":[1,3,5,7,-1,-1,9,11,13,-1,-1,15,17,-1,-1,-1,-1,19,21,-1,-1,-1,-1],"loss_changes":[1.9405548E-1,3.2499737E-1,2.2970304E-1,3.3700788E-1,0E0,0E0,2.7951136E-1,3.8598275E-1,3.333697E-1,0E0,0E0,3.1088272E-1,5.167471E-1,0E0,0E0,0E0,0E0,1.4458263E-1,2.6072946E-1,0E0,0E0,0E0,0E0],"parents":[2147483647,0,0,1,1,2,2,3,3,6,6,7,7,8,8,11,11,12,12,17,17,18,18],"right_children":[2,4,6,8,-1,-1,10,12,14,-1,-1,16,18,-1,-1,-1,-1,20,22,-1,-1,-1,-1],"split_conditions":[8.027224E0,7.11534E0,-6.097046E-1,2.6950002E-1,-1.2125316E-1,-3.982319E-2,-1.25E-1,5.1054287E0,5.3011475E0,1.486549E-1,-1.589547E-2,4.899169E0,5.714286E-1,3.5172082E-2,-1.4329007E-1,2.7959093E-2,-1.3606127E-1,5.5113087E0,4.6428576E0,2.507568E-2,1.6683966E-1,-1.0004919E-1,4.2280883E-2],"split_indices":[1,1,7,6,0,0,3,1,1,0,0,1,8,0,0,0,0,1,8,0,0,0,0],"split_type":[0,0,0,0,0,0,0,0,0,0,0,0,0,0,0,0,0,0,0,0,0,0,0],"sum_hessian":[1.6571087E1,1.2730929E1,3.8401573E0,1.1290282E1,1.4406466E0,1.2154709E0,2.6246865E0,8.838158E0,2.452125E0,1.3920077E0,1.2326788E0,2.5962458E0,6.2419114E0,1.0060339E0,1.4460912E0,1.5878412E0,1.0084046E0,3.4405167E0,2.801395E0,1.3341212E0,2.1063955E0,1.1420557E0,1.6593392E0],"tree_param":{"num_deleted":"0","num_feature":"9","num_nodes":"23","size_leaf_vector":"0"}},{"base_weights":[-1.6979847E-2,2.0573812E-2,-3.0995104E-1,1.0449096E-1,-1.4286028E-1,2.5569916E-1,-2.1742602E-1,1.9828737E-1,-3.7377834E-1,4.3797186E-1,-1.2474155E-1,-5.1572496E-1,2.15694E-1,-5.598186E-1,7.377495E-2,6.739617E-2,5.0571936E-1,-2.9835805E-1,1.4203624E-1,7.064498E-1,1.5443414E-1],"categories":[],"categories_nodes":[],"categories_segments":[],"categories_sizes":[],"default_left":[true,true,false,true,true,true,true,false,true,true,true,false,false,false,false,false,true,false,false,false,false],"id":29,"left_children":[1,3,-1,5,7,9,11,-1,13,15,17,-1,-1,-1,-1,-1,19,-1,-1,-1,-1],"loss_changes":[1.9464417E-1,2.3581208E-1,0E0,6.0169715E-1,5.3783023E-1,6.158354E-1,6.44312E-1,0E0,3.6244076E-1,1.0884845E-1,1.9984594E-1,0E0,0E0,0E0,0E0,0E0,2.1945977E-1,0E0,0E0,0E0,0E0],"parents":[2147483647,0,0,1,1,3,3,4,4,5,5,6,6,8,8,9,9,10,10,16,16],"right_children":[2,4,-1,6,8,10,12,-1,14,16,18,-1,-1,-1,-1,-1,20,-1,-1,-1,-1],"split_conditions":[9.5E0,2.6793247E-1,-9.298532E-2,3.75E-1,3.14E-1,8.333334E-1,7.0969763E0,5.9486214E-2,4.4950002E-1,-5.780591E-1,2.0699999E-1,-1.5471749E-1,6.47082E-2,-1.679456E-1,2.2132486E-2,2.0218853E-2,-2.0042193E-1,-8.9507416E-2,4.2610876E-2,2.1193495E-1,4.6330243E-2],"split_indices":[8,7,0,3,5,4,1,0,5,7,6,0,0,0,0,0,7,0,0,0,0],"split_type":[0,0,0,0,0,0,0,0,0,0,0,0,0,0,0,0,0,0,0,0,0],"sum_hessian":[1.611188E1,1.5105412E1,1.0064679E0,1.0219E1,4.886411E0,7.0930223E0,3.1259775E0,2.0294719E0,2.8569393E0,4.6932297E0,2.3997927E0,1.7381536E0,1.387824E0,1.8408761E0,1.0160633E0,1.0337086E0,3.659521E0,1.3820142E0,1.0177785E0,1.6854074E0,1.9741137E0],"tree_param":{"num_deleted":"0","num_feature":"9","num_nodes":"21","size_leaf_vector":"0"}},{"base_weights":[-1.6027434E-2,-5.151014E-2,2.45748E-1,-1.6488041E-1,9.617603E-2,1.851407E-1,-2.6165056E-1,-5.634276E-2,3.464779E-1,-3.703351E-1,1.8370387E-1,-2.6286215E-1,1.1120595E-1,1.23114854E-1,-4.85347E-1,-1.4865676E-1,3.316822E-1,-1.2461315E-1,-5.688607E-1],"categories":[],"categories_nodes":[],"categories_segments":[],"categories_sizes":[],"default_left":[true,true,false,true,true,false,true,true,false,true,false,false,true,false,true,false,false,false,false],"id":30,"left_children":[1,3,-1,5,7,-1,9,11,-1,13,-1,-1,15,-1,17,-1,-1,-1,-1],"loss_changes":[1.6755609E-1,2.7558506E-1,0E0,3.5816962E-1,3.0080938E-1,0E0,4.3483168E-1,2.1741691E-1,0E0,4.242769E-1,0E0,0E0,2.615957E-1,0E0,9.213388E-2,0E0,0E0,0E0,0E0],"parents":[2147483647,0,0,1,1,3,3,4,4,6,6,7,7,9,9,12,12,14,14],"right_children":[2,4,-1,6,8,-1,10,12,-1,14,-1,-1,16,-1,18,-1,-1,-1,-1],"split_conditions":[1.9E0,9.95E1,7.3724404E-2,-1.0210971E0,4.19E-1,5.5542212E-2,1.0053441E1,7.1428575E-2,1.0394337E-1,5.2573156E0,5.5111162E-2,-7.8858644E-2,-2.5E-1,3.6934458E-2,3.2450002E-1,-4.459703E-2,9.9504665E-2,-3.7383948E-2,-1.7065822E-1],"split_indices":[2,0,0,7,5,0,1,8,0,1,0,0,3,0,5,0,0,0,0],"split_type":[0,0,0,0,0,0,0,0,0,0,0,0,0,0,0,0,0,0,0],"sum_hessian":[1.5676274E1,1.4512399E1,1.163875E0,8.144163E0,6.3682356E0,1.5661485E0,6.578015E0,4.438552E0,1.9296836E0,5.4230256E0,1.1549894E0,1.7332678E0,2.705284E0,1.0117472E0,4.4112782E0,1.3912475E0,1.3140365E0,1.2977655E0,3.113513E0],"tree_param":{"num_deleted":"0","num_feature":"9","num_nodes":"19","size_leaf_vector":"0"}},{"base_weights":[-7.546253E-3,3.0148769E-2,-2.5107187E-1,-3.7902355E-2,3.1762284E-1,-9.683381E-2,2.7085602E-1,-6.8438606E-4,-3.3491528E-1,1.08919054E-1,-2.8249282E-1,6.331134E-2,-6.004504E-1,2.3855147E-1,-2.7411756E-1],"categories":[],"categories_nodes":[],"categories_segments":[],"categories_sizes":[],"default_left":[true,true,false,true,false,true,false,true,true,true,false,false,false,false,false],"id":31,"left_children":[1,3,-1,5,-1,7,-1,9,11,13,-1,-1,-1,-1,-1],"loss_changes":[1.5778595E-1,3.0672157E-1,0E0,2.6410696E-1,0E0,2.6793763E-1,0E0,3.1946412E-1,3.9415562E-1,4.35373E-1,0E0,0E0,0E0,0E0,0E0],"parents":[2147483647,0,0,1,1,3,3,5,5,7,7,8,8,9,9],"right_children":[2,4,-1,6,-1,8,-1,10,12,14,-1,-1,-1,-1,-1],"split_conditions":[4.54E-1,4.645E-1,-7.532156E-2,8.551306E0,9.528685E-2,3.6919832E-1,8.125681E-2,7.11534E0,3.1E-1,3.75E-1,-8.474785E-2,1.8993402E-2,-1.8013513E-1,7.156544E-2,-8.223527E-2],"split_indices":[6,5,0,1,0,7,0,1,5,3,0,0,0,0,0],"split_type":[0,0,0,0,0,0,0,0,0,0,0,0,0,0,0],"sum_hessian":[1.5363976E1,1.406333E1,1.3006461E0,1.2073446E1,1.9898833E0,1.0714744E1,1.3587028E0,8.346767E0,2.3679755E0,6.4512067E0,1.895561E0,1.2519618E0,1.1160135E0,5.1017976E0,1.3494093E0],"tree_param":{"num_deleted":"0","num_feature":"9","num_nodes":"15","size_leaf_vector":"0"}},{"base_weights":[-1.6343722E-2,1.353237E-1,-7.015477E-2,-2.1433032E-1,3.2315955E-1,1.5545753E-2,-5.2635586E-1,5.6182885E-1,-9.93201E-2,-9.126254E-2,2.2455058E-1,4.704243E-2,-4.1038844E-1,1.757124E-2,3.998592E-1,-2.530307E-1,2.8418893E-1,5.710299E-2,-4.1973525E-1,-5.511941E-4,4.202734E-1],"categories":[],"categories_nodes":[],"categories_segments":[],"categories_sizes":[],"default_left":[true,true,true,false,true,true,false,false,false,true,true,true,false,false,false,true,true,false,false,false,false],"id":32,"left_children":[1,3,5,-1,7,9,-1,-1,-1,11,13,15,-1,-1,-1,17,19,-1,-1,-1,-1],"loss_changes":[1.4064662E-1,3.6808577E-1,4.97677E-1,0E0,3.944563E-1,2.7746698E-1,0E0,0E0,0E0,3.8693124E-1,1.44724E-1,5.4926187E-1,0E0,0E0,0E0,2.0441149E-1,1.6366956E-1,0E0,0E0,0E0,0E0],"parents":[2147483647,0,0,1,1,2,2,4,4,5,5,9,9,10,10,11,11,15,15,16,16],"right_children":[2,4,6,-1,8,10,-1,-1,-1,12,14,16,-1,-1,-1,18,20,-1,-1,-1,-1],"split_conditions":[5.142377E0,-2.0886075E-1,5.25E-1,-6.42991E-2,9E-1,8.027224E0,-1.5790677E-1,1.6854866E-1,-2.979603E-2,3.0379748E-1,-6.751055E-2,9E-1,-1.2311654E-1,5.2713724E-3,1.1995776E-1,-9.3037975E-1,-5.843882E-1,1.7130898E-2,-1.2592058E-1,-1.6535824E-4,1.2608202E-1],"split_indices":[1,7,5,0,2,1,0,0,0,7,7,2,0,0,0,7,7,0,0,0,0],"split_type":[0,0,0,0,0,0,0,0,0,0,0,0,0,0,0,0,0,0,0,0,0],"sum_hessian":[1.506995E1,3.5498474E0,1.1520103E1,1.1912675E0,2.3585799E0,1.051139E1,1.0087136E0,1.296384E0,1.062196E0,7.3292503E0,3.1821392E0,5.7080474E0,1.621203E0,1.9637978E0,1.2183414E0,2.4901533E0,3.2178938E0,1.1004182E0,1.3897352E0,1.3626547E0,1.8552392E0],"tree_param":{"num_deleted":"0","num_feature":"9","num_nodes":"21","size_leaf_vector":"0"}},{"base_weights":[-1.7484419E-2,-4.9105756E-2,2.1759886E-1,-1.4709155E-1,7.5717956E-2,5.185249E-2,-2.9527786E-1,-1.4783268E-1,2.1405765E-1,-2.8241995E-1,2.5675467E-1,-5.7979053E-1,1.14562465E-2,-3.7597874E-1,1.18257396E-1,3.6715686E-1,-1.2945503E-1,3.7591797E-1,8.29204E-3,2.4245657E-1,-2.2864127E-1,-7.711165E-2,6.009227E-1],"categories":[],"categories_nodes":[],"categories_segments":[],"categories_sizes":[],"default_left":[true,true,false,true,true,true,true,true,true,false,true,false,true,false,false,true,false,false,false,false,false,false,false],"id":33,"left_children":[1,3,-1,5,7,9,11,13,15,-1,17,-1,19,-1,-1,21,-1,-1,-1,-1,-1,-1,-1],"loss_changes":[1.2684175E-1,1.8957482E-1,0E0,2.6628E-1,2.5047743E-1,3.7968555E-1,4.4545612E-1,2.445812E-1,2.988956E-1,0E0,9.471232E-2,0E0,2.4402267E-1,0E0,0E0,4.1676447E-1,0E0,0E0,0E0,0E0,0E0,0E0,0E0],"parents":[2147483647,0,0,1,1,3,3,4,4,5,5,6,6,7,7,8,8,10,10,12,12,15,15],"right_children":[2,4,-1,6,8,10,12,14,16,-1,18,-1,20,-1,-1,22,-1,-1,-1,-1,-1,-1,-1],"split_conditions":[1.9E0,9.95E1,6.527966E-2,-1.25E-1,5.0784693E0,-6.25E-1,9E-1,2.7857141E0,5.714286E-1,-8.472599E-2,9E-1,-1.7393717E-1,-2.4894515E-1,-1.12793624E-1,3.547722E-2,-2.8481013E-1,-3.883651E-2,1.1277539E-1,2.487612E-3,7.273697E-2,-6.8592384E-2,-2.3133494E-2,1.8027681E-1],"split_indices":[2,0,0,3,1,3,2,8,8,0,2,0,7,0,0,7,0,0,0,0,0,0,0],"split_type":[0,0,0,0,0,0,0,0,0,0,0,0,0,0,0,0,0,0,0,0,0,0,0],"sum_hessian":[1.462576E1,1.3589001E1,1.0367597E0,7.5129724E0,6.0760283E0,3.484724E0,4.0282483E0,2.29645E0,3.7795784E0,1.1805263E0,2.3041978E0,1.6279917E0,2.4002566E0,1.0140371E0,1.2824126E0,2.566771E0,1.2128074E0,1.2106103E0,1.0935875E0,1.2182959E0,1.1819607E0,1.1159872E0,1.4507838E0],"tree_param":{"num_deleted":"0","num_feature":"9","num_nodes":"23","size_leaf_vector":"0"}},{"base_weights":[-1.6335128E-2,-7.07928E-2,1.384849E-1,9.283033E-2,-1.8705621E-1,-7.910912E-2,2.7994585E-1,-1.5350394E-1,3.5450217E-1,5.695035E-3,-3.6610845E-1,2.0633724E-1,-4.0153384E-1,4.997015E-1,3.7058003E-2,-2.154299E-1,1.7983541E-1,-5.2446526E-2,-6.046673E-1,-1.6763484E-1,4.353525E-1],"categories":[],"categories_nodes":[],"categories_segments":[],"categories_sizes":[],"default_left":[true,true,true,true,true,false,false,true,true,true,true,false,false,false,false,false,true,false,false,false,false],"id":34,"left_children":[1,3,5,7,9,-1,-1,11,13,15,17,-1,-1,-1,-1,-1,19,-1,-1,-1,-1],"loss_changes":[1.3846911E-1,2.4471974E-1,1.5479353E-1,4.1750452E-1,2.5466493E-1,0E0,0E0,4.0409324E-1,1.2130728E-1,2.1237311E-1,2.533319E-1,0E0,0E0,0E0,0E0,0E0,3.453336E-1,0E0,0E0,0E0,0E0],"parents":[2147483647,0,0,1,1,2,2,3,3,4,4,7,7,8,8,9,9,10,10,16,16],"right_children":[2,4,6,8,10,-1,-1,12,14,16,18,-1,-1,-1,-1,-1,20,-1,-1,-1,-1],"split_conditions":[8.027224E0,5.303337E0,3.5714287E-1,5.0784693E0,-2.5949368E-1,-2.3732737E-2,8.398376E-2,3.255E-1,5.1472683E0,-1.0485232E0,2.135E-1,6.1901174E-2,-1.2046016E-1,1.4991045E-1,1.11174015E-2,-6.462897E-2,3.8E-1,-1.573396E-2,-1.814002E-1,-5.0290454E-2,1.3060576E-1],"split_indices":[1,1,8,1,7,0,0,5,1,7,6,0,0,0,0,0,5,0,0,0,0],"split_type":[0,0,0,0,0,0,0,0,0,0,0,0,0,0,0,0,0,0,0,0,0],"sum_hessian":[1.42607355E1,1.0951356E1,3.3093796E0,4.6328597E0,6.3184967E0,1.4774892E0,1.8318903E0,2.5992932E0,2.0335665E0,3.5091069E0,2.8093898E0,1.1291788E0,1.4701145E0,1.0013897E0,1.0321767E0,1.4415321E0,2.0675747E0,1.7406267E0,1.0687633E0,1.0218837E0,1.045691E0],"tree_param":{"num_deleted":"0","num_feature":"9","num_nodes":"21","size_leaf_vector":"0"}},{"base_weights":[-1.4145592E-2,-6.1610352E-2,1.3126035E-1,-3.2286587E-1,2.266123E-2,3.6832085E-1,-8.587203E-2,3.3999598E-1,-7.942133E-2,-4.1667807E-1,3.9262675E-2,-1.7919274E-1,2.788085E-1,-3.9920503E-1,1.2644033E-1,-4.3772228E-2,4.4724226E-1],"categories":[],"categories_nodes":[],"categories_segments":[],"categories_sizes":[],"default_left":[true,true,true,false,true,false,false,false,true,false,true,true,true,false,false,false,false],"id":35,"left_children":[1,3,5,-1,7,-1,-1,-1,9,-1,11,13,15,-1,-1,-1,-1],"loss_changes":[1.1118679E-1,2.702516E-1,2.3730247E-1,0E0,3.4979197E-1,0E0,0E0,0E0,3.505757E-1,0E0,4.20989E-1,3.407689E-1,2.2458148E-1,0E0,0E0,0E0,0E0],"parents":[2147483647,0,0,1,1,2,2,4,4,8,8,10,10,11,11,12,12],"right_children":[2,4,6,-1,8,-1,-1,-1,10,-1,12,14,16,-1,-1,-1,-1],"split_conditions":[1.5E0,2.9000002E-1,1.925E-1,-9.685977E-2,3.225E-1,1.1049626E-1,-2.576161E-2,1.019988E-1,5.0784693E0,-1.2500343E-1,9.95E1,5E-1,-1.25E-1,-1.1976151E-1,3.79321E-2,-1.3131669E-2,1.3417268E-1],"split_indices":[2,5,6,0,5,0,0,0,1,0,0,4,3,0,0,0,0],"split_type":[0,0,0,0,0,0,0,0,0,0,0,0,0,0,0,0,0],"sum_hessian":[1.3938409E1,1.0942683E1,2.9957252E0,1.9783194E0,8.964364E0,1.0992697E0,1.8964554E0,1.6146014E0,7.349763E0,1.2596048E0,6.090158E0,3.3170762E0,2.7730818E0,1.7506788E0,1.5663974E0,1.2051418E0,1.5679399E0],"tree_param":{"num_deleted":"0","num_feature":"9","num_nodes":"17","size_leaf_vector":"0"}},{"base_weights":[-1.0905258E-2,-6.471371E-2,1.3923265E-1,8.813874E-2,-1.7487998E-1,-1.0286504E-1,2.5344253E-1,-1.7652276E-1,2.4586481E-1,-1.2657499E-2,-3.8620824E-1,6.356799E-2,3.134894E-1,5.2454966E-1,-1.4159797E-1,-2.6487562E-1,1.5095401E-1,2.9179996E-1,-3.8515564E-2],"categories":[],"categories_nodes":[],"categories_segments":[],"categories_sizes":[],"default_left":[true,true,true,true,true,false,true,false,true,true,false,false,false,false,false,false,true,false,false],"id":36,"left_children":[1,3,5,7,9,-1,11,-1,13,15,-1,-1,-1,-1,-1,-1,17,-1,-1],"loss_changes":[1.2718827E-1,2.0824873E-1,1.4155872E-1,2.7138245E-1,2.34749E-1,0E0,1.5720531E-2,0E0,4.8891395E-1,2.4583456E-1,0E0,0E0,0E0,0E0,0E0,0E0,1.0898063E-1,0E0,0E0],"parents":[2147483647,0,0,1,1,2,2,3,3,4,4,6,6,8,8,9,9,16,16],"right_children":[2,4,6,8,10,-1,12,-1,14,16,-1,-1,-1,-1,-1,-1,18,-1,-1],"split_conditions":[8.027224E0,5.303337E0,-6.097046E-1,-2.0886075E-1,2.4149999E-1,-3.0859513E-2,4.6413504E-2,-5.295683E-2,3.7130803E-1,3.1E-1,-1.15862474E-1,1.9070398E-2,9.404682E-2,1.573649E-1,-4.2479392E-2,-7.946269E-2,-3.75E-1,8.753999E-2,-1.155467E-2],"split_indices":[1,1,7,7,6,0,7,0,7,5,0,0,0,0,0,0,3,0,0],"split_type":[0,0,0,0,0,0,0,0,0,0,0,0,0,0,0,0,0,0,0],"sum_hessian":[1.3628366E1,1.0451565E1,3.1768014E0,4.461422E0,5.990143E0,1.0501237E0,2.126678E0,1.6214631E0,2.839959E0,3.9884064E0,2.0017366E0,1.0055768E0,1.121101E0,1.446063E0,1.3938959E0,1.3257474E0,2.662659E0,1.2175101E0,1.4451488E0],"tree_param":{"num_deleted":"0","num_feature":"9","num_nodes":"19","size_leaf_vector":"0"}},{"base_weights":[-6.609836E-3,1.4915134E-1,-5.5167634E-2,-1.5392402E-1,4.4024122E-1,-3.1515062E-1,2.1633182E-2,2.416963E-1,-8.659434E-2,-5.338044E-2,3.8979313E-1,-2.5340214E-1,1.0939472E-1,1.4022109E-1,-4.666875E-1,2.6705393E-1,-1.1084062E-1],"categories":[],"categories_nodes":[],"categories_segments":[],"categories_sizes":[],"default_left":[true,true,true,false,false,false,true,true,true,false,false,true,true,false,false,false,false],"id":37,"left_children":[1,3,5,-1,-1,-1,7,9,11,-1,-1,13,15,-1,-1,-1,-1],"loss_changes":[1.1705551E-1,3.9326486E-1,2.4041174E-1,0E0,0E0,0E0,2.5831127E-1,1.7592357E-1,2.7021337E-1,0E0,0E0,4.2715758E-1,1.7226845E-1,0E0,0E0,0E0,0E0],"parents":[2147483647,0,0,1,1,2,2,6,6,7,7,8,8,11,11,12,12],"right_children":[2,4,6,-1,-1,-1,8,10,12,-1,-1,14,16,-1,-1,-1,-1],"split_conditions":[-9.2827004E-1,-1.1582279E0,-5.780591E-1,-4.617721E-2,1.3207237E-1,-9.454519E-2,-2.0042193E-1,-1.25E-1,1.0714285E0,-1.6014133E-2,1.1693794E-1,1.8599999E-1,5.421048E0,4.206633E-2,-1.4000626E-1,8.011618E-2,-3.3252187E-2],"split_indices":[7,7,7,0,0,0,7,3,8,0,0,6,1,0,0,0,0],"split_type":[0,0,0,0,0,0,0,0,0,0,0,0,0,0,0,0,0],"sum_hessian":[1.3388622E1,2.6895616E0,1.069906E1,1.5485088E0,1.141053E0,1.7321105E0,8.96695E0,2.5495763E0,6.4173737E0,1.0657237E0,1.4838526E0,3.308524E0,3.1088498E0,1.2830994E0,2.0254245E0,1.6879312E0,1.4209187E0],"tree_param":{"num_deleted":"0","num_feature":"9","num_nodes":"17","size_leaf_vector":"0"}},{"base_weights":[-2.6658636E-3,-7.4931584E-2,1.0635652E-1,-2.7974114E-1,6.030887E-2,-2.4199533E-1,2.614577E-1,2.7964674E-2,-5.514966E-1,-7.132965E-2,2.9827535E-1,-1.2723599E-2,3.4232417E-1,1.19101286E-1,-2.5841123E-1,3.7731595E-2,4.5521426E-1,-1.6762543E-1,3.5751173E-1],"categories":[],"categories_nodes":[],"categories_segments":[],"categories_sizes":[],"default_left":[true,true,true,true,true,false,true,false,false,true,false,false,true,true,false,false,false,false,false],"id":38,"left_children":[1,3,5,7,9,-1,11,-1,-1,13,-1,-1,15,17,-1,-1,-1,-1,-1],"loss_changes":[1.1911823E-1,2.6811647E-1,3.8944924E-1,3.3191398E-1,2.1818429E-1,0E0,1.0762912E-1,0E0,0E0,2.0371008E-1,0E0,0E0,1.0773903E-1,2.711583E-1,0E0,0E0,0E0,0E0,0E0],"parents":[2147483647,0,0,1,1,2,2,3,3,4,4,6,6,9,9,12,12,13,13],"right_children":[2,4,6,8,10,-1,12,-1,-1,14,-1,-1,16,18,-1,-1,-1,-1,-1],"split_conditions":[1.1E0,-4.3248945E-1,1.6666667E-1,-9.451477E-1,4.645E-1,-7.259861E-2,2.9000002E-1,8.389402E-3,-1.65449E-1,3.45E-1,8.9482605E-2,-3.8170798E-3,5.823573E0,2.01E-1,-7.752337E-2,1.1319479E-2,1.3656428E-1,-5.028763E-2,1.0725352E-1],"split_indices":[2,7,4,7,5,0,5,0,0,5,0,0,1,6,0,0,0,0,0],"split_type":[0,0,0,0,0,0,0,0,0,0,0,0,0,0,0,0,0,0,0],"sum_hessian":[1.3107715E1,8.070717E0,5.0369973E0,2.7848456E0,5.2858715E0,1.3791757E0,3.6578214E0,1.7267551E0,1.0580903E0,3.8541067E0,1.431765E0,1.0250393E0,2.6327822E0,2.0900302E0,1.7640762E0,1.0727073E0,1.5600749E0,1.0836599E0,1.0063704E0],"tree_param":{"num_deleted":"0","num_feature":"9","num_nodes":"19","size_leaf_vector":"0"}},{"base_weights":[-3.8117587E-3,1.174042E-1,-6.250972E-2,-1.2917821E-1,2.3692277E-1,-3.9637318E-1,6.0920876E-2,3.673791E-1,4.0391583E-2,-6.3156456E-2,1.997248E-1,1.0520515E-1,-3.503152E-1,2.5081621E-2,3.4830332E-1,2.7839792E-1,-1.9592461E-1],"categories":[],"categories_nodes":[],"categories_segments":[],"categories_sizes":[],"default_left":[true,true,true,false,true,false,true,false,false,true,true,true,false,false,false,false,false],"id":39,"left_children":[1,3,5,-1,7,-1,9,-1,-1,11,13,15,-1,-1,-1,-1,-1],"loss_changes":[1.0553866E-1,1.735486E-1,4.342288E-1,0E0,7.7965185E-2,0E0,1.5266746E-1,0E0,0E0,2.8117672E-1,9.709361E-2,2.608012E-1,0E0,0E0,0E0,0E0,0E0],"parents":[2147483647,0,0,1,1,2,2,4,4,6,6,9,9,10,10,11,11],"right_children":[2,4,6,-1,8,-1,10,-1,-1,12,14,16,-1,-1,-1,-1,-1],"split_conditions":[1.55E-1,9E-1,1.99E-1,-3.8753465E-2,-1.25E-1,-1.1891196E-1,1.7142856E0,1.10213734E-1,1.2117475E-2,-4.852321E-2,8.027224E0,1.25E-1,-1.0509457E-1,7.5244866E-3,1.04491E-1,8.351938E-2,-5.8777384E-2],"split_indices":[6,2,6,0,3,0,8,0,0,7,1,3,0,0,0,0,0],"split_type":[0,0,0,0,0,0,0,0,0,0,0,0,0,0,0,0,0],"sum_hessian":[1.2801542E1,3.8502758E0,8.951266E0,1.2305889E0,2.6196868E0,1.8192179E0,7.1320486E0,1.0520349E0,1.567652E0,4.0535555E0,3.078493E0,2.9547913E0,1.0987642E0,1.9524002E0,1.1260929E0,1.923812E0,1.0309793E0],"tree_param":{"num_deleted":"0","num_feature":"9","num_nodes":"17","size_leaf_vector":"0"}},{"base_weights":[-3.467673E-3,-5.221565E-2,1.3797714E-1,-1.6014257E-1,7.2419025E-2,-1.14521526E-1,2.918438E-1,7.170836E-2,-3.216154E-1,-1.4559431E-1,1.8370831E-1,-2.2393787E-1,3.366309E-1,-4.689151E-1,-5.4227475E-2,3.2271817E-1,-3.267052E-2],"categories":[],"categories_nodes":[],"categories_segments":[],"categories_sizes":[],"default_left":[true,true,true,true,true,false,false,true,true,false,true,false,false,false,false,false,false],"id":40,"left_children":[1,3,5,7,9,-1,-1,11,13,-1,15,-1,-1,-1,-1,-1,-1],"loss_changes":[1.00446455E-1,1.5663444E-1,1.7874706E-1,2.5105187E-1,1.6485967E-1,0E0,0E0,3.352437E-1,1.2313926E-1,0E0,1.3719845E-1,0E0,0E0,0E0,0E0,0E0,0E0],"parents":[2147483647,0,0,1,1,2,2,3,3,4,4,7,7,8,8,10,10],"right_children":[2,4,6,8,10,-1,-1,12,14,-1,16,-1,-1,-1,-1,-1,-1],"split_conditions":[1.5E0,9.95E1,1.6666667E-1,-1.25E-1,-3.75E-1,-3.435646E-2,8.755314E-2,7.993561E0,5E-1,-4.3678295E-2,5.1250677E0,-6.718136E-2,1.00989275E-1,-1.4067453E-1,-1.6268244E-2,9.681546E-2,-9.801157E-3],"split_indices":[2,0,4,3,3,0,0,1,4,0,1,0,0,0,0,0,0],"split_type":[0,0,0,0,0,0,0,0,0,0,0,0,0,0,0,0,0],"sum_hessian":[1.2522825E1,9.782272E0,2.740552E0,5.089845E0,4.6924276E0,1.134508E0,1.6060439E0,2.3177755E0,2.7720697E0,1.481652E0,3.2107759E0,1.168484E0,1.1492914E0,1.3014393E0,1.4706303E0,1.6556647E0,1.555111E0],"tree_param":{"num_deleted":"0","num_feature":"9","num_nodes":"17","size_leaf_vector":"0"}},{"base_weights":[-5.031477E-3,1.1825479E-1,-6.458302E-2,-4.5985885E-2,2.989356E-1,-3.3738208E-1,3.6132544E-2,-2.4183379E-1,1.8247244E-1,2.5808418E-1,-4.1389387E-2,-2.392031E-1,7.899233E-2,3.691297E-1,-1.1335839E-1,-2.7372116E-1,1.2933192E-1],"categories":[],"categories_nodes":[],"categories_segments":[],"categories_sizes":[],"default_left":[true,true,true,true,false,false,true,false,false,false,true,false,true,false,true,false,false],"id":41,"left_children":[1,3,5,7,-1,-1,9,-1,-1,-1,11,-1,13,-1,15,-1,-1],"loss_changes":[1.05085306E-1,1.525166E-1,2.758579E-1,1.9250818E-1,0E0,0E0,1.4682026E-1,0E0,0E0,0E0,1.7905861E-1,0E0,3.171468E-1,0E0,1.8062362E-1,0E0,0E0],"parents":[2147483647,0,0,1,1,2,2,3,3,6,6,10,10,12,12,14,14],"right_children":[2,4,6,8,-1,-1,10,-1,-1,-1,12,-1,14,-1,16,-1,-1],"split_conditions":[1.55E-1,1.035E-1,1.99E-1,1.1E0,8.968068E-2,-1.01214625E-1,2.18E-1,-7.255014E-2,5.4741733E-2,7.742526E-2,1.6666667E-1,-7.176093E-2,5.086634E0,1.1073891E-1,9E-1,-8.211635E-2,3.8799576E-2],"split_indices":[6,6,6,2,0,0,6,0,0,0,4,0,1,0,2,0,0],"split_type":[0,0,0,0,0,0,0,0,0,0,0,0,0,0,0,0,0],"sum_hessian":[1.227289E1,3.676298E0,8.596592E0,2.3162704E0,1.3600276E0,1.6843895E0,6.9122024E0,1.2156215E0,1.1006489E0,1.1863652E0,5.725837E0,1.7928125E0,3.933025E0,1.2015659E0,2.731459E0,1.5677036E0,1.1637553E0],"tree_param":{"num_deleted":"0","num_feature":"9","num_nodes":"17","size_leaf_vector":"0"}},{"base_weights":[-8.1126345E-4,-1.780237E-1,5.152626E-2,-1.6122995E-3,-2.6191938E-1,2.6658288E-1,-2.5027178E-2,-2.3259908E-1,6.775624E-2,1.7483404E-1,-9.6743904E-2,3.6891783E-4,2.8127918E-1,1.8872619E-1,-3.7275115E-1],"categories":[],"categories_nodes":[],"categories_segments":[],"categories_sizes":[],"default_left":[true,true,true,false,false,false,true,false,true,true,true,false,false,false,false],"id":42,"left_children":[1,3,5,-1,-1,-1,7,-1,9,11,13,-1,-1,-1,-1],"loss_changes":[1.2966168E-1,4.673694E-2,1.8454984E-1,0E0,0E0,0E0,1.8682596E-1,0E0,1.3867924E-1,8.4273025E-2,3.3582675E-1,0E0,0E0,0E0,0E0],"parents":[2147483647,0,0,1,1,2,2,6,6,8,8,9,9,10,10],"right_children":[2,4,6,-1,-1,-1,8,-1,10,12,14,-1,-1,-1,-1],"split_conditions":[5.0784693E0,4.8362713E0,5.303337E0,-4.8368986E-4,-7.857582E-2,7.997487E-2,5.7822876E0,-6.9779724E-2,-2.5949368E-1,2.07E-1,-1.25E-1,1.10675355E-4,8.4383756E-2,5.661786E-2,-1.1182535E-1],"split_indices":[1,1,1,0,0,0,1,0,7,6,3,0,0,0,0],"split_type":[0,0,0,0,0,0,0,0,0,0,0,0,0,0,0],"sum_hessian":[1.1990903E1,2.1864E0,9.804503E0,1.0331548E0,1.153245E0,1.922221E0,7.8822823E0,1.9694322E0,5.91285E0,3.5434792E0,2.369371E0,1.7229708E0,1.8205084E0,1.3201684E0,1.0492026E0],"tree_param":{"num_deleted":"0","num_feature":"9","num_nodes":"15","size_leaf_vector":"0"}},{"base_weights":[-4.164157E-3,-7.099193E-2,1.298976E-1,-3.5458383E-1,6.9098254E-3,3.8119802E-1,-8.732076E-2,-2.4622574E-1,8.97498E-2,1.721523E-1,-3.034908E-1,2.0245574E-1,-1.0345475E-1,-3.9736517E-2,3.0980372E-1,-2.7164435E-1,1.02848366E-1,8.133721E-2,3.7575656E-1],"categories":[],"categories_nodes":[],"categories_segments":[],"categories_sizes":[],"default_left":[true,true,true,false,true,false,true,false,true,false,false,true,true,false,true,false,false,false,false],"id":43,"left_children":[1,3,5,-1,7,-1,9,-1,11,-1,-1,13,15,-1,17,-1,-1,-1,-1],"loss_changes":[1.2421625E-1,2.059714E-1,2.8565687E-1,0E0,1.9421731E-1,0E0,2.3697513E-1,0E0,1.715652E-1,0E0,0E0,1.3468148E-1,1.3932711E-1,0E0,2.0290911E-2,0E0,0E0,0E0,0E0],"parents":[2147483647,0,0,1,1,2,2,4,4,6,6,8,8,11,11,12,12,14,14],"right_children":[2,4,6,-1,8,-1,10,-1,12,-1,-1,14,16,-1,18,-1,-1,-1,-1],"split_conditions":[4.0714283E0,-1.0443039E0,7.0714283E0,-1.0637515E-1,5.0784693E0,1.1435941E-1,5.4281187E0,-7.386772E-2,7.0165443E0,5.1645692E-2,-9.104724E-2,1.6666667E-1,8.55704E0,-1.1920956E-2,9.95E1,-8.149331E-2,3.085451E-2,2.4401166E-2,1.1272697E-1],"split_indices":[8,7,8,0,1,0,1,0,1,0,0,4,1,0,0,0,0,0,0],"split_type":[0,0,0,0,0,0,0,0,0,0,0,0,0,0,0,0,0,0,0],"sum_hessian":[1.1835578E1,8.212316E0,3.6232624E0,1.0043654E0,7.2079496E0,1.3298495E0,2.293413E0,1.2909291E0,5.917021E0,1.1348528E0,1.1585603E0,3.706784E0,2.2102365E0,1.3318274E0,2.3749566E0,1.043111E0,1.1671257E0,1.0322869E0,1.3426698E0],"tree_param":{"num_deleted":"0","num_feature":"9","num_nodes":"19","size_leaf_vector":"0"}},{"base_weights":[-5.773958E-3,1.1345027E-1,-6.320675E-2,2.4459103E-1,-5.2682463E-2,-1.575947E-1,9.426995E-2,-3.6383772E-1,8.066182E-2,-7.9419516E-2,2.7971464E-1,-5.613177E-2,-4.9395806E-1,4.0830484E-1,-1.9858637E-1],"categories":[],"categories_nodes":[],"categories_segments":[],"categories_sizes":[],"default_left":[true,true,true,false,false,true,true,true,true,false,false,false,false,false,false],"id":44,"left_children":[1,3,5,-1,-1,7,9,11,13,-1,-1,-1,-1,-1,-1],"loss_changes":[9.35797E-2,1.1006402E-1,1.5099244E-1,0E0,0E0,3.2913285E-1,1.5292358E-1,1.1046934E-1,4.1496572E-1,0E0,0E0,0E0,0E0,0E0,0E0],"parents":[2147483647,0,0,1,1,2,2,5,5,6,6,7,7,8,8],"right_children":[2,4,6,-1,-1,8,10,12,14,-1,-1,-1,-1,-1,-1],"split_conditions":[1.55E-1,1.2857144E0,2.7857141E0,7.337731E-2,-1.580474E-2,4.19E-1,2.9535864E-2,3.45E-1,3.055E-1,-2.3825856E-2,8.39144E-2,-1.6839532E-2,-1.4818743E-1,1.2249146E-1,-5.9575915E-2],"split_indices":[6,8,8,0,0,5,7,5,6,0,0,0,0,0,0],"split_type":[0,0,0,0,0,0,0,0,0,0,0,0,0,0,0],"sum_hessian":[1.1619263E1,3.4604294E0,8.158833E0,1.6699516E0,1.790478E0,5.1007876E0,3.0580451E0,2.451554E0,2.6492336E0,1.8742951E0,1.18375E0,1.1539946E0,1.2975596E0,1.0063368E0,1.6428967E0],"tree_param":{"num_deleted":"0","num_feature":"9","num_nodes":"15","size_leaf_vector":"0"}},{"base_weights":[-3.4988127E-3,-5.599591E-2,1.4402713E-1,-2.3705602E-1,-2.4690419E-3,-7.0423335E-2,2.673115E-1,-9.861115E-2,1.4443366E-1,-2.383479E-1,1.0899804E-1,2.467336E-1,-5.2792594E-2,-4.1391528E-1,6.6412725E-2],"categories":[],"categories_nodes":[],"categories_segments":[],"categories_sizes":[],"default_left":[true,true,true,false,true,false,false,true,true,true,false,false,false,false,false],"id":45,"left_children":[1,3,5,-1,7,-1,-1,9,11,13,-1,-1,-1,-1,-1],"loss_changes":[1.0371608E-1,9.467462E-2,1.1192554E-1,0E0,1.3566144E-1,0E0,0E0,1.9396444E-1,8.982534E-2,2.294622E-1,0E0,0E0,0E0,0E0,0E0],"parents":[2147483647,0,0,1,1,2,2,4,4,7,7,8,8,9,9],"right_children":[2,4,6,-1,8,-1,-1,10,12,14,-1,-1,-1,-1,-1],"split_conditions":[1.5E0,-6.25E-1,1.6666667E-1,-7.1116805E-2,4.2299998E-1,-2.1127E-2,8.019346E-2,6.592803E0,1.25E-1,2.7857141E0,3.2699414E-2,7.402009E-2,-1.583778E-2,-1.2417459E-1,1.9923817E-2],"split_indices":[2,3,4,0,5,0,0,1,3,8,0,0,0,0,0],"split_type":[0,0,0,0,0,0,0,0,0,0,0,0,0,0,0],"sum_hessian":[1.1350557E1,8.829142E0,2.521416E0,1.2322387E0,7.596903E0,1.0769166E0,1.4444994E0,4.7904625E0,2.80644E0,2.7747707E0,2.0156918E0,1.6826452E0,1.123795E0,1.5332986E0,1.2414722E0],"tree_param":{"num_deleted":"0","num_feature":"9","num_nodes":"15","size_leaf_vector":"0"}},{"base_weights":[-5.1229773E-3,-1.436872E-1,3.6024895E-2,2.918366E-1,-2.3667298E-2,6.322534E-2,-3.4366632E-1,-1.2965156E-2,2.692081E-1,6.500827E-2,-2.3024948E-1,1.6302441E-1,-1.358592E-1],"categories":[],"categories_nodes":[],"categories_segments":[],"categories_sizes":[],"default_left":[true,false,true,false,true,true,false,true,false,true,false,false,false],"id":46,"left_children":[1,-1,3,-1,5,7,-1,9,-1,11,-1,-1,-1],"loss_changes":[7.460965E-2,0E0,1.6249353E-1,0E0,2.7715895E-1,1.3012728E-1,0E0,1.3092937E-1,0E0,1.3666992E-1,0E0,0E0,0E0],"parents":[2147483647,0,0,2,2,4,4,5,5,7,7,9,9],"right_children":[2,-1,4,-1,6,8,-1,10,-1,12,-1,-1,-1],"split_conditions":[5.0784693E0,-4.310616E-2,5.1559987E0,8.755098E-2,4.0100002E-1,8.551306E0,-1.030999E-1,3.0379748E-1,8.076243E-2,7.11534E0,-6.907485E-2,4.8907325E-2,-4.0757764E-2],"split_indices":[1,0,1,0,6,1,0,7,0,1,0,0,0],"split_type":[0,0,0,0,0,0,0,0,0,0,0,0,0],"sum_hessian":[1.1177819E1,1.9887594E0,9.18906E0,1.0027475E0,8.186313E0,7.069168E0,1.1171441E0,5.844439E0,1.2247291E0,4.8167443E0,1.0276948E0,3.363752E0,1.4529923E0],"tree_param":{"num_deleted":"0","num_feature":"9","num_nodes":"13","size_leaf_vector":"0"}},{"base_weights":[-7.2613214E-3,-6.183391E-2,9.787988E-2,-2.4811523E-1,4.094839E-2,3.1773534E-1,-8.4689304E-2,-6.881703E-2,-3.0687207E-1,-1.9354795E-1,1.2562832E-1,-2.877333E-1,1.7800798E-1,2.8894025E-1,-2.3818335E-2,2.0895909E-1,-2.4766512E-1],"categories":[],"categories_nodes":[],"categories_segments":[],"categories_sizes":[],"default_left":[true,true,true,true,true,false,true,false,false,false,true,false,false,false,true,false,false],"id":47,"left_children":[1,3,5,7,9,-1,11,-1,-1,-1,13,-1,-1,-1,15,-1,-1],"loss_changes":[7.494533E-2,1.7323104E-1,2.0712258E-1,1.22786015E-2,1.503481E-1,0E0,2.2416717E-1,0E0,0E0,0E0,1.3549125E-1,0E0,0E0,0E0,2.4326342E-1,0E0,0E0],"parents":[2147483647,0,0,1,1,2,2,3,3,4,4,6,6,10,10,14,14],"right_children":[2,4,6,8,10,-1,12,-1,-1,-1,14,-1,-1,-1,16,-1,-1],"split_conditions":[4.0714283E0,-6.1814344E-1,7.0714283E0,8.333334E-1,5.0784693E0,9.5320605E-2,1.1E0,-2.0645108E-2,-9.2061624E-2,-5.8064386E-2,-2.0042193E-1,-8.631999E-2,5.3402394E-2,8.668208E-2,1.8599999E-1,6.268773E-2,-7.429954E-2],"split_indices":[8,7,8,4,1,0,2,0,0,0,7,0,0,0,6,0,0],"split_type":[0,0,0,0,0,0,0,0,0,0,0,0,0,0,0,0,0],"sum_hessian":[1.1006816E1,7.5170536E0,3.4897623E0,2.1700659E0,5.3469877E0,1.2473314E0,2.242431E0,1.0715171E0,1.0985488E0,1.0775067E0,4.269481E0,1.2110683E0,1.0313627E0,1.5940925E0,2.6753886E0,1.3441355E0,1.3312529E0],"tree_param":{"num_deleted":"0","num_feature":"9","num_nodes":"17","size_leaf_vector":"0"}},{"base_weights":[-8.385313E-3,-5.294801E-2,1.1737925E-1,-1.597944E-1,6.884986E-2,-8.32929E-2,2.4186395E-1,1.4046402E-1,-2.7995506E-1,-1.1526288E-1,1.9724298E-1,-4.5658082E-1,-3.352276E-2,3.147678E-1,-1.2612706E-2],"categories":[],"categories_nodes":[],"categories_segments":[],"categories_sizes":[],"default_left":[true,true,true,true,true,false,false,false,true,false,true,false,false,false,false],"id":48,"left_children":[1,3,5,7,9,-1,-1,-1,11,-1,13,-1,-1,-1,-1],"loss_changes":[7.230562E-2,1.3328412E-1,1.0498373E-1,2.3078085E-1,1.4305349E-1,0E0,0E0,0E0,1.6419655E-1,0E0,8.702445E-2,0E0,0E0,0E0,0E0],"parents":[2147483647,0,0,1,1,2,2,3,3,4,4,8,8,10,10],"right_children":[2,4,6,8,10,-1,-1,-1,12,-1,14,-1,-1,-1,-1],"split_conditions":[1.5E0,9.95E1,1.6666667E-1,-1.0210971E0,-2.1097046E-1,-2.498787E-2,7.2559185E-2,4.213921E-2,7.993561E0,-3.4578867E-2,5.1250677E0,-1.3697425E-1,-1.0056828E-2,9.443035E-2,-3.783812E-3],"split_indices":[2,0,4,7,7,0,0,0,1,0,1,0,0,0,0],"split_type":[0,0,0,0,0,0,0,0,0,0,0,0,0,0,0],"sum_hessian":[1.0792616E1,8.396455E0,2.3961608E0,4.3065753E0,4.0898795E0,1.0440413E0,1.3521196E0,1.182576E0,3.1239994E0,1.7223442E0,2.3675356E0,1.3230001E0,1.8009993E0,1.1971655E0,1.1703701E0],"tree_param":{"num_deleted":"0","num_feature":"9","num_nodes":"15","size_leaf_vector":"0"}},{"base_weights":[-6.7706E-3,-5.8537852E-2,9.393062E-2,-2.2660396E-1,4.651398E-2,2.0892622E-1,-1.2642814E-1,-3.6334375E-1,2.8088188E-2,2.2160158E-1,-9.0135664E-2,-6.2937476E-2,3.634142E-1,-3.0827674E-1,9.49057E-2],"categories":[],"categories_nodes":[],"categories_segments":[],"categories_sizes":[],"default_left":[true,true,true,true,true,true,false,false,false,false,true,false,false,false,false],"id":49,"left_children":[1,3,5,7,9,11,-1,-1,-1,-1,13,-1,-1,-1,-1],"loss_changes":[6.608797E-2,1.569505E-1,1.3614176E-1,1.2722093E-1,1.6191556E-1,1.5820858E-1,0E0,0E0,0E0,0E0,1.9244985E-1,0E0,0E0,0E0,0E0],"parents":[2147483647,0,0,1,1,2,2,3,3,4,4,5,5,10,10],"right_children":[2,4,6,8,10,12,-1,-1,-1,-1,14,-1,-1,-1,-1],"split_conditions":[4.0714283E0,-5.780591E-1,7.714286E0,4.19E-1,1.8599999E-1,5E-1,-3.7928443E-2,-1.0900313E-1,8.426457E-3,6.648047E-2,1.6666667E-1,-1.8881243E-2,1.09024264E-1,-9.248303E-2,2.847171E-2],"split_indices":[8,7,8,5,6,4,0,0,0,0,4,0,0,0,0],"split_type":[0,0,0,0,0,0,0,0,0,0,0,0,0,0,0],"sum_hessian":[1.0622707E1,7.2925434E0,3.330164E0,2.3599436E0,4.9325995E0,2.222316E0,1.107848E0,1.2579646E0,1.101979E0,1.8896879E0,3.0429118E0,1.0199833E0,1.2023327E0,1.0908937E0,1.9520181E0],"tree_param":{"num_deleted":"0","num_feature":"9","num_nodes":"15","size_leaf_vector":"0"}},{"base_weights":[-9.056188E-3,-5.210074E-2,1.1281845E-1,-1.440664E-1,5.214997E-2,-5.4976817E-2,2.4362865E-1,1.1519125E-1,-2.479389E-1,-1.0272725E-1,1.5870957E-1,-4.111194E-1,-2.8254442E-2,2.6186126E-1,-2.1848451E-2],"categories":[],"categories_nodes":[],"categories_segments":[],"categories_sizes":[],"default_left":[true,true,true,true,true,false,false,false,true,false,true,false,false,false,false],"id":50,"left_children":[1,3,5,7,9,-1,-1,-1,11,-1,13,-1,-1,-1,-1],"loss_changes":[6.5940306E-2,9.5189795E-2,8.591835E-2,1.6656229E-1,9.9158734E-2,0E0,0E0,0E0,1.3091221E-1,0E0,6.8432264E-2,0E0,0E0,0E0,0E0],"parents":[2147483647,0,0,1,1,2,2,3,3,4,4,8,8,10,10],"right_children":[2,4,6,8,10,-1,-1,-1,12,-1,14,-1,-1,-1,-1],"split_conditions":[1.5E0,9.95E1,7.1428575E-2,-1.0210971E0,-2.1097046E-1,-1.6493047E-2,7.30886E-2,3.4557376E-2,7.993561E0,-3.0818176E-2,5.1250677E0,-1.2333582E-1,-8.476333E-3,7.8558385E-2,-6.5545356E-3],"split_indices":[2,0,8,7,7,0,0,0,1,0,1,0,0,0,0],"split_type":[0,0,0,0,0,0,0,0,0,0,0,0,0,0,0],"sum_hessian":[1.044909E1,8.144916E0,2.3041742E0,4.1245165E0,4.0203996E0,1.2633488E0,1.0408254E0,1.1486381E0,2.9758782E0,1.6533421E0,2.3670576E0,1.2075257E0,1.7683525E0,1.2198664E0,1.147191E0],"tree_param":{"num_deleted":"0","num_feature":"9","num_nodes":"15","size_leaf_vector":"0"}},{"base_weights":[-6.8844906E-3,-1.3340805E-1,3.201511E-2,-9.068951E-2,1.0325974E-1,8.4708706E-2,-2.7696347E-1,2.7337316E-1,-4.714549E-2,3.4754506E-1,6.212583E-2,1.02191076E-1,-2.6003355E-1,-6.692934E-2,2.3816302E-1],"categories":[],"categories_nodes":[],"categories_segments":[],"categories_sizes":[],"default_left":[true,false,true,true,true,false,false,true,true,false,false,true,false,false,false],"id":51,"left_children":[1,-1,3,5,7,-1,-1,9,11,-1,-1,13,-1,-1,-1],"loss_changes":[6.0002144E-2,0E0,9.212747E-2,1.5447846E-1,1.7810091E-1,0E0,0E0,2.8190032E-2,1.6264305E-1,0E0,0E0,9.0292856E-2,0E0,0E0,0E0],"parents":[2147483647,0,0,2,2,3,3,4,4,7,7,8,8,11,11],"right_children":[2,-1,4,6,8,-1,-1,10,12,-1,-1,14,-1,-1,-1],"split_conditions":[5.0784693E0,-4.0022418E-2,-5.780591E-1,-9.451477E-1,5.556137E0,2.5412614E-2,-8.3089046E-2,3.8E-1,5.285714E0,1.0426352E-1,1.863775E-2,7.950961E0,-7.801007E-2,-2.0078802E-2,7.144891E-2],"split_indices":[1,0,7,7,1,0,0,5,8,0,0,1,0,0,0],"split_type":[0,0,0,0,0,0,0,0,0,0,0,0,0,0,0],"sum_hessian":[1.03235035E1,1.85628E0,8.467223E0,3.0100622E0,5.4571614E0,1.8311099E0,1.1789523E0,2.1771514E0,3.2800097E0,1.13384E0,1.0433115E0,2.2333431E0,1.0466666E0,1.2216451E0,1.011698E0],"tree_param":{"num_deleted":"0","num_feature":"9","num_nodes":"15","size_leaf_vector":"0"}},{"base_weights":[-5.0393227E-3,-5.5483136E-2,9.405116E-2,2.454047E-2,-2.1830992E-1,1.9728327E-1,-1.07820235E-1,-1.9151844E-1,1.7302033E-1,2.8381297E-1,1.8795416E-2,-2.308395E-1,3.8783327E-1],"categories":[],"categories_nodes":[],"categories_segments":[],"categories_sizes":[],"default_left":[true,true,true,true,false,true,false,false,true,false,false,false,false],"id":52,"left_children":[1,3,5,7,-1,9,-1,-1,11,-1,-1,-1,-1],"loss_changes":[6.1233535E-2,1.103141E-1,1.0778479E-1,2.3523302E-1,0E0,4.2546056E-2,0E0,0E0,4.5902598E-1,0E0,0E0,0E0,0E0],"parents":[2147483647,0,0,1,1,2,2,3,3,5,5,8,8],"right_children":[2,4,6,8,-1,10,-1,-1,12,-1,-1,-1,-1],"split_conditions":[4.0714283E0,3.055E-1,7.714286E0,5.45926E0,-6.549298E-2,-5.084388E-1,-3.2346074E-2,-5.7455536E-2,3.1E-1,8.5143894E-2,5.638625E-3,-6.925186E-2,1.1634999E-1],"split_indices":[8,6,8,1,0,7,0,0,5,0,0,0,0],"split_type":[0,0,0,0,0,0,0,0,0,0,0,0,0],"sum_hessian":[1.0206414E1,7.0550094E0,3.1514049E0,5.299686E0,1.7553234E0,2.1001616E0,1.0512433E0,2.040546E0,3.2591403E0,1.0170202E0,1.0831412E0,1.1057199E0,2.1534202E0],"tree_param":{"num_deleted":"0","num_feature":"9","num_nodes":"13","size_leaf_vector":"0"}},{"base_weights":[-5.078683E-3,-1.6533968E-1,3.140588E-2,2.544731E-1,-2.4702609E-2,-8.8280715E-2,1.470672E-1,4.5042526E-2,-2.5998408E-1,1.8311694E-1,-1.6494235E-1,-3.849243E-1,-2.5952594E-2,4.023592E-2,2.2850104E-1],"categories":[],"categories_nodes":[],"categories_segments":[],"categories_sizes":[],"default_left":[true,false,true,false,true,true,false,true,true,true,false,false,false,false,false],"id":53,"left_children":[1,-1,3,-1,5,7,-1,9,11,13,-1,-1,-1,-1,-1],"loss_changes":[6.945801E-2,0E0,1.288582E-1,0E0,1.08393125E-1,1.7198429E-1,0E0,1.6918279E-1,8.380738E-2,1.2631603E-2,0E0,0E0,0E0,0E0,0E0],"parents":[2147483647,0,0,2,2,4,4,5,5,7,7,8,8,9,9],"right_children":[2,-1,4,-1,6,8,-1,10,12,14,-1,-1,-1,-1,-1],"split_conditions":[-1.1582279E0,-4.9601905E-2,-9.092827E-1,7.634193E-2,4.645E-1,3.5149997E-1,4.4120163E-2,3.142857E0,7.1428575E-2,3.02E-1,-4.9482707E-2,-1.15477294E-1,-7.7857785E-3,1.2070777E-2,6.855031E-2],"split_indices":[7,0,7,0,5,5,0,8,8,5,0,0,0,0,0],"split_type":[0,0,0,0,0,0,0,0,0,0,0,0,0,0,0],"sum_hessian":[9.991072E0,1.1978151E0,8.793257E0,1.0567243E0,7.7365327E0,6.001293E0,1.7352394E0,3.7934494E0,2.2078435E0,2.3657894E0,1.4276601E0,1.0190555E0,1.188788E0,1.0250931E0,1.3406963E0],"tree_param":{"num_deleted":"0","num_feature":"9","num_nodes":"15","size_leaf_vector":"0"}},{"base_weights":[-5.9203706E-3,-5.6588303E-2,1.3119787E-1,-1.4450146E-1,4.3749303E-2,1.9653969E-1,2.7738956E-3,7.83093E-2,-2.9157102E-1,-1.2910019E-1,1.274134E-1,2.2396497E-1,-1.722574E-2],"categories":[],"categories_nodes":[],"categories_segments":[],"categories_sizes":[],"default_left":[true,true,true,true,true,false,false,false,false,false,true,false,false],"id":54,"left_children":[1,3,5,7,9,-1,-1,-1,-1,-1,11,-1,-1],"loss_changes":[8.294512E-2,8.249913E-2,2.6595447E-2,1.8128027E-1,8.587159E-2,0E0,0E0,0E0,0E0,0E0,5.6061197E-2,0E0,0E0],"parents":[2147483647,0,0,1,1,2,2,3,3,4,4,10,10],"right_children":[2,4,6,8,10,-1,-1,-1,-1,-1,12,-1,-1],"split_conditions":[1.5E0,9.95E1,2.28E-1,-1.25E-1,-4.578059E-1,5.896191E-2,8.3216873E-4,2.349279E-2,-8.747131E-2,-3.873006E-2,2.025E-1,6.718949E-2,-5.1677222E-3],"split_indices":[2,0,6,3,7,0,0,0,0,0,6,0,0],"split_type":[0,0,0,0,0,0,0,0,0,0,0,0,0],"sum_hessian":[9.870224E0,7.635906E0,2.2343173E0,3.835335E0,3.8005714E0,1.1293231E0,1.104994E0,1.7108812E0,2.1244538E0,1.0624595E0,2.738112E0,1.31312E0,1.4249918E0],"tree_param":{"num_deleted":"0","num_feature":"9","num_nodes":"13","size_leaf_vector":"0"}},{"base_weights":[-2.6300114E-3,-5.6506503E-2,9.9710576E-2,-1.8428482E-1,1.5350093E-2,2.3808789E-1,-3.1142682E-2,1.9548145E-1,-1.0781846E-1,8.164174E-2,-2.2712126E-1],"categories":[],"categories_nodes":[],"categories_segments":[],"categories_sizes":[],"default_left":[true,true,true,false,true,false,false,false,true,false,false],"id":55,"left_children":[1,3,5,-1,7,-1,-1,-1,9,-1,-1],"loss_changes":[6.494071E-2,7.338833E-2,8.113427E-2,0E0,1.5068649E-1,0E0,0E0,0E0,1.1153211E-1,0E0,0E0],"parents":[2147483647,0,0,1,1,2,2,4,4,8,8],"right_children":[2,4,6,-1,8,-1,-1,-1,10,-1,-1],"split_conditions":[4.0714283E0,-6.1814344E-1,7.0714283E0,-5.528545E-2,-2.0042193E-1,7.142637E-2,-9.342805E-3,5.8644436E-2,3.14E-1,2.4492523E-2,-6.813638E-2],"split_indices":[8,7,8,0,7,0,0,0,5,0,0],"split_type":[0,0,0,0,0,0,0,0,0,0,0],"sum_hessian":[9.756091E0,6.6847887E0,3.0713022E0,1.842954E0,4.8418345E0,1.0944347E0,1.9768676E0,1.7278241E0,3.1140106E0,1.3251953E0,1.7888154E0],"tree_param":{"num_deleted":"0","num_feature":"9","num_nodes":"11","size_leaf_vector":"0"}},{"base_weights":[1.8107829E-5,-4.4843752E-2,1.1864263E-1,-1.4841883E-1,3.0885475E-2,1.7392516E-1,6.053562E-3,4.0908836E-2,-2.5507516E-1,1.9141074E-1,-1.1455823E-1,-2.1452205E-1,1.2270922E-2],"categories":[],"categories_nodes":[],"categories_segments":[],"categories_sizes":[],"default_left":[true,true,true,true,true,false,false,false,false,false,true,false,false],"id":56,"left_children":[1,3,5,7,9,-1,-1,-1,-1,-1,11,-1,-1],"loss_changes":[6.2074445E-2,7.0971705E-2,1.886924E-2,8.609738E-2,1.5540238E-1,0E0,0E0,0E0,0E0,0E0,4.8590492E-2,0E0,0E0],"parents":[2147483647,0,0,1,1,2,2,3,3,4,4,10,10],"right_children":[2,4,6,8,10,-1,-1,-1,-1,-1,12,-1,-1],"split_conditions":[1.5E0,1.83E-1,2.28E-1,1.2857144E0,2.4849999E-1,5.2177552E-2,1.8160687E-3,1.2272651E-2,-7.652255E-2,5.7423223E-2,4.645E-1,-6.435662E-2,3.6812767E-3],"split_indices":[2,6,6,8,6,0,0,0,0,0,5,0,0],"split_type":[0,0,0,0,0,0,0,0,0,0,0,0,0],"sum_hessian":[9.664616E0,7.4638705E0,2.200745E0,2.7469702E0,4.7169003E0,1.1106331E0,1.0901121E0,1.2119888E0,1.5349815E0,2.0919652E0,2.6249352E0,1.0812743E0,1.5436609E0],"tree_param":{"num_deleted":"0","num_feature":"9","num_nodes":"13","size_leaf_vector":"0"}},{"base_weights":[-1.4576676E-3,-5.711132E-2,1.03512965E-1,-1.3211702E-1,7.6999955E-2,-4.7421947E-2,2.2292204E-1,4.720387E-3,-3.311166E-1,2.1146372E-1,-1.1079724E-1,-1.5763779E-1,1.55468E-1],"categories":[],"categories_nodes":[],"categories_segments":[],"categories_sizes":[],"default_left":[true,true,true,true,true,false,false,true,false,false,false,false,false],"id":57,"left_children":[1,3,5,7,9,-1,-1,11,-1,-1,-1,-1,-1],"loss_changes":[6.769943E-2,8.6183E-2,8.302615E-2,1.4355023E-1,1.0782347E-1,0E0,0E0,1.2425942E-1,0E0,0E0,0E0,0E0,0E0],"parents":[2147483647,0,0,1,1,2,2,3,3,4,4,7,7],"right_children":[2,4,6,8,10,-1,-1,12,-1,-1,-1,-1,-1],"split_conditions":[4.0714283E0,4.19E-1,5E-1,3.55E-1,4.0100002E-1,-1.4226585E-2,6.687661E-2,3.02E-1,-9.933498E-2,6.3439116E-2,-3.3239175E-2,-4.729134E-2,4.6640404E-2],"split_indices":[8,5,4,5,6,0,0,5,0,0,0,0,0],"split_type":[0,0,0,0,0,0,0,0,0,0,0,0,0],"sum_hessian":[9.576461E0,6.556334E0,3.0201268E0,4.214257E0,2.3420775E0,1.600249E0,1.4198778E0,3.0756423E0,1.1386142E0,1.2914038E0,1.0506737E0,1.45879E0,1.6168525E0],"tree_param":{"num_deleted":"0","num_feature":"9","num_nodes":"13","size_leaf_vector":"0"}},{"base_weights":[-2.9186348E-3,-4.740605E-2,1.1503206E-1,-9.099802E-2,9.2323065E-2,1.6733466E-1,7.3152226E-3,-2.5906637E-1,-1.7227864E-2,-1.3766465E-1,1.4015225E-1,1.0885082E-1,-2.6708558E-1],"categories":[],"categories_nodes":[],"categories_segments":[],"categories_sizes":[],"default_left":[true,true,true,true,false,false,false,false,true,true,false,false,false],"id":58,"left_children":[1,3,5,7,-1,-1,-1,-1,9,11,-1,-1,-1],"loss_changes":[6.027632E-2,5.8924228E-2,1.6540732E-2,8.016659E-2,0E0,0E0,0E0,0E0,1.2951232E-1,1.5026307E-1,0E0,0E0,0E0],"parents":[2147483647,0,0,1,1,2,2,3,3,8,8,9,9],"right_children":[2,4,6,8,-1,-1,-1,-1,10,12,-1,-1,-1],"split_conditions":[1.5E0,4.4936708E-1,2.28E-1,5.0784693E0,2.769692E-2,5.02004E-2,2.194567E-3,-7.771991E-2,9.95E1,-1.0210971E0,4.2045675E-2,3.2655247E-2,-8.0125675E-2],"split_indices":[2,7,6,1,0,0,0,0,0,7,0,0,0],"split_type":[0,0,0,0,0,0,0,0,0,0,0,0,0],"sum_hessian":[9.447826E0,7.294608E0,2.1532185E0,5.8258452E0,1.4687629E0,1.0768695E0,1.0763489E0,1.0109113E0,4.814934E0,2.7985709E0,2.016363E0,1.0181609E0,1.78041E0],"tree_param":{"num_deleted":"0","num_feature":"9","num_nodes":"13","size_leaf_vector":"0"}},{"base_weights":[-2.6715111E-3,3.422938E-2,-1.4873987E-1,-1.737057E-1,9.777321E-2,-2.1242892E-2,2.4170953E-1,1.3585858E-1,-1.3080765E-1,3.5859194E-1,2.7571164E-2,-2.7990785E-1,6.895301E-2],"categories":[],"categories_nodes":[],"categories_segments":[],"categories_sizes":[],"default_left":[true,true,false,false,true,true,true,false,true,false,false,false,false],"id":59,"left_children":[1,3,-1,-1,5,7,9,-1,11,-1,-1,-1,-1],"loss_changes":[6.0921174E-2,1.3698284E-1,0E0,0E0,1.3525957E-1,1.0516322E-1,7.818636E-2,0E0,1.2356297E-1,0E0,0E0,0E0,0E0],"parents":[2147483647,0,0,1,1,4,4,5,5,6,6,8,8],"right_children":[2,4,-1,-1,6,8,10,-1,12,-1,-1,-1,-1],"split_conditions":[6.729958E-1,5E-1,-4.4621963E-2,-5.211171E-2,-7.3839664E-2,-9.2827004E-1,1.6666667E-1,4.0757574E-2,1.3E0,1.07577585E-1,8.27135E-3,-8.397236E-2,2.0685904E-2],"split_indices":[7,2,0,0,7,7,4,0,2,0,0,0,0],"split_type":[0,0,0,0,0,0,0,0,0,0,0,0,0],"sum_hessian":[9.35795E0,8.081902E0,1.2760488E0,1.4859095E0,6.5959916E0,4.077149E0,2.5188427E0,1.57657E0,2.5005789E0,1.1930588E0,1.325784E0,1.2021127E0,1.2984662E0],"tree_param":{"num_deleted":"0","num_feature":"9","num_nodes":"13","size_leaf_vector":"0"}},{"base_weights":[-2.343755E-3,-7.12338E-2,7.385568E-2,7.4710585E-2,-1.9536304E-1,1.3864096E-1,-8.685775E-2,-1.1214794E-1,2.3569049E-1,2.277159E-2,-3.3529162E-1,-1.8454801E-2,3.154031E-1,5.0546147E-2,-7.746595E-2],"categories":[],"categories_nodes":[],"categories_segments":[],"categories_sizes":[],"default_left":[true,true,true,true,true,true,false,false,false,false,false,true,false,false,false],"id":60,"left_children":[1,3,5,7,9,11,-1,-1,-1,-1,-1,13,-1,-1,-1],"loss_changes":[5.88513E-2,1.2094774E-1,6.762314E-2,1.2935503E-1,1.1291118E-1,1.2216445E-1,0E0,0E0,0E0,0E0,0E0,1.6794812E-2,0E0,0E0,0E0],"parents":[2147483647,0,0,1,1,2,2,3,3,4,4,5,5,11,11],"right_children":[2,4,6,8,10,12,-1,-1,-1,-1,-1,14,-1,-1,-1],"split_conditions":[5.880512E0,5.142377E0,4.335E-1,2.295E-1,2.08E-1,2.065E-1,-2.6057327E-2,-3.3644386E-2,7.070715E-2,6.831477E-3,-1.00587495E-1,9.5E-2,9.4620936E-2,1.5163844E-2,-2.3239786E-2],"split_indices":[1,1,5,6,6,6,0,0,0,0,0,6,0,0,0],"split_type":[0,0,0,0,0,0,0,0,0,0,0,0,0,0,0],"sum_hessian":[9.208874E0,4.870626E0,4.338248E0,2.421583E0,2.4490428E0,3.1897616E0,1.1484859E0,1.2610974E0,1.1604856E0,1.284265E0,1.1647776E0,2.1630056E0,1.0267562E0,1.0632311E0,1.0997745E0],"tree_param":{"num_deleted":"0","num_feature":"9","num_nodes":"15","size_leaf_vector":"0"}},{"base_weights":[-1.4830715E-3,-1.4200863E-1,3.1344492E-2,9.309866E-2,-8.519588E-2,1.7083524E-1,-1.2110869E-1,8.736095E-2,-2.086479E-1,2.708188E-1,-7.731913E-2,8.8417225E-2,3.5519928E-1],"categories":[],"categories_nodes":[],"categories_segments":[],"categories_sizes":[],"default_left":[true,false,true,true,true,true,false,false,false,true,false,false,false],"id":61,"left_children":[1,-1,3,5,7,9,-1,-1,-1,11,-1,-1,-1],"loss_changes":[5.1028434E-2,0E0,7.273138E-2,1.2664708E-1,9.578487E-2,1.4707176E-1,0E0,0E0,0E0,2.7784616E-2,0E0,0E0,0E0],"parents":[2147483647,0,0,2,2,3,3,4,4,5,5,9,9],"right_children":[2,-1,4,6,8,10,-1,-1,-1,12,-1,-1,-1],"split_conditions":[-1.1582279E0,-4.260259E-2,2.6793247E-1,3.75E-1,3.14E-1,6.765088E0,-3.6332607E-2,2.6208285E-2,-6.259438E-2,-3.75E-1,-2.319574E-2,2.6525168E-2,1.0655979E-1],"split_indices":[7,0,7,3,5,1,0,0,0,3,0,0,0],"split_type":[0,0,0,0,0,0,0,0,0,0,0,0,0],"sum_hessian":[9.096709E0,1.0928084E0,8.0039015E0,5.363144E0,2.640757E0,4.0836506E0,1.2794935E0,1.2232671E0,1.41749E0,2.8457437E0,1.2379069E0,1.5477912E0,1.2979524E0],"tree_param":{"num_deleted":"0","num_feature":"9","num_nodes":"13","size_leaf_vector":"0"}},{"base_weights":[-1.6221936E-3,-6.854547E-2,7.225388E-2,2.9832484E-2,-2.0847936E-1,-4.6118416E-2,1.4156385E-1,-1.1961565E-1,1.6764295E-1,2.6126516E-1,-2.9071027E-2],"categories":[],"categories_nodes":[],"categories_segments":[],"categories_sizes":[],"default_left":[true,true,true,true,false,false,true,false,false,false,false],"id":62,"left_children":[1,3,5,7,-1,-1,9,-1,-1,-1,-1],"loss_changes":[5.4465506E-2,8.562097E-2,4.9576268E-2,1.0782228E-1,0E0,0E0,8.020641E-2,0E0,0E0,0E0,0E0],"parents":[2147483647,0,0,1,1,2,2,3,3,6,6],"right_children":[2,4,6,8,-1,-1,10,-1,-1,-1,-1],"split_conditions":[5.880512E0,5.303337E0,5E-1,2.295E-1,-6.254381E-2,-1.3835525E-2,8.333334E-1,-3.5884697E-2,5.0292887E-2,7.837955E-2,-8.721309E-3],"split_indices":[1,1,4,6,0,0,4,0,0,0,0],"split_type":[0,0,0,0,0,0,0,0,0,0,0],"sum_hessian":[9.014673E0,4.767772E0,4.2469006E0,3.2615852E0,1.5061872E0,1.6919239E0,2.5549767E0,1.6280639E0,1.6335212E0,1.1894413E0,1.3655354E0],"tree_param":{"num_deleted":"0","num_feature":"9","num_nodes":"11","size_leaf_vector":"0"}},{"base_weights":[-3.9026895E-4,-4.988986E-2,9.20645E-2,1.823755E-2,-1.807976E-1,-3.7360728E-2,1.9101867E-1,-1.681096E-1,1.4974244E-1,2.59878E-1,-3.4349672E-2],"categories":[],"categories_nodes":[],"categories_segments":[],"categories_sizes":[],"default_left":[true,true,true,true,false,false,false,false,true,false,false],"id":63,"left_children":[1,3,5,7,-1,-1,-1,-1,9,-1,-1],"loss_changes":[5.0140288E-2,6.6890754E-2,5.6084096E-2,1.6236115E-1,0E0,0E0,0E0,0E0,8.6194545E-2,0E0,0E0],"parents":[2147483647,0,0,1,1,2,2,3,3,8,8],"right_children":[2,4,6,8,-1,-1,-1,-1,10,-1,-1],"split_conditions":[4.0714283E0,3.055E-1,5E-1,5.45926E0,-5.4239284E-2,-1.12082185E-2,5.7305604E-2,-5.043288E-2,7.0165443E0,7.7963404E-2,-1.0304902E-2],"split_indices":[8,6,4,1,0,0,0,0,1,0,0],"split_type":[0,0,0,0,0,0,0,0,0,0,0],"sum_hessian":[8.952468E0,6.130585E0,2.821883E0,4.5982394E0,1.5323458E0,1.4923875E0,1.3294955E0,1.7872663E0,2.8109732E0,1.5011915E0,1.3097817E0],"tree_param":{"num_deleted":"0","num_feature":"9","num_nodes":"11","size_leaf_vector":"0"}},{"base_weights":[6.14404E-4,-4.201676E-2,1.1026114E-1,-9.977295E-2,9.094051E-2,1.6270864E-1,3.831547E-3,-2.6307455E-1,2.6566379E-2,-1.3922618E-1,1.2118916E-1,1.7731835E-1,3.3107202E-3],"categories":[],"categories_nodes":[],"categories_segments":[],"categories_sizes":[],"default_left":[true,true,true,true,false,false,false,false,true,false,true,false,false],"id":64,"left_children":[1,3,5,7,-1,-1,-1,-1,9,-1,11,-1,-1],"loss_changes":[5.0655384E-2,6.907359E-2,1.630275E-2,1.2921016E-1,0E0,0E0,0E0,0E0,8.351884E-2,0E0,2.0845465E-2,0E0,0E0],