{"learner":{"attributes":{"scikit_learn":"{\"use_label_encoder\": true, \"n_estimators\": 100, \"objective\": \"binary:logistic\", \"max_depth\": null, \"learning_rate\": null, \"verbosity\": null, \"booster\": null, \"tree_method\": null, \"gamma\": null, \"min_child_weight\": null, \"max_delta_step\": null, \"subsample\": null, \"colsample_bytree\": null, \"colsample_bylevel\": null, \"colsample_bynode\": null, \"reg_alpha\": null, \"reg_lambda\": null, \"scale_pos_weight\": null, \"base_score\": null, \"missing\": NaN, \"num_parallel_tree\": null, \"kwargs\": {\"probability\": true, \"learningRate\": 0.33999999999999997, \"nEstimators\": 214.0, \"maxDepth\": 3.0, \"minChildWeight\": 1.27, \"gammaValue\": 9.91, \"subSample\": 0.37, \"colSampleByTree\": 0.32}, \"random_state\": null, \"n_jobs\": null, \"monotone_constraints\": null, \"interaction_constraints\": null, \"importance_type\": \"gain\", \"gpu_id\": null, \"validate_parameters\": null, \"classes_\": [0.0, 1.0], \"n_classes_\": 2, \"_le\": {\"classes_\": [0.0, 1.0]}, \"_features_count\": 9, \"n_features_in_\": 9, \"type\": \"XGBClassifier\"}"},"gradient_booster":{"model":{"gbtree_model_param":{"num_trees":"100","size_leaf_vector":"0"},"tree_info":[0,0,0,0,0,0,0,0,0,0,0,0,0,0,0,0,0,0,0,0,0,0,0,0,0,0,0,0,0,0,0,0,0,0,0,0,0,0,0,0,0,0,0,0,0,0,0,0,0,0,0,0,0,0,0,0,0,0,0,0,0,0,0,0,0,0,0,0,0,0,0,0,0,0,0,0,0,0,0,0,0,0,0,0,0,0,0,0,0,0,0,0,0,0,0,0,0,0,0,0],"trees":[{"base_weights":[1.0718955E0,1.5916084E0,-7.4396133E-1,8.5271317E-1,1.7423729E0,-1.1619048E0,-3.018868E-1,1.1287129E0,-1.25E-1,1.7704347E0,5.263158E-1,-0E0,-1.3406594E0,-6.329114E-1,5.8064514E-1,-5E-1,1.2164948E0,1E0,-4.2857143E-1,1.4418604E0,1.8918918E0,9.3333334E-1,-5E-1,-6.666667E-1,8E-1,-1.4022988E0,-0E0,-8E-2,-1.3939394E0,-4.6153846E-1,1.0909091E0,1.3043479E0,-2.2222222E-1,-1E0,2.5E-1,1.4761904E0,-0E0,5.4545456E-1,1.91E0,1.2727273E0,-0E0,-1E0,-0E0,-5.263158E-1,-1.5555556E0,1.25E0,-6.315789E-1,-0E0,-1.5862069E0,2.2222222E-1,-1E0,1.8181819E-1,1.4666667E0,1.0447761E0,1.7241379E0,-2.2222222E-1,-1.2727273E0,1.1111112E0,-5.4545456E-1,1.525E0,3.3333334E-1,-1.2727273E0,3.3333334E-1,-0E0,-1.6470588E0,9.52381E-2,-1.2380953E0],"categories":[],"categories_nodes":[],"categories_segments":[],"categories_sizes":[],"default_left":[true,true,true,true,true,true,true,true,true,true,true,true,true,true,true,false,true,false,true,true,true,true,false,true,false,true,false,true,true,true,true,true,false,true,true,true,false,false,false,false,false,false,false,true,true,false,true,false,false,false,false,false,false,false,false,false,false,false,false,false,false,false,false,false,false,false,false],"id":0,"left_children":[1,3,5,7,9,11,13,15,17,19,21,23,25,27,29,-1,31,-1,33,35,37,39,-1,41,-1,43,-1,45,47,49,51,53,-1,55,57,59,-1,-1,-1,-1,-1,-1,-1,61,63,-1,65,-1,-1,-1,-1,-1,-1,-1,-1,-1,-1,-1,-1,-1,-1,-1,-1,-1,-1,-1,-1],"loss_changes":[2.1776883E2,1.842685E1,9.210676E0,8.843704E0,4.1016235E0,5.452015E0,8.109201E0,4.218281E0,3.1607141E0,3.0088806E0,2.4508772E0,2.9333334E0,1.8800049E0,8.198912E0,4.6248593E0,0E0,3.35495E0,0E0,2.9642859E0,2.1284637E0,1.4389954E0,1.1878788E0,0E0,6.666666E-1,0E0,2.1012306E0,0E0,9.959474E0,2.2110748E0,1.4188035E0,1.6121211E0,7.048683E-1,0E0,5.6565666E-1,3.3459594E0,1.8345261E0,0E0,0E0,0E0,0E0,0E0,0E0,0E0,3.4720895E0,2.562088E0,0E0,4.305764E0,0E0,0E0,0E0,0E0,0E0,0E0,0E0,0E0,0E0,0E0,0E0,0E0,0E0,0E0,0E0,0E0,0E0,0E0,0E0,0E0],"parents":[2147483647,0,0,1,1,2,2,3,3,4,4,5,5,6,6,7,7,8,8,9,9,10,10,11,11,12,12,13,13,14,14,16,16,18,18,19,19,20,20,21,21,23,23,25,25,27,27,28,28,29,29,30,30,31,31,33,33,34,34,35,35,43,43,44,44,46,46],"right_children":[2,4,6,8,10,12,14,16,18,20,22,24,26,28,30,-1,32,-1,34,36,38,40,-1,42,-1,44,-1,46,48,50,52,54,-1,56,58,60,-1,-1,-1,-1,-1,-1,-1,62,64,-1,66,-1,-1,-1,-1,-1,-1,-1,-1,-1,-1,-1,-1,-1,-1,-1,-1,-1,-1,-1,-1],"split_conditions":[7.0299995E-1,-5E-1,5.696203E-2,2.142857E0,6.74E-1,7.905E-1,9.045E-1,4.743822E0,2E-2,-1E-1,1.6666667E-1,5.550345E0,9.58E-1,6.1454625E0,5.5696707E0,-1.5E-1,6.315E-1,3E-1,3.15E-1,8.642857E0,4.2632637E0,3.8185656E-1,-1.5E-1,-1.25E-1,2.4000001E-1,4.9788814E0,-0E0,1.8776372E-1,7.47E-1,9.19E-1,2.763713E-1,5.1687765E-1,-6.666667E-2,5.228463E0,3.865E-1,7.3452506E0,-0E0,1.6363637E-1,5.73E-1,3.818182E-1,-0E0,-3E-1,-0E0,-7.3628694E-1,-1.7848101E0,3.75E-1,-5E-1,-0E0,-4.758621E-1,6.666667E-2,-3E-1,5.454546E-2,4.4000003E-1,3.1343284E-1,5.172414E-1,-6.666667E-2,-3.818182E-1,3.3333337E-1,-1.6363637E-1,4.575E-1,1.0000001E-1,-3.818182E-1,1.0000001E-1,-0E0,-4.9411768E-1,2.857143E-2,-3.714286E-1],"split_indices":[5,2,7,8,6,5,5,1,6,2,4,1,6,1,1,0,6,0,6,8,1,7,0,3,0,1,0,7,6,6,7,7,0,1,6,1,0,0,0,0,0,0,0,7,7,0,2,0,0,0,0,0,0,0,0,0,0,0,0,0,0,0,0,0,0,0,0],"split_type":[0,0,0,0,0,0,0,0,0,0,0,0,0,0,0,0,0,0,0,0,0,0,0,0,0,0,0,0,0,0,0,0,0,0,0,0,0,0,0,0,0,0,0,0,0,0,0,0,0,0,0,0,0,0,0,0,0,0,0,0,0,0,0,0,0,0,0],"sum_hessian":[2.285E2,1.7775E2,5.075E1,3.125E1,1.465E2,2.525E1,2.55E1,2.425E1,7E0,1.4275E2,3.75E0,3.5E0,2.175E1,1.875E1,6.75E0,1E0,2.325E1,1E0,6E0,4.2E1,1.0075E2,2.75E0,1E0,2E0,1.5E0,2.075E1,1E0,1.15E1,7.25E0,2.25E0,4.5E0,2.2E1,1.25E0,3E0,3E0,4.1E1,1E0,1.75E0,9.9E1,1.75E0,1E0,1E0,1E0,3.75E0,1.7E1,3E0,8.5E0,1E0,6.25E0,1.25E0,1E0,1.75E0,2.75E0,1.575E1,6.25E0,1.25E0,1.75E0,1.25E0,1.75E0,3.9E1,2E0,1.75E0,2E0,1E0,1.6E1,4.25E0,4.25E0],"tree_param":{"num_deleted":"0","num_feature":"9","num_nodes":"67","size_leaf_vector":"0"}},{"base_weights":[8.065979E-1,1.2092016E0,-5.639931E-1,6.381103E-1,1.3303226E0,-6.533828E-1,6.677668E-1,8.4513146E-1,-8.6600654E-2,1.4631695E0,1.089933E0,2.4513055E-3,-8.661521E-1,9.693932E-2,9.673891E-1,-9.285569E-2,9.5346314E-1,2.9284194E-1,-7.266791E-1,1.230861E0,4.8429328E-1,5.0113285E-1,-6.899873E-1,-1.1363192E0,-5.188136E-1,5.8262515E-1,-7.2485155E-1,6.7035514E-1,1.3369979E0,6.435532E-1,-5.459875E-1,5.1414317E-1,1.3678278E0,9.358415E-1,-3.6147982E-1,1.0229683E0,-2.0340557E-1,-1.0324601E0,3.06586E-1,-1.2605865E0,3.9534342E-1,1.4041476E-1,-8.4471273E-1,8.690605E-1,1.9812971E-1,4.4067872E-1,1.4244668E0,-2.92153E-1,1.2112352E0,-1.9810455E-1,9.683388E-1,1.4487817E0,8.671257E-1,-3.7637457E-1,1.2318919E0,6.7178464E-1,-1.123604E0,3.1327826E-1,1.2520581E0,3.421392E-1,-5.4519653E-1,-3.8050655E-1,-1.229548E0,-1.3249198E0,-4.8096916E-1,7.401852E-1,-6.4298195E-1,7.252031E-1,-1.097332E0],"categories":[],"categories_nodes":[],"categories_segments":[],"categories_sizes":[],"default_left":[true,true,true,true,true,true,true,true,true,false,true,true,true,false,false,true,true,true,false,true,true,true,true,true,true,false,false,true,true,true,false,true,true,true,true,true,true,true,false,true,false,true,true,false,false,false,false,false,false,false,false,false,false,false,false,false,false,false,false,false,false,false,false,false,false,false,false,false,false],"id":1,"left_children":[1,3,5,7,9,11,13,15,17,-1,19,21,23,-1,-1,25,27,29,-1,31,33,35,37,39,41,-1,-1,43,45,47,-1,49,51,53,55,57,59,61,-1,63,-1,65,67,-1,-1,-1,-1,-1,-1,-1,-1,-1,-1,-1,-1,-1,-1,-1,-1,-1,-1,-1,-1,-1,-1,-1,-1,-1,-1],"loss_changes":[1.2044159E2,1.0776947E1,5.9371424E0,4.7737646E0,2.8040466E0,6.5723324E0,5.689429E-1,2.5742474E0,2.1238317E0,0E0,3.9230309E0,4.672722E0,2.746788E0,0E0,0E0,1.8925598E0,1.4945297E0,2.0143354E0,0E0,3.449562E0,4.784994E0,3.099237E0,2.2506535E0,4.1448574E0,3.8558607E0,0E0,0E0,1.2046576E0,2.6528358E-2,2.715052E0,0E0,2.9058566E0,1.5892792E-1,3.5207825E0,4.514226E0,3.6922073E-1,9.659982E-1,1.0349178E-1,0E0,2.6350975E-1,0E0,3.5827127E0,5.4688864E0,0E0,0E0,0E0,0E0,0E0,0E0,0E0,0E0,0E0,0E0,0E0,0E0,0E0,0E0,0E0,0E0,0E0,0E0,0E0,0E0,0E0,0E0,0E0,0E0,0E0,0E0],"parents":[2147483647,0,0,1,1,2,2,3,3,4,4,5,5,6,6,7,7,8,8,10,10,11,11,12,12,15,15,16,16,17,17,19,19,20,20,21,21,22,22,23,23,24,24,27,27,28,28,29,29,31,31,32,32,33,33,34,34,35,35,36,36,37,37,39,39,41,41,42,42],"right_children":[2,4,6,8,10,12,14,16,18,-1,20,22,24,-1,-1,26,28,30,-1,32,34,36,38,40,42,-1,-1,44,46,48,-1,50,52,54,56,58,60,62,-1,64,-1,66,68,-1,-1,-1,-1,-1,-1,-1,-1,-1,-1,-1,-1,-1,-1,-1,-1,-1,-1,-1,-1,-1,-1,-1,-1,-1,-1],"split_conditions":[7.0299995E-1,-5E-1,9.627134E0,2.142857E0,4.115E-1,7.76E-1,9.3350005E-1,5.0443287E0,1.25E-1,4.3895087E-1,5.3164554E-1,1E2,8.945E-1,2.9081797E-2,2.9021674E-1,5.355E-1,4.5569623E-1,1.0071428E1,-2.1800373E-1,-3E-1,-1.6666667E-1,4.472574E-1,7.8900003E-1,4.0714283E0,1.6666667E-1,1.7478755E-1,-2.1745548E-1,1.1603375E-1,-1.1E0,7.3571424E0,-1.6379625E-1,-2.236287E-1,1.4285715E-1,4.6943264E0,7.531645E-1,5.696203E-2,-5E-1,1.4556962E-1,9.19758E-2,5.232068E-1,1.1860303E-1,6.3394732E0,-1.6181436E0,2.6071817E-1,5.9438918E-2,1.3220362E-1,4.2734006E-1,-8.76459E-2,3.6337057E-1,-5.9431367E-2,2.9050165E-1,4.3463454E-1,2.601377E-1,-1.1291238E-1,3.6956757E-1,2.015354E-1,-3.3708122E-1,9.398348E-2,3.7561747E-1,1.0264177E-1,-1.6355896E-1,-1.1415197E-1,-3.6886442E-1,-3.9747596E-1,-1.4429076E-1,2.2205557E-1,-1.928946E-1,2.1756093E-1,-3.291996E-1],"split_indices":[5,2,1,8,6,6,5,1,3,0,7,0,5,0,0,5,7,8,0,2,4,7,5,8,4,0,0,7,2,8,0,7,8,1,7,7,4,7,0,7,0,1,7,0,0,0,0,0,0,0,0,0,0,0,0,0,0,0,0,0,0,0,0,0,0,0,0,0,0],"split_type":[0,0,0,0,0,0,0,0,0,0,0,0,0,0,0,0,0,0,0,0,0,0,0,0,0,0,0,0,0,0,0,0,0,0,0,0,0,0,0,0,0,0,0,0,0,0,0,0,0,0,0,0,0,0,0,0,0,0,0,0,0,0,0,0,0,0,0,0,0],"sum_hessian":[2.160325E2,1.6707336E2,4.8959137E1,3.0330793E1,1.3674257E2,4.608432E1,2.87482E0,2.3462362E1,6.868431E0,8.479534E1,5.194723E1,1.1530746E1,3.455357E1,1.4451401E0,1.4296799E0,2.44399E0,2.1018372E1,4.652745E0,2.2156863E0,4.1303814E1,1.0643418E1,6.8638244E0,4.666922E0,1.8158226E1,1.6395346E1,1.2191133E0,1.2248766E0,1.3673239E1,7.3451333E0,3.445141E0,1.2076036E0,7.3895707E0,3.391424E1,6.8694224E0,3.7739956E0,3.683541E0,3.1802835E0,3.4465156E0,1.2204064E0,1.6959263E1,1.1989626E0,5.6121807E0,1.0783165E1,9.032251E0,4.640987E0,1.1899096E0,6.1552234E0,1.4841633E0,1.9609778E0,3.0969372E0,4.2926335E0,2.7564144E1,6.350099E0,1.2145816E0,5.654841E0,1.6523404E0,2.1216552E0,1.4766297E0,2.2069116E0,1.224614E0,1.9556694E0,1.4803295E0,1.966186E0,1.5020348E1,1.9389155E0,3.2098618E0,2.402319E0,1.2353406E0,9.547824E0],"tree_param":{"num_deleted":"0","num_feature":"9","num_nodes":"69","size_leaf_vector":"0"}},{"base_weights":[6.5617037E-1,9.953403E-1,-4.2957765E-1,7.119012E-1,1.2217526E0,-1.6896367E-1,-8.081175E-1,7.688916E-1,-7.2136015E-1,1.250761E0,-4.3341243E-1,6.0607284E-1,-4.7197676E-1,-1.3205865E-1,-8.9564043E-1,3.9333805E-1,8.706707E-1,2.8164363E-1,1.2674298E0,9.144784E-1,-4.12693E-1,-8.912424E-1,1.4043845E-1,-4.945482E-1,2.9111493E-1,-2.977958E-1,-9.638925E-1,7.6796454E-1,-2.0475505E-1,9.447944E-1,4.755422E-1,1.3082463E0,7.349556E-1,-1.6008554E-1,1.1711323E0,4.3059024E-1,-1.0609357E0,-3.7218812E-1,9.566711E-1,-1.1666697E0,-5.144066E-1,-7.7183014E-3,8.7036705E-1,6.32384E-1,-6.450567E-1,1.1488112E0,6.1993176E-1,-4.1973343E-1,7.103722E-1,9.812976E-1,-7.557479E-2,1.3497698E0,2.7104178E-1,-1.178334E0,-1.5563337E-2,2.6705673E-1,-1.065353E0,5.1694673E-1,-8.6644864E-1],"categories":[],"categories_nodes":[],"categories_segments":[],"categories_sizes":[],"default_left":[true,true,true,true,true,true,true,true,false,true,false,true,true,true,true,true,true,false,true,true,false,true,true,false,false,false,true,true,true,true,true,false,true,false,true,false,true,true,false,false,true,false,false,false,false,false,false,false,false,false,false,false,false,false,false,false,false,false,false],"id":2,"left_children":[1,3,5,7,9,11,13,15,-1,17,-1,19,21,23,25,27,29,-1,31,33,-1,35,37,-1,-1,-1,39,41,43,45,47,-1,49,-1,51,-1,53,55,-1,-1,57,-1,-1,-1,-1,-1,-1,-1,-1,-1,-1,-1,-1,-1,-1,-1,-1,-1,-1],"loss_changes":[7.227423E1,8.689804E0,4.513756E0,6.1537247E0,4.4511642E0,7.139317E0,1.0033674E0,2.1959496E0,0E0,9.3974304E-1,0E0,3.092066E0,5.656338E0,6.571911E-1,3.9072895E-1,3.7387002E0,1.0568848E0,0E0,7.473755E-1,2.1023822E0,0E0,3.3556585E0,4.380561E0,0E0,0E0,0E0,7.179413E-1,8.041091E-1,2.9680157E0,2.0906143E0,2.429274E0,0E0,1.6475544E0,0E0,5.546651E-1,0E0,1.4226828E0,3.221302E0,0E0,0E0,2.729652E0,0E0,0E0,0E0,0E0,0E0,0E0,0E0,0E0,0E0,0E0,0E0,0E0,0E0,0E0,0E0,0E0,0E0,0E0],"parents":[2147483647,0,0,1,1,2,2,3,3,4,4,5,5,6,6,7,7,9,9,11,11,12,12,13,13,14,14,15,15,16,16,18,18,19,19,21,21,22,22,26,26,27,27,28,28,29,29,30,30,32,32,34,34,36,36,37,37,40,40],"right_children":[2,4,6,8,10,12,14,16,-1,18,-1,20,22,24,26,28,30,-1,32,34,-1,36,38,-1,-1,-1,40,42,44,46,48,-1,50,-1,52,-1,54,56,-1,-1,58,-1,-1,-1,-1,-1,-1,-1,-1,-1,-1,-1,-1,-1,-1,-1,-1,-1,-1],"split_conditions":[7.0299995E-1,-1E-1,9.95E1,1.0071428E1,6.34E-1,7.8849995E-1,4.5845413E0,-7.0000005E-1,-2.1640806E-1,4.2632637E0,-1.3002373E-1,8.5021096E-1,9.045E-1,8.545E-1,7.295E-1,-1.6666667E-1,7.1428575E-2,8.449309E-2,8.1856537E-1,5.2612286E0,-1.238079E-1,8.225E-1,2.763713E-1,-1.4836447E-1,8.7334484E-2,-8.933874E-2,9.125E-1,-2.236287E-1,3.215E-1,5.690518E0,4.945499E0,3.924739E-1,1.25E-1,-4.8025664E-2,6.7364893E0,1.2917708E-1,5.92827E-1,8.582819E0,2.8700134E-1,-3.5000092E-1,9.19E-1,-2.3154905E-3,2.6111013E-1,1.897152E-1,-1.9351703E-1,3.4464338E-1,1.8597953E-1,-1.2592004E-1,2.1311167E-1,2.943893E-1,-2.2672439E-2,4.0493098E-1,8.131254E-2,-3.5350022E-1,-4.6690013E-3,8.0117024E-2,-3.1960592E-1,1.5508403E-1,-2.599346E-1],"split_indices":[5,2,0,8,6,6,1,2,0,1,0,7,5,6,6,4,8,0,7,1,0,5,7,0,0,0,6,7,6,1,1,0,3,0,1,0,7,1,0,0,6,0,0,0,0,0,0,0,0,0,0,0,0,0,0,0,0,0,0],"split_type":[0,0,0,0,0,0,0,0,0,0,0,0,0,0,0,0,0,0,0,0,0,0,0,0,0,0,0,0,0,0,0,0,0,0,0,0,0,0,0,0,0,0,0,0,0,0,0,0,0,0,0,0,0,0,0,0,0,0,0],"sum_hessian":[1.9410127E2,1.4796324E2,4.6138027E1,6.754718E1,8.041607E1,2.8181927E1,1.7956102E1,6.540984E1,2.137336E0,7.9271095E1,1.1449702E0,7.640124E0,2.0541801E1,2.3457239E0,1.5610378E1,1.4984252E1,5.042559E1,1.643024E0,7.7628075E1,5.943305E0,1.6968191E0,1.1923537E1,8.618265E0,1.1726066E0,1.1731174E0,2.14907E0,1.34613085E1,9.038686E0,5.945566E0,4.128893E1,9.1366625E0,7.074802E1,6.8800583E0,1.2183884E0,4.7249165E0,1.1816412E0,1.0741896E1,5.6278E0,2.9904652E0,8.176891E0,5.284417E0,1.1619239E0,7.876762E0,1.8989223E0,4.046644E0,2.380369E1,1.7485239E1,1.7349343E0,7.401728E0,5.1148357E0,1.7652222E0,3.525609E0,1.1993076E0,9.543E0,1.1988958E0,3.2475758E0,2.3802242E0,1.2255588E0,4.0588584E0],"tree_param":{"num_deleted":"0","num_feature":"9","num_nodes":"59","size_leaf_vector":"0"}},{"base_weights":[5.4384184E-1,8.3867246E-1,-3.4517598E-1,5.640134E-1,1.0836335E0,-1.290226E-1,-6.588044E-1,6.129487E-1,-5.833783E-1,1.1144778E0,-3.6021864E-1,4.6939048E-1,-3.984485E-1,-2.975198E-1,-8.540577E-1,8.623035E-1,4.4363686E-1,2.3239367E-1,1.1328974E0,-1.3525504E-1,8.500562E-1,-6.3616246E-1,4.2382357E-1,2.1630079E-1,-5.347851E-1,-9.8505515E-1,-3.525322E-1,3.0786514E-1,1.0094415E0,-1.4283855E-1,5.556024E-1,1.176723E0,6.1803067E-1,-7.500648E-1,4.445245E-1,1.1222749E0,-2.9791746E-2,-7.791723E-1,-2.1011157E-1,9.6786505E-1,-3.0886403E-1,1.34446435E-2,-1.0162861E0,-2.8517112E-1,-1.0613067E0,4.3919572E-1,-8.825638E-1,9.421791E-1,-1.3109922E-1,-1.3954404E-3,1.0831248E0,5.1390797E-1,-4.8584646E-1,6.235796E-1,-1.2865703E-1,6.612043E-2,9.9943715E-1,6.6203035E-2,-8.839706E-1,4.4107938E-1,-6.391786E-1,-4.6703148E-1,5.695357E-1,-1.1629566E0,-2.483099E-1],"categories":[],"categories_nodes":[],"categories_segments":[],"categories_sizes":[],"default_left":[true,true,true,true,true,true,true,true,false,true,false,true,true,true,true,true,true,false,true,true,true,true,true,false,true,true,true,true,true,true,true,false,true,false,false,false,false,true,true,false,false,true,false,false,true,false,false,false,false,false,false,false,false,false,false,false,false,false,false,false,false,false,false,false,false],"id":3,"left_children":[1,3,5,7,9,11,13,15,-1,17,-1,19,21,23,25,27,29,-1,31,33,35,37,39,-1,41,43,45,47,49,51,53,-1,55,-1,-1,-1,-1,57,59,-1,-1,61,-1,-1,63,-1,-1,-1,-1,-1,-1,-1,-1,-1,-1,-1,-1,-1,-1,-1,-1,-1,-1,-1,-1],"loss_changes":[4.5361244E1,8.0965805E0,2.8662148E0,3.900463E0,3.3997421E0,4.542628E0,9.816785E-1,2.1930294E0,0E0,8.1168365E-1,0E0,2.1510727E0,4.0165024E0,1.0520351E0,3.6475658E-1,1.6154289E0,2.6005135E0,0E0,7.2927856E-1,1.8591723E0,1.3665042E0,7.666793E-1,2.2517533E0,0E0,1.4766922E0,1.2619543E-1,1.9830338E0,1.9029627E0,1.3586235E0,1.8153845E0,1.5893192E0,0E0,1.4431558E0,0E0,0E0,0E0,0E0,1.0386605E0,1.7367048E0,0E0,0E0,1.2221342E0,0E0,0E0,2.7970695E-1,0E0,0E0,0E0,0E0,0E0,0E0,0E0,0E0,0E0,0E0,0E0,0E0,0E0,0E0,0E0,0E0,0E0,0E0,0E0,0E0],"parents":[2147483647,0,0,1,1,2,2,3,3,4,4,5,5,6,6,7,7,9,9,11,11,12,12,13,13,14,14,15,15,16,16,18,18,19,19,20,20,21,21,22,22,24,24,25,25,26,26,27,27,28,28,29,29,30,30,32,32,37,37,38,38,41,41,44,44],"right_children":[2,4,6,8,10,12,14,16,-1,18,-1,20,22,24,26,28,30,-1,32,34,36,38,40,-1,42,44,46,48,50,52,54,-1,56,-1,-1,-1,-1,58,60,-1,-1,62,-1,-1,64,-1,-1,-1,-1,-1,-1,-1,-1,-1,-1,-1,-1,-1,-1,-1,-1,-1,-1,-1,-1],"split_conditions":[7.0299995E-1,-1E-1,9.95E1,1.0071428E1,6.34E-1,7.96E-1,5.220452E0,-1.6666667E-1,-1.750135E-1,4.2632637E0,-1.080656E-1,7.125E-1,9.3350005E-1,-1E-1,9.125E-1,4.72E-1,-7.0000005E-1,6.97181E-2,8.1856537E-1,1.25E-1,6.6957426E0,9.045E-1,5E-1,6.4890236E-2,-4.8312238E-1,-6.962025E-1,9.19E-1,5.2777843E0,4.7171106E0,3.215E-1,6.729958E-1,3.530169E-1,1.2025316E0,-2.2501944E-1,1.3335736E-1,3.3668247E-1,-8.937525E-3,-7.0000005E-1,1E-1,2.9035953E-1,-9.265921E-2,-8.016878E-1,-3.0488586E-1,-8.555134E-2,8.2850003E-1,1.3175872E-1,-2.6476917E-1,2.8265375E-1,-3.9329767E-2,-4.1863215E-4,3.2493743E-1,1.5417239E-1,-1.4575395E-1,1.8707389E-1,-3.859711E-2,1.983613E-2,2.9983115E-1,1.9860912E-2,-2.651912E-1,1.3232382E-1,-1.9175358E-1,-1.4010945E-1,1.7086071E-1,-3.48887E-1,-7.449297E-2],"split_indices":[5,2,0,8,6,6,1,4,0,1,0,6,5,2,6,5,2,0,7,3,1,5,4,0,7,7,6,1,1,6,7,0,7,0,0,0,0,2,2,0,0,7,0,0,5,0,0,0,0,0,0,0,0,0,0,0,0,0,0,0,0,0,0,0,0],"split_type":[0,0,0,0,0,0,0,0,0,0,0,0,0,0,0,0,0,0,0,0,0,0,0,0,0,0,0,0,0,0,0,0,0,0,0,0,0,0,0,0,0,0,0,0,0,0,0,0,0,0,0,0,0,0,0,0,0,0,0,0,0,0,0,0,0],"sum_hessian":[1.7095764E2,1.2842415E2,4.2533485E1,6.2099007E1,6.632514E1,2.6015163E1,1.651832E1,6.0005608E1,2.0934002E0,6.516126E1,1.1638811E0,7.8461494E0,1.8169014E1,6.68064E0,9.837681E0,2.2611477E1,3.739413E1,1.6113899E0,6.3549873E1,3.280355E0,4.5657945E0,1.4269983E1,3.8990312E0,2.138302E0,4.542338E0,7.0358205E0,2.8018596E0,5.3907337E0,1.7220743E1,5.950368E0,3.1443762E1,5.7380165E1,6.169707E0,1.4495337E0,1.8308213E0,3.2765272E0,1.2892673E0,1.006328E1,4.2067027E0,2.0533679E0,1.8456635E0,2.5785348E0,1.9638032E0,1.1569052E0,5.8789153E0,1.192282E0,1.6095777E0,1.7359202E0,3.6548135E0,1.2366471E0,1.5984097E1,1.8705825E0,4.0797853E0,2.8682955E1,2.760808E0,3.000796E0,3.1689105E0,1.1505369E0,8.912744E0,1.6597377E0,2.5469651E0,1.4692339E0,1.1093009E0,4.8429413E0,1.0359743E0],"tree_param":{"num_deleted":"0","num_feature":"9","num_nodes":"65","size_leaf_vector":"0"}},{"base_weights":[4.5232832E-1,7.138236E-1,-2.8549534E-1,4.4911382E-1,9.8065495E-1,-3.491008E-1,5.1437336E-1,5.712489E-1,8.994327E-2,1.082534E0,3.698355E-1,-8.423603E-3,-4.7009432E-1,8.691448E-2,6.6851854E-1,-3.1529152E-1,6.4027643E-1,-3.0811098E-1,5.2741694E-1,1.1161813E0,2.9073167E-1,6.5570486E-1,-3.950055E-1,-3.7139767E-1,4.3901578E-1,-5.301132E-1,2.3984551E-1,3.9976722E-1,-9.2862433E-1,1.8806265E-1,7.862934E-1,2.8223973E-3,-9.836547E-1,1.0138298E0,1.6372809E-1,6.222513E-1,-1.794106E-1,8.5622036E-1,-1.17049836E-1,-6.573696E-1,3.3888E-2,6.2119555E-1,-7.112031E-1,6.7504346E-1,-1.9226736E-1,7.254891E-2,-5.831004E-1,4.4440937E-1,-6.8958837E-1,1.16483E0,5.6153864E-1,-4.395451E-1,3.906651E-1,-5.4569453E-1,6.126385E-1,2.4494705E-1,9.510521E-1,-1.077246E0,-1.2781762E-1,9.299244E-1,3.415104E-2,-6.312207E-1,1.5893204E-2],"categories":[],"categories_nodes":[],"categories_segments":[],"categories_sizes":[],"default_left":[true,true,true,true,true,true,true,true,true,true,true,true,true,false,false,true,true,true,true,false,true,true,true,true,true,true,false,false,false,true,true,true,false,false,true,false,false,true,false,false,false,false,true,true,false,false,true,false,false,false,false,false,false,false,false,false,false,false,false,false,false,false,false],"id":4,"left_children":[1,3,5,7,9,11,13,15,17,19,21,23,25,-1,-1,27,29,31,33,-1,35,37,39,41,43,45,-1,-1,-1,47,49,51,-1,-1,53,-1,-1,55,-1,-1,-1,-1,57,59,-1,-1,61,-1,-1,-1,-1,-1,-1,-1,-1,-1,-1,-1,-1,-1,-1,-1,-1],"loss_changes":[2.940977E1,7.473995E0,2.2311554E0,2.4970303E0,3.0195732E0,1.560349E0,1.642605E-1,2.8433886E0,2.936278E0,9.1651535E-1,2.3087714E0,1.9437356E0,1.3196359E0,0E0,0E0,2.0326066E0,2.5182457E0,1.8871845E0,1.2416778E0,0E0,6.1834216E-1,1.2158813E0,3.7951434E-1,2.6662815E0,9.297739E-1,8.7628174E-1,0E0,0E0,0E0,2.819429E0,1.9158726E0,1.3968389E0,0E0,0E0,2.164106E0,0E0,0E0,1.0540438E-1,0E0,0E0,0E0,0E0,1.0110543E0,6.428158E-1,0E0,0E0,7.0515347E-1,0E0,0E0,0E0,0E0,0E0,0E0,0E0,0E0,0E0,0E0,0E0,0E0,0E0,0E0,0E0,0E0],"parents":[2147483647,0,0,1,1,2,2,3,3,4,4,5,5,6,6,7,7,8,8,9,9,10,10,11,11,12,12,15,15,16,16,17,17,18,18,20,20,21,21,22,22,23,23,24,24,25,25,29,29,30,30,31,31,34,34,37,37,42,42,43,43,46,46],"right_children":[2,4,6,8,10,12,14,16,18,20,22,24,26,-1,-1,28,30,32,34,-1,36,38,40,42,44,46,-1,-1,-1,48,50,52,-1,-1,54,-1,-1,56,-1,-1,-1,-1,58,60,-1,-1,62,-1,-1,-1,-1,-1,-1,-1,-1,-1,-1,-1,-1,-1,-1,-1,-1],"split_conditions":[7.0299995E-1,-1E-1,9.627134E0,7.1428575E-2,4.98E-1,7.76E-1,1.1082876E1,2.2E-1,5.8706417E0,1.125E0,5.485232E-1,1.25E-1,9.425E-1,2.6074344E-2,2.0055558E-1,5.3907394E0,-3.75E-1,5.454852E0,-3.797468E-2,3.348544E-1,-8.628692E-1,1.4285715E-1,5.523568E0,-9E-1,5.379747E-1,4.5845413E0,7.1953654E-2,1.1993017E-1,-2.785873E-1,6.46E-1,4.115E-1,4.945499E0,-2.9509643E-1,3.0414897E-1,4.451477E-1,1.8667538E-1,-5.3823184E-2,-6.25E-1,-3.511495E-2,-1.972109E-1,1.0166401E-2,1.8635868E-1,7.2E-1,9.95E1,-5.768021E-2,2.1764673E-2,3.7142856E0,1.3332282E-1,-2.0687652E-1,3.49449E-1,1.6846159E-1,-1.3186353E-1,1.1719954E-1,-1.6370836E-1,1.8379155E-1,7.3484115E-2,2.8531566E-1,-3.231738E-1,-3.8345285E-2,2.7897733E-1,1.0245312E-2,-1.8936622E-1,4.7679613E-3],"split_indices":[5,2,1,8,6,6,1,6,1,3,7,3,5,0,0,1,3,1,7,0,7,8,1,2,7,1,0,0,0,5,6,1,0,0,7,0,0,3,0,0,0,0,6,0,0,0,8,0,0,0,0,0,0,0,0,0,0,0,0,0,0,0,0],"split_type":[0,0,0,0,0,0,0,0,0,0,0,0,0,0,0,0,0,0,0,0,0,0,0,0,0,0,0,0,0,0,0,0,0,0,0,0,0,0,0,0,0,0,0,0,0,0,0,0,0,0,0,0,0,0,0,0,0,0,0,0,0,0,0],"sum_hessian":[1.5037537E2,1.11050125E2,3.9325233E1,5.7093597E1,5.395653E1,3.695049E1,2.3747454E0,4.2165016E1,1.4928578E1,4.558166E1,8.374868E0,9.964216E0,2.6986273E1,1.0438633E0,1.3308823E0,2.7881684E0,3.937685E1,7.9712753E0,6.9573035E0,4.3330673E1,2.2509892E0,6.2001667E0,2.1747022E0,5.5951986E0,4.369017E0,2.5116224E1,1.8700489E0,1.4480976E0,1.3400707E0,1.0169599E1,2.920725E1,6.1407065E0,1.8305688E0,2.21168E0,4.7456236E0,1.1303722E0,1.1206172E0,4.837035E0,1.3631316E0,1.0187801E0,1.155922E0,1.2157688E0,4.37943E0,3.129589E0,1.239428E0,1.9999642E0,2.311626E1,8.25275E0,1.9168483E0,9.322847E0,1.9884403E1,2.806429E0,3.3342776E0,1.7556052E0,2.9900181E0,1.130828E0,3.706207E0,2.1708171E0,2.2086127E0,1.9164422E0,1.2131469E0,2.13475E1,1.7687601E0],"tree_param":{"num_deleted":"0","num_feature":"9","num_nodes":"63","size_leaf_vector":"0"}},{"base_weights":[3.7988535E-1,5.847302E-1,-2.7319077E-1,3.3891356E-1,8.955546E-1,-9.2990115E-2,-5.16532E-1,3.730741E-1,-4.2880264E-1,1.0073256E0,3.1672806E-1,5.1791096E-1,-2.5020728E-1,-2.8148174E-1,-8.7583447E-1,9.7547546E-2,4.7964075E-1,1.0456672E0,2.5804716E-1,-5.356707E-1,6.361059E-1,1.0329647E0,-4.8931128E-1,-4.9149385E-1,3.6384243E-1,-8.0699825E-1,1.6642722E-1,-2.2905439E-1,-9.9517137E-1,3.3114582E-1,-1.7219958E-1,7.944071E-1,3.1940234E-1,3.809147E-1,1.0714906E0,6.056466E-1,-2.3469944E-1,9.638532E-1,-4.0411562E-1,-8.025876E-1,-5.749624E-2,-2.4004483E-1,9.812E-1,-9.132565E-1,-2.2939378E-1,-6.5959424E-1,4.640377E-1,5.2431893E-1,-3.03587E-1,3.9656186E-1,-5.362754E-1,-4.4198092E-2,9.073276E-1,6.108778E-1,1.14867866E-1,1.0970228E0,4.563574E-1,-2.6287165E-1,-9.6471715E-1,3.9829636E-1,-7.0790005E-1,4.6216184E-1,-7.86724E-1,7.747357E-1,-3.1417546E-1],"categories":[],"categories_nodes":[],"categories_segments":[],"categories_sizes":[],"default_left":[true,true,true,true,true,true,true,true,false,true,true,true,true,true,true,true,true,true,true,false,true,false,false,true,true,true,true,false,false,true,true,true,true,false,true,false,false,false,false,true,true,true,false,false,false,false,true,false,false,false,false,false,false,false,false,false,false,false,false,false,false,false,false,false,false],"id":5,"left_children":[1,3,5,7,9,11,13,15,-1,17,19,21,23,25,27,29,31,33,35,-1,37,-1,-1,39,41,43,45,-1,-1,47,49,51,53,-1,55,-1,-1,-1,-1,57,59,61,-1,-1,-1,-1,63,-1,-1,-1,-1,-1,-1,-1,-1,-1,-1,-1,-1,-1,-1,-1,-1,-1,-1],"loss_changes":[1.81839E1,7.5570755E0,1.3924935E0,1.7087564E0,2.5808525E0,2.0594716E0,9.153285E-1,1.629044E0,0E0,7.9629135E-1,2.7127924E0,2.808015E0,2.6465006E0,2.4387703E0,1.5543127E-1,1.139176E0,1.8092318E0,1.9226074E-1,6.789598E-1,0E0,2.7062838E0,0E0,0E0,1.625632E0,2.2013793E0,7.748461E-2,1.8092016E0,0E0,0E0,1.3295949E0,1.9992908E0,1.2830086E0,1.6453664E0,0E0,1.9481659E-2,0E0,0E0,0E0,0E0,3.7076044E-1,2.1338904E0,1.6952869E0,0E0,0E0,0E0,0E0,1.4721634E0,0E0,0E0,0E0,0E0,0E0,0E0,0E0,0E0,0E0,0E0,0E0,0E0,0E0,0E0,0E0,0E0,0E0,0E0],"parents":[2147483647,0,0,1,1,2,2,3,3,4,4,5,5,6,6,7,7,9,9,10,10,11,11,12,12,13,13,14,14,15,15,16,16,17,17,18,18,20,20,23,23,24,24,25,25,26,26,29,29,30,30,31,31,32,32,34,34,39,39,40,40,41,41,46,46],"right_children":[2,4,6,8,10,12,14,16,-1,18,20,22,24,26,28,30,32,34,36,-1,38,-1,-1,40,42,44,46,-1,-1,48,50,52,54,-1,56,-1,-1,-1,-1,58,60,62,-1,-1,-1,-1,64,-1,-1,-1,-1,-1,-1,-1,-1,-1,-1,-1,-1,-1,-1,-1,-1,-1,-1],"split_conditions":[7.315E-1,-1E-1,9.95E1,1.0071428E1,4.98E-1,8.225E-1,3E-1,-7.0000005E-1,-1.286408E-1,1.125E0,4.9290276E0,3.7341774E-1,4.8945147E-1,-3E-1,8.02E-1,-9E-1,-1.6666667E-1,-1.375E0,-5.886076E-1,-1.6070122E-1,1.4285715E-1,3.0988944E-1,-1.467934E-1,9.045E-1,5E-1,3.164557E-2,-7.679325E-1,-6.871632E-2,-2.985514E-1,2.5E-1,4.525E-1,1.8776372E-1,4.425E-1,1.1427441E-1,1.1603376E0,1.8169399E-1,-7.0409834E-2,2.8915596E-1,-1.2123469E-1,8.605E-1,8.582819E0,5.926044E0,2.9436E-1,-2.7397698E-1,-6.881814E-2,-1.9787829E-1,1.2025317E-1,1.5729569E-1,-9.10761E-2,1.1896856E-1,-1.6088262E-1,-1.3259429E-2,2.721983E-1,1.8326335E-1,3.4460362E-2,3.2910684E-1,1.3690722E-1,-7.88615E-2,-2.8941515E-1,1.1948891E-1,-2.1237002E-1,1.3864855E-1,-2.360172E-1,2.3242071E-1,-9.425264E-2],"split_indices":[6,2,0,8,6,5,2,2,0,3,1,7,7,2,5,2,4,3,7,0,8,0,0,5,2,7,7,0,0,3,6,7,6,0,7,0,0,0,0,6,1,1,0,0,0,0,7,0,0,0,0,0,0,0,0,0,0,0,0,0,0,0,0,0,0],"split_type":[0,0,0,0,0,0,0,0,0,0,0,0,0,0,0,0,0,0,0,0,0,0,0,0,0,0,0,0,0,0,0,0,0,0,0,0,0,0,0,0,0,0,0,0,0,0,0,0,0,0,0,0,0,0,0,0,0,0,0,0,0,0,0,0,0],"sum_hessian":[1.3373055E2,1.0187952E2,3.1851032E1,5.805605E1,4.382347E1,1.9093744E1,1.2757287E1,5.6074966E1,1.9810833E0,3.6110302E1,7.7131686E0,3.438495E0,1.565525E1,8.79025E0,3.967038E0,1.6173632E1,3.9901337E1,3.397614E1,2.1341646E0,1.9177053E0,5.795463E0,2.2581885E0,1.1803064E0,1.13822565E1,4.2729926E0,3.6758256E0,5.114424E0,1.0726893E0,2.8943486E0,8.545608E0,7.6280246E0,1.2125263E1,2.7776072E1,1.8594931E0,3.2116646E1,1.1170427E0,1.017122E0,4.462773E0,1.3326904E0,6.135197E0,5.24706E0,2.4690192E0,1.8039733E0,2.6138597E0,1.061966E0,1.0324755E0,4.0819488E0,6.685048E0,1.8605589E0,2.9423065E0,4.6857176E0,1.5111657E0,1.0614098E1,1.0634506E1,1.7141565E1,3.0084549E1,2.032096E0,2.022807E0,4.11239E0,3.3129878E0,1.934072E0,1.1484466E0,1.3205727E0,2.9204435E0,1.161505E0],"tree_param":{"num_deleted":"0","num_feature":"9","num_nodes":"65","size_leaf_vector":"0"}},{"base_weights":[3.1056324E-1,5.245782E-1,-1.5838234E-1,2.5553045E-1,8.6963785E-1,-2.3597346E-3,-5.537245E-1,1.9675387E-1,8.949708E-1,9.709582E-1,3.8967884E-1,-7.843997E-1,8.119678E-2,-6.9268906E-1,1.417939E-1,-1.6227262E-1,3.0980495E-1,3.0054367E-1,9.981777E-1,7.3386717E-1,-2.3894785E-1,3.98689E-1,-1.6410239E-1,-8.852034E-1,-2.6026543E-2,3.6505523E-1,-6.4362484E-1,8.044219E-1,1.4013675E-1,3.8091767E-1,1.0288966E0,1.1613275E-1,8.6184406E-1,-5.595829E-1,2.595807E-1,7.005479E-1,-4.2290348E-1,-3.2491434E-1,5.5737066E-1,5.6960076E-1,-6.241176E-1,7.572234E-1,-3.0776465E-1,8.089826E-2,-1.0463388E0,9.660805E-3,1.0358487E0,4.598419E-1,-7.208805E-2,3.0365217E-1,1.0335824E0,-5.4733723E-1,-1.2511674E-1,1.4041549E-1,-6.377692E-1,-9.3636516E-4,8.092825E-1],"categories":[],"categories_nodes":[],"categories_segments":[],"categories_sizes":[],"default_left":[true,true,true,true,true,true,true,true,false,true,true,false,true,true,false,true,true,false,true,true,true,true,true,false,true,true,true,true,true,false,false,false,false,false,false,true,true,true,true,false,false,false,false,false,false,false,false,false,false,false,false,false,false,false,false,false,false],"id":6,"left_children":[1,3,5,7,9,11,13,15,-1,17,19,-1,21,23,-1,25,27,-1,29,31,33,35,37,-1,39,41,43,45,47,-1,-1,-1,-1,-1,-1,49,51,53,55,-1,-1,-1,-1,-1,-1,-1,-1,-1,-1,-1,-1,-1,-1,-1,-1,-1,-1],"loss_changes":[1.2195822E1,7.4928474E0,2.3789113E0,1.632107E0,1.3719273E0,1.937319E0,1.1532056E0,1.890646E0,0E0,2.3008728E-1,1.8941762E0,0E0,2.1535158E0,1.1663699E0,0E0,3.1577306E0,2.8100438E0,0E0,1.2921524E-1,3.251536E-1,7.151115E-1,3.2667842E0,2.0181558E0,0E0,1.4622778E0,1.851291E0,1.946661E0,1.5873365E0,1.874798E0,0E0,0E0,0E0,0E0,0E0,0E0,8.9372444E-1,7.387698E-2,2.0664697E0,4.5844877E-1,0E0,0E0,0E0,0E0,0E0,0E0,0E0,0E0,0E0,0E0,0E0,0E0,0E0,0E0,0E0,0E0,0E0,0E0],"parents":[2147483647,0,0,1,1,2,2,3,3,4,4,5,5,6,6,7,7,9,9,10,10,12,12,13,13,15,15,16,16,18,18,19,19,20,20,21,21,22,22,24,24,25,25,26,26,27,27,28,28,35,35,36,36,37,37,38,38],"right_children":[2,4,6,8,10,12,14,16,-1,18,20,-1,22,24,-1,26,28,-1,30,32,34,36,38,-1,40,42,44,46,48,-1,-1,-1,-1,-1,-1,50,52,54,56,-1,-1,-1,-1,-1,-1,-1,-1,-1,-1,-1,-1,-1,-1,-1,-1,-1,-1],"split_conditions":[6.505E-1,-1E-1,5E-1,9.3670887E-1,6.1814344E-1,-1.1E0,9.5350003E-1,3.1550002E-1,2.6849124E-1,-1.5991561E0,4.1750002E-1,-2.3531991E-1,1.7510548E-1,1.1666667E0,4.2538173E-2,2.1097047E-2,4.115E-1,9.0163104E-2,-1.375E0,1.34E-1,5.0699997E-1,1E-1,9E-1,-2.6556104E-1,9.26E-1,3.75E-1,5.374395E0,-3.75E-1,9.85E1,1.1427531E-1,3.0866897E-1,3.4839828E-2,2.5855324E-1,-1.6787487E-1,7.787421E-2,3.164557E-2,1.25E-1,7.315E-1,7.1278324E0,1.7088023E-1,-1.872353E-1,2.2716704E-1,-9.23294E-2,2.426948E-2,-3.1390166E-1,2.8982414E-3,3.1075463E-1,1.3795258E-1,-2.1626415E-2,9.1095656E-2,3.1007475E-1,-1.6420117E-1,-3.7535023E-2,4.2124648E-2,-1.9133078E-1,-2.8090956E-4,2.4278475E-1],"split_indices":[6,2,4,7,7,2,6,6,0,7,6,0,7,4,0,7,6,0,3,6,6,2,2,0,6,3,1,3,0,0,0,0,0,0,0,7,3,6,1,0,0,0,0,0,0,0,0,0,0,0,0,0,0,0,0,0,0],"split_type":[0,0,0,0,0,0,0,0,0,0,0,0,0,0,0,0,0,0,0,0,0,0,0,0,0,0,0,0,0,0,0,0,0,0,0,0,0,0,0,0,0,0,0,0,0,0,0,0,0,0,0,0,0,0,0,0,0],"sum_hessian":[1.1969123E2,8.21029E1,3.7588333E1,4.7110634E1,3.4992268E1,2.7673067E1,9.915264E0,4.4342426E1,2.7682056E0,2.8048225E1,6.9440417E0,1.8616319E0,2.5811436E1,8.2674885E0,1.6477753E0,1.0514664E1,3.3827763E1,1.5641747E0,2.648405E1,4.379013E0,2.5650287E0,1.0977662E1,1.4833774E1,6.1606455E0,2.1068432E0,5.1329985E0,5.3816648E0,7.684564E0,2.61432E1,1.8907998E0,2.4593252E1,1.0788655E0,3.3001473E0,1.486499E0,1.0785298E0,8.13583E0,2.8418324E0,1.2579525E1,2.2542481E0,1.0794628E0,1.0273805E0,3.163585E0,1.9694138E0,2.2081313E0,3.1735337E0,1.9679655E0,5.7165985E0,9.96488E0,1.617832E1,4.5842724E0,3.5515575E0,1.413265E0,1.4285674E0,5.2789593E0,7.3005657E0,1.0106494E0,1.2435987E0],"tree_param":{"num_deleted":"0","num_feature":"9","num_nodes":"57","size_leaf_vector":"0"}},{"base_weights":[2.5965363E-1,4.3423334E-1,-1.5926242E-1,2.3323518E-1,7.370051E-1,9.590958E-3,-4.1108605E-1,1.3089816E-1,5.693248E-1,7.997561E-1,-5.2763695E-1,2.8607553E-1,-1.709526E-1,-2.1634991E-1,-7.814527E-1,3.8228536E-1,-3.379093E-1,7.894406E-1,-3.1287784E-3,9.1095793E-1,3.3666444E-1,-1.06105044E-1,7.702974E-1,-5.2461344E-1,1.6766056E-1,-4.2141983E-1,3.888005E-1,5.6956863E-1,-2.5973645E-1,-1.3305137E0,-1.1314996E-1,-9.734619E-2,9.658613E-1,-4.297725E-1,4.0427655E-1,2.5811526E-1,9.428293E-1,6.636131E-1,-1.904456E-1,-5.082814E-1,2.714917E-1,2.0543545E-1,9.191404E-1,-6.9742787E-1,1.9670156E-1,-2.4367031E-1,5.376621E-1,-9.534537E-3,-7.431722E-1,-2.8070325E-2,6.2223756E-1,2.2329503E-1,7.827977E-1,-6.724184E-1,7.742016E-2,2.0101187E-1,-6.371823E-1,3.2850483E-1,9.792717E-1,9.960725E-2,7.976809E-1,1.7843598E-1,-5.63931E-1,4.5693424E-1,-9.915983E-2,-1.9349594E-1,-8.80573E-1,3.6726633E-1,-8.1493247E-1,6.928323E-3,7.414103E-1,-4.3381375E-1,3.5381958E-1,-1.9267318E-1,-8.5071373E-1],"categories":[],"categories_nodes":[],"categories_segments":[],"categories_sizes":[],"default_left":[true,true,true,true,true,true,true,true,true,true,false,true,true,true,false,true,true,true,true,true,true,true,true,true,true,true,true,true,true,false,true,false,false,false,false,false,true,true,true,false,true,false,false,true,false,true,true,true,true,false,false,false,false,false,false,false,false,false,false,false,false,false,false,false,false,false,false,false,false,false,false,false,false,false,false],"id":7,"left_children":[1,3,5,7,9,11,13,15,17,19,-1,21,23,25,-1,27,29,31,33,35,37,39,41,43,45,47,49,51,53,-1,55,-1,-1,-1,-1,-1,57,59,61,-1,63,-1,-1,65,-1,67,69,71,73,-1,-1,-1,-1,-1,-1,-1,-1,-1,-1,-1,-1,-1,-1,-1,-1,-1,-1,-1,-1,-1,-1,-1,-1,-1,-1],"loss_changes":[8.1017685E0,4.56238E0,1.4088377E0,1.58391E0,2.8484077E0,1.08496E0,7.8905916E-1,4.638398E0,1.3830488E0,1.2139034E0,0E0,1.7098043E0,1.6665728E0,1.4159309E0,0E0,3.1990798E0,2.9474263E0,1.3327007E0,8.757804E-1,2.3986435E-1,1.3851027E0,9.907998E-1,1.4390421E-1,9.7111666E-1,1.2712647E0,1.0551885E0,3.165884E-1,1.298821E0,9.44963E-1,0E0,2.1720364E0,0E0,0E0,0E0,0E0,0E0,1.655941E-1,2.7826166E-1,5.928887E-1,0E0,2.8919348E-1,0E0,0E0,3.4801698E-1,0E0,1.7777015E0,4.5510006E-1,8.516106E-1,1.0174012E-1,0E0,0E0,0E0,0E0,0E0,0E0,0E0,0E0,0E0,0E0,0E0,0E0,0E0,0E0,0E0,0E0,0E0,0E0,0E0,0E0,0E0,0E0,0E0,0E0,0E0,0E0],"parents":[2147483647,0,0,1,1,2,2,3,3,4,4,5,5,6,6,7,7,8,8,9,9,11,11,12,12,13,13,15,15,16,16,17,17,18,18,19,19,20,20,21,21,22,22,23,23,24,24,25,25,26,26,27,27,28,28,30,30,36,36,37,37,38,38,40,40,43,43,45,45,46,46,47,47,48,48],"right_children":[2,4,6,8,10,12,14,16,18,20,-1,22,24,26,-1,28,30,32,34,36,38,40,42,44,46,48,50,52,54,-1,56,-1,-1,-1,-1,-1,58,60,62,-1,64,-1,-1,66,-1,68,70,72,74,-1,-1,-1,-1,-1,-1,-1,-1,-1,-1,-1,-1,-1,-1,-1,-1,-1,-1,-1,-1,-1,-1,-1,-1,-1,-1],"split_conditions":[7.1E-1,-1E-1,9.95E1,6.524334E0,6.6499996E-1,8.255E-1,1.6244726E-1,5.6804094E0,7.2488213E0,6.1814344E-1,-1.5829109E-1,-1.6666667E-1,9.045E-1,5.696203E-2,-2.3443583E-1,7.1428573E-1,5.754552E0,4.365E-1,7.5593796E0,-1.5991561E0,4.1750002E-1,7.135E-1,-1.25E-1,8E-1,-5.485232E-2,4.9788814E0,5.501987E0,-5E-1,4.071429E0,-3.9915413E-1,5.18E-1,-2.9203856E-2,2.897584E-1,-1.2893176E-1,1.2128297E-1,7.7434584E-2,-1.375E0,1.34E-1,-1.6666667E-1,-1.5248443E-1,6.1496763E0,6.163064E-2,2.7574214E-1,5.4996796E0,5.901047E-2,-1.3607595E0,6.6642733E0,-7.3628694E-1,-7.4261606E-1,-8.421098E-3,1.8667127E-1,6.698851E-2,2.3483932E-1,-2.0172553E-1,2.3226049E-2,6.030356E-2,-1.911547E-1,9.855145E-2,2.9378152E-1,2.9882176E-2,2.3930429E-1,5.3530797E-2,-1.691793E-1,1.3708028E-1,-2.974795E-2,-5.8048785E-2,-2.641719E-1,1.101799E-1,-2.4447975E-1,2.0784969E-3,2.224231E-1,-1.3014413E-1,1.0614588E-1,-5.7801954E-2,-2.5521412E-1],"split_indices":[5,2,0,1,6,6,7,1,1,7,0,4,5,7,0,8,1,5,1,7,6,6,3,2,7,1,1,2,8,0,6,0,0,0,0,0,3,6,4,0,1,0,0,1,0,7,1,7,7,0,0,0,0,0,0,0,0,0,0,0,0,0,0,0,0,0,0,0,0,0,0,0,0,0,0],"split_type":[0,0,0,0,0,0,0,0,0,0,0,0,0,0,0,0,0,0,0,0,0,0,0,0,0,0,0,0,0,0,0,0,0,0,0,0,0,0,0,0,0,0,0,0,0,0,0,0,0,0,0,0,0,0,0,0,0,0,0,0,0,0,0,0,0,0,0,0,0,0,0,0,0,0,0],"sum_hessian":[1.088338E2,7.679399E1,3.203981E1,4.7218105E1,2.957589E1,1.9755333E1,1.2284477E1,3.7261654E1,9.9564495E0,2.8527948E1,1.0479407E0,7.5732017E0,1.2182132E1,9.089457E0,3.1950207E0,2.4375444E1,1.2886211E1,6.917525E0,3.0389247E0,2.2224155E1,6.303793E0,4.6157184E0,2.9574835E0,5.689987E0,6.4921446E0,7.015646E0,2.0738106E0,1.8958065E1,5.4173794E0,1.4708359E0,1.1415376E1,1.2222162E0,5.695308E0,1.4575964E0,1.5813283E0,1.4579813E0,2.0766174E1,3.730762E0,2.5730312E0,2.067519E0,2.5481994E0,1.1131759E0,1.8443077E0,4.61696E0,1.073027E0,3.236055E0,3.2560894E0,3.5284283E0,3.4872177E0,1.0602224E0,1.0135882E0,8.005205E0,1.0952859E1,1.9887526E0,3.4286268E0,7.5221786E0,3.8931968E0,1.7236841E0,1.904249E1,1.0512503E0,2.6795115E0,1.5572338E0,1.0157975E0,1.5432844E0,1.004915E0,1.7788612E0,2.8380988E0,1.736283E0,1.499772E0,1.190089E0,2.0660005E0,1.538291E0,1.9901373E0,1.0261301E0,2.4610877E0],"tree_param":{"num_deleted":"0","num_feature":"9","num_nodes":"75","size_leaf_vector":"0"}},{"base_weights":[2.0875424E-1,5.492937E-1,3.7807953E-2,2.3596713E-1,8.751043E-1,-3.8545954E-1,1.1439109E-1,-6.0619935E-2,6.76204E-1,7.016935E-2,9.267938E-1,3.6230654E-1,-6.1693585E-1,6.178083E-1,2.4927067E-2,3.4122398E-1,-5.673129E-1,-3.6477842E-3,9.3376666E-1,9.8294294E-1,1.7226593E-1,6.537929E-1,-8.561686E-2,-1.7542009E-1,-9.698391E-1,7.446023E-1,-1.6348267E-1,1.6169123E-1,-3.153993E-1,1.2990296E-2,6.664648E-1,2.4205983E-1,-8.703856E-1,3.1054485E-1,-3.1225872E-1,3.3983493E-1,-7.223502E-1,-1.1952255E0,-2.613358E-1,2.701754E-1,8.283719E-1,-6.790435E-1,2.164768E-1,-6.355872E-1,-4.445149E-2,-3.660152E-1,6.815153E-1,-1.2020346E-1,6.4940804E-1,4.8962793E-1,7.897697E-2,1.7805322E-1,-8.114818E-1,-6.0754555E-1,1.4205873E-1],"categories":[],"categories_nodes":[],"categories_segments":[],"categories_sizes":[],"default_left":[true,true,true,true,true,true,true,true,true,false,true,true,true,true,true,true,true,true,false,false,false,false,false,true,true,true,false,true,true,true,false,false,false,false,false,true,false,false,false,false,false,false,true,true,true,false,false,false,false,false,false,false,false,false,false],"id":8,"left_children":[1,3,5,7,9,11,13,15,17,-1,19,21,23,25,27,29,31,33,-1,-1,-1,-1,-1,35,37,39,-1,41,43,45,-1,-1,-1,-1,-1,47,-1,-1,-1,-1,-1,-1,49,51,53,-1,-1,-1,-1,-1,-1,-1,-1,-1,-1],"loss_changes":[5.826058E0,3.2127008E0,2.2464836E0,2.4490805E0,6.027756E-1,2.064952E0,2.6105092E0,2.6241102E0,1.3177409E0,0E0,4.661665E-1,4.665709E-1,1.1533062E0,9.891212E-1,2.403759E0,7.687074E-1,1.59793E0,3.9352748E-1,0E0,0E0,0E0,0E0,0E0,1.652829E0,4.062028E-1,8.27446E-2,0E0,1.8382951E0,1.2582558E0,1.426139E0,0E0,0E0,0E0,0E0,0E0,5.411278E-1,0E0,0E0,0E0,0E0,0E0,0E0,1.2845533E0,1.1064844E0,1.0428019E0,0E0,0E0,0E0,0E0,0E0,0E0,0E0,0E0,0E0,0E0],"parents":[2147483647,0,0,1,1,2,2,3,3,4,4,5,5,6,6,7,7,8,8,10,10,11,11,12,12,13,13,14,14,15,15,16,16,17,17,23,23,24,24,25,25,27,27,28,28,29,29,35,35,42,42,43,43,44,44],"right_children":[2,4,6,8,10,12,14,16,18,-1,20,22,24,26,28,30,32,34,-1,-1,-1,-1,-1,36,38,40,-1,42,44,46,-1,-1,-1,-1,-1,48,-1,-1,-1,-1,-1,-1,50,52,54,-1,-1,-1,-1,-1,-1,-1,-1,-1,-1],"split_conditions":[4.115E-1,-1E-1,4.924443E0,3.1550002E-1,-1.375E0,5.5050004E-1,5.259259E0,3.0714285E0,-3.75E-1,2.1050807E-2,1.1603376E0,1.6033755E-1,4.529221E0,3E-1,8.255E-1,2.2E-1,1.19500004E-1,3.6E-1,2.8013E-1,2.948829E-1,5.1679783E-2,1.9613789E-1,-2.5685059E-2,-1E-1,1E-1,-4.620253E-1,-4.9044803E-2,4.185E-1,9.045E-1,7.1428575E-2,1.9993944E-1,7.261795E-2,-2.611157E-1,9.316346E-2,-9.367762E-2,-3E-1,-2.1670507E-1,-3.5856766E-1,-7.840074E-2,8.105262E-2,2.4851157E-1,-2.0371304E-1,-1.6666667E-1,8.225E-1,5.5696707E0,-1.0980456E-1,2.0445459E-1,-3.6061037E-2,1.9482242E-1,1.4688839E-1,2.369309E-2,5.3415965E-2,-2.4344455E-1,-1.8226367E-1,4.261762E-2],"split_indices":[6,2,1,6,3,5,1,8,3,0,7,7,1,2,6,6,6,6,0,0,0,0,0,2,2,7,0,6,5,8,0,0,0,0,0,2,0,0,0,0,0,0,4,5,1,0,0,0,0,0,0,0,0,0,0],"split_type":[0,0,0,0,0,0,0,0,0,0,0,0,0,0,0,0,0,0,0,0,0,0,0,0,0,0,0,0,0,0,0,0,0,0,0,0,0,0,0,0,0,0,0,0,0,0,0,0,0,0,0,0,0,0,0],"sum_hessian":[9.943682E1,3.2493587E1,6.694323E1,1.74431E1,1.5050488E1,9.638572E0,5.7304657E1,1.0937094E1,6.506006E0,1.0504154E0,1.4000073E1,2.1447916E0,7.4937806E0,7.755957E0,4.9548702E1,6.2817674E0,4.6553264E0,2.0584483E0,4.4475574E0,1.2748642E1,1.251431E0,1.0208585E0,1.123933E0,3.9939916E0,3.499789E0,6.713411E0,1.0425464E0,3.5719353E1,1.38293495E1,3.6440873E0,2.63768E0,1.3231347E0,3.332192E0,1.0168948E0,1.0415534E0,2.2515185E0,1.7424732E0,2.1339672E0,1.365822E0,1.6415802E0,5.0718307E0,1.4881259E0,3.4231228E1,5.721854E0,8.107495E0,2.6144092E0,1.0296782E0,1.1517229E0,1.0997955E0,1.0604285E1,2.3626942E1,1.0149051E0,4.706949E0,1.4555618E0,6.6519337E0],"tree_param":{"num_deleted":"0","num_feature":"9","num_nodes":"55","size_leaf_vector":"0"}},{"base_weights":[1.6707505E-1,4.872601E-1,2.1489903E-2,2.9207794E-2,6.780419E-1,-3.1542504E-1,8.1722274E-2,-5.7192206E-1,2.3698635E-1,3.8609284E-1,8.195572E-1,3.2290527E-1,-5.153184E-1,1.4515626E-1,-4.0961275E-1,-4.005575E-2,5.986134E-1,-1.0146763E-1,6.227516E-1,6.00179E-2,8.80021E-1,9.068261E-2,-6.935319E-1,3.6270434E-1,-8.648471E-2,2.857037E-1,-6.230298E-1,-2.7370772E-1,3.6485666E-1,7.08549E-1,1.6910098E-1,3.6016482E-1,-5.466275E-1,8.9150554E-1,2.419634E-2,9.4794774E-1,1.4748886E-1,3.949558E-2,-9.2119837E-1,-7.4142635E-2,5.4803276E-1,-5.0549835E-1,3.273249E-1,1.6732514E-1,-1.0320367E0,-5.145667E-1,2.0867774E-1,-3.4752074E-1,-1.129844E0,-5.3744966E-1,6.452356E-1,6.8801624E-1,-2.1411513E-1,1.21940866E-1,-6.7878103E-1,8.017456E-1,1.16695E-1],"categories":[],"categories_nodes":[],"categories_segments":[],"categories_sizes":[],"default_left":[true,true,true,true,true,true,true,false,true,true,true,false,true,true,true,true,true,true,true,false,true,false,true,true,true,false,true,true,false,false,false,false,false,false,false,false,false,false,true,true,true,true,true,false,false,false,false,false,false,false,false,false,false,false,false,false,false],"id":9,"left_children":[1,3,5,7,9,11,13,-1,15,17,19,-1,21,23,25,27,29,31,33,-1,35,-1,37,39,41,-1,43,45,-1,-1,-1,-1,-1,-1,-1,-1,-1,-1,47,49,51,53,55,-1,-1,-1,-1,-1,-1,-1,-1,-1,-1,-1,-1,-1,-1],"loss_changes":[4.3638773E0,2.539424E0,1.3561127E0,1.3416089E0,5.358944E-1,1.46128E0,1.8175342E0,0E0,8.137305E-1,1.0584786E0,5.443802E-1,0E0,9.391079E-1,2.586103E0,1.173934E0,6.108184E-1,4.4606447E-2,9.5283073E-1,9.351156E-1,0E0,4.558878E-1,0E0,1.1019795E0,2.1727908E0,4.562728E0,0E0,1.934351E0,5.7165617E-1,0E0,0E0,0E0,0E0,0E0,0E0,0E0,0E0,0E0,0E0,1.9543362E-1,3.2549462E0,2.1328173E0,1.495528E0,1.2421011E0,0E0,0E0,0E0,0E0,0E0,0E0,0E0,0E0,0E0,0E0,0E0,0E0,0E0,0E0],"parents":[2147483647,0,0,1,1,2,2,3,3,4,4,5,5,6,6,8,8,9,9,10,10,12,12,13,13,14,14,15,15,16,16,17,17,18,18,20,20,22,22,23,23,24,24,26,26,27,27,38,38,39,39,40,40,41,41,42,42],"right_children":[2,4,6,8,10,12,14,-1,16,18,20,-1,22,24,26,28,30,32,34,-1,36,-1,38,40,42,-1,44,46,-1,-1,-1,-1,-1,-1,-1,-1,-1,-1,48,50,52,54,56,-1,-1,-1,-1,-1,-1,-1,-1,-1,-1,-1,-1,-1,-1],"split_conditions":[4.115E-1,-5E-1,4.924443E0,9.75E1,-1E-1,5.5050004E-1,8.333334E-1,-1.7157662E-1,-7.0000005E-1,2.795E-1,-1.375E0,9.6871585E-2,-5.864979E-1,5.960537E0,-3.75E-1,5.357143E0,3.2857141E0,2.015E-1,2.8902954E-1,1.8005371E-2,1.1603376E0,2.7204784E-2,-2.5E-1,-2.236287E-1,6.787341E0,8.571111E-2,-1.628692E0,4.7468355E-1,1.09457E-1,2.1256472E-1,5.07303E-2,1.0804945E-1,-1.6398826E-1,2.6745167E-1,7.2589023E-3,2.8438434E-1,4.424666E-2,1.1848674E-2,-1.6666667E-1,-3E-1,8.655E-1,5.085E-1,7.1451254E0,5.0197545E-2,-3.0961102E-1,-1.5437002E-1,6.2603325E-2,-1.0425623E-1,-3.389532E-1,-1.612349E-1,1.9357069E-1,2.0640488E-1,-6.423454E-2,3.658226E-2,-2.0363432E-1,2.4052368E-1,3.50085E-2],"split_indices":[6,2,1,0,2,5,4,0,2,6,3,0,7,1,3,8,8,6,7,0,7,0,3,7,1,0,7,7,0,0,0,0,0,0,0,0,0,0,4,2,6,6,1,0,0,0,0,0,0,0,0,0,0,0,0,0,0],"split_type":[0,0,0,0,0,0,0,0,0,0,0,0,0,0,0,0,0,0,0,0,0,0,0,0,0,0,0,0,0,0,0,0,0,0,0,0,0,0,0,0,0,0,0,0,0,0,0,0,0,0,0,0,0,0,0,0,0],"sum_hessian":[9.284157E1,2.8285793E1,6.455577E1,8.656147E0,1.9629646E1,9.1481285E0,5.5407646E1,1.7732764E0,6.88287E0,7.625781E0,1.2003864E1,2.0348244E0,7.1133037E0,4.969617E1,5.7114754E0,4.4007187E0,2.4821515E0,2.6786072E0,4.947174E0,1.0320454E0,1.0971819E1,1.7281208E0,5.385183E0,2.5335894E1,2.4360277E1,1.2617999E0,4.449675E0,2.9959552E0,1.4047635E0,1.4590439E0,1.0231078E0,1.4087057E0,1.2699014E0,3.0764189E0,1.870755E0,9.771637E0,1.2001821E0,1.4720573E0,3.9131255E0,7.7255497E0,1.7610344E1,1.1993935E1,1.2366342E1,1.7189386E0,2.7307367E0,1.9537294E0,1.0422258E0,1.7545469E0,2.1585786E0,4.8529572E0,2.8725924E0,1.4959925E1,2.6504185E0,2.6597033E0,9.334231E0,2.939353E0,9.426989E0],"tree_param":{"num_deleted":"0","num_feature":"9","num_nodes":"57","size_leaf_vector":"0"}},{"base_weights":[1.3518386E-1,4.2362362E-1,1.3785008E-2,1.7983373E-1,7.620052E-1,3.9414357E-2,-6.530319E-1,-4.0477168E-2,5.555982E-1,5.1333897E-2,8.3141303E-1,1.5459949E-1,-9.986576E-2,2.9941565E-1,-4.6383968E-1,-1.4227167E-2,8.35339E-1,1.06666096E-1,9.1506726E-1,2.5839525E-1,-2.3521082E-1,-2.7879393E-1,2.0473695E-1,7.6515687E-1,4.8819218E-2,1.7196624E-1,-6.920679E-1,1.17937796E-1,6.896704E-1,-1.4030625E0,2.8885868E-1,-9.2067784E-1,-1.7259564E-1,-5.3085707E-2,5.379323E-1,-3.261002E-1,4.9504992E-1,-8.480703E-1,-2.8641155E-1,3.243261E-1,-5.772232E-1,2.2641897E-1,8.8394403E-1,5.7808405E-1,-1.0198655E-1,7.346942E-2,-4.9900144E-1,4.7894254E-1,-4.2196062E-1,8.7494904E-1,2.0676764E-2],"categories":[],"categories_nodes":[],"categories_segments":[],"categories_sizes":[],"default_left":[true,true,true,true,true,true,false,true,true,false,true,true,true,true,true,false,false,false,false,true,true,true,true,false,true,false,true,true,true,false,true,false,true,true,true,false,false,false,false,false,false,false,false,false,false,false,false,false,false,false,false],"id":10,"left_children":[1,3,5,7,9,11,-1,13,15,-1,17,19,21,23,25,-1,-1,-1,-1,27,29,31,33,-1,35,-1,37,39,41,-1,43,-1,45,47,49,-1,-1,-1,-1,-1,-1,-1,-1,-1,-1,-1,-1,-1,-1,-1,-1],"loss_changes":[3.1017447E0,2.028781E0,1.1108345E0,1.3941461E0,4.84385E-1,1.0114806E0,0E0,1.7760203E0,9.98881E-1,0E0,4.8859262E-1,1.451602E0,1.6218867E0,7.7010876E-1,9.1112304E-1,0E0,0E0,0E0,0E0,1.5919417E0,5.1496773E0,1.1028701E0,9.907768E-1,0E0,1.0926744E0,0E0,2.3897886E-2,3.3497965E0,3.9202762E-1,0E0,7.575566E-1,0E0,1.4111338E0,1.6199912E0,8.493552E-1,0E0,0E0,0E0,0E0,0E0,0E0,0E0,0E0,0E0,0E0,0E0,0E0,0E0,0E0,0E0,0E0],"parents":[2147483647,0,0,1,1,2,2,3,3,4,4,5,5,7,7,8,8,10,10,11,11,12,12,13,13,14,14,19,19,20,20,21,21,22,22,24,24,26,26,27,27,28,28,30,30,32,32,33,33,34,34],"right_children":[2,4,6,8,10,12,-1,14,16,-1,18,20,22,24,26,-1,-1,-1,-1,28,30,32,34,-1,36,-1,38,40,42,-1,44,-1,46,48,50,-1,-1,-1,-1,-1,-1,-1,-1,-1,-1,-1,-1,-1,-1,-1,-1],"split_conditions":[4.115E-1,-1E-1,1.125E0,3.1550002E-1,-1.375E0,7.1E-1,-1.9590957E-1,3.0714285E0,-3.75E-1,1.5400169E-2,6.1499998E-2,7.1428575E-2,1.25E-1,5.2777843E0,1.19500004E-1,-4.2681503E-3,2.506017E-1,3.199983E-2,2.745202E-1,6.524334E0,3.0714285E0,6.255E-1,6.6212835E0,2.2954707E-1,2.2E-1,5.1589873E-2,2.795E-1,5.971324E0,4.925E-1,-4.2091876E-1,6.54E-1,-2.7620336E-1,1.6666667E-1,7.905E-1,8.582819E0,-9.7830065E-2,1.4851499E-1,-2.5442111E-1,-8.592347E-2,9.729783E-2,-1.7316696E-1,6.792569E-2,2.651832E-1,1.7342523E-1,-3.0595966E-2,2.2040827E-2,-1.4970043E-1,1.4368276E-1,-1.265882E-1,2.6248473E-1,6.2030293E-3],"split_indices":[6,2,3,6,3,5,0,8,3,0,6,8,3,1,6,0,0,0,0,1,8,6,1,0,6,0,6,1,6,0,6,0,4,5,1,0,0,0,0,0,0,0,0,0,0,0,0,0,0,0,0],"split_type":[0,0,0,0,0,0,0,0,0,0,0,0,0,0,0,0,0,0,0,0,0,0,0,0,0,0,0,0,0,0,0,0,0,0,0,0,0,0,0,0,0,0,0,0,0,0,0,0,0,0,0],"sum_hessian":[8.77469E1,2.5254208E1,6.24927E1,1.5568908E1,9.6853E0,6.108574E1,1.4069608E0,1.0377093E1,5.1918144E0,1.0165346E0,8.668765E0,3.3374733E1,2.7711006E1,5.9183593E0,4.4587336E0,2.022063E0,3.1697514E0,1.1324816E0,7.5362835E0,2.662291E1,6.751824E0,1.7510063E1,1.0200942E1,1.3520986E0,4.566261E0,1.2428571E0,3.2158766E0,2.1043074E1,5.5798345E0,1.5718417E0,5.179982E0,1.3969843E0,1.611308E1,6.2248797E0,3.9760628E0,2.6277E0,1.9385606E0,1.5349656E0,1.680911E0,1.6637093E1,4.405981E0,2.2884412E0,3.2913935E0,2.7016792E0,2.4783032E0,9.629029E0,6.484049E0,2.426603E0,3.7982767E0,1.9887648E0,1.9872979E0],"tree_param":{"num_deleted":"0","num_feature":"9","num_nodes":"51","size_leaf_vector":"0"}},{"base_weights":[1.08752735E-1,3.6888123E-1,7.0746313E-3,1.3633858E-1,6.779927E-1,-2.8106558E-1,5.9357245E-2,-5.0401044E-1,2.6165992E-1,8.197528E-1,7.268153E-2,9.176213E-2,-5.729128E-1,5.3008574E-1,7.118127E-3,3.8298497E-1,-4.297612E-1,4.2847985E-1,-3.3433643E-1,6.068107E-2,-7.40378E-1,-3.551554E-2,7.054782E-1,1.3734439E-1,-1.9730826E-1,-1.3230701E-1,4.8720858E-1,5.0044037E-2,5.7563245E-1,-1.2863761E-1,-8.9801687E-1,2.0835352E-1,8.1812114E-1,-6.050678E-1,1.984975E-1,-3.3267256E-2,-5.6034315E-1,8.6987734E-1,1.8777885E-1,-1.0910033E0,-2.6381072E-1,-5.2851994E-2,3.322875E-1,-4.4501153E-1,1.3522854E-1,-8.042093E-1,-2.0338273E-1],"categories":[],"categories_nodes":[],"categories_segments":[],"categories_sizes":[],"default_left":[true,true,true,true,true,true,true,false,true,false,false,true,true,true,true,true,false,true,false,false,true,false,true,true,true,false,true,false,false,false,true,false,false,false,true,true,true,false,false,false,false,false,false,false,false,false,false],"id":11,"left_children":[1,3,5,7,9,11,13,-1,15,-1,-1,17,19,21,23,25,-1,27,-1,-1,29,-1,31,33,35,-1,37,-1,-1,-1,39,-1,-1,-1,41,43,45,-1,-1,-1,-1,-1,-1,-1,-1,-1,-1],"loss_changes":[2.2183053E0,1.6023898E0,9.415142E-1,1.3121254E0,7.874222E-1,1.0974402E0,1.2942995E0,0E0,1.2516193E0,0E0,0E0,8.718749E-1,6.310967E-1,5.467937E-1,1.3190057E0,6.849041E-1,0E0,1.5357047E-1,0E0,0E0,3.1315732E-1,0E0,5.7025433E-2,1.4927387E0,1.1304065E0,0E0,9.6216226E-1,0E0,0E0,0E0,1.2431383E-1,0E0,0E0,0E0,9.8221016E-1,1.0559306E0,3.536862E-1,0E0,0E0,0E0,0E0,0E0,0E0,0E0,0E0,0E0,0E0],"parents":[2147483647,0,0,1,1,2,2,3,3,4,4,5,5,6,6,8,8,11,11,12,12,13,13,14,14,15,15,17,17,20,20,22,22,23,23,24,24,26,26,30,30,34,34,35,35,36,36],"right_children":[2,4,6,8,10,12,14,-1,16,-1,-1,18,20,22,24,26,-1,28,-1,-1,30,-1,32,34,36,-1,38,-1,-1,-1,40,-1,-1,-1,42,44,46,-1,-1,-1,-1,-1,-1,-1,-1,-1,-1],"split_conditions":[4.115E-1,1.6666667E-1,4.924443E0,9.75E1,7.062602E0,4.529221E0,5.1613474E0,-1.5120314E-1,9.5E0,2.4592586E-1,2.180446E-2,-1E-1,-5.822785E-1,-1.25E-1,7.595E-1,-3.7130803E-1,-1.2892836E-1,4.057248E0,-1.0030093E-1,1.8204322E-2,5.5050004E-1,-1.0654662E-2,6.1800003E-1,4.185E-1,9.95E1,-3.9692104E-2,5.2510314E0,1.5013211E-2,1.7268974E-1,-3.8591284E-2,1.7088608E-1,6.250606E-2,2.4543636E-1,-1.8152034E-1,-3.75E-1,9.85E1,8.3449996E-1,2.609632E-1,5.6333657E-2,-3.27301E-1,-7.914322E-2,-1.58556E-2,9.968625E-2,-1.3350347E-1,4.0568564E-2,-2.412628E-1,-6.101482E-2],"split_indices":[6,4,1,0,1,1,1,0,8,0,0,2,7,3,5,7,0,1,0,0,5,0,5,6,0,0,1,0,0,0,7,0,0,0,3,0,5,0,0,0,0,0,0,0,0,0,0],"split_type":[0,0,0,0,0,0,0,0,0,0,0,0,0,0,0,0,0,0,0,0,0,0,0,0,0,0,0,0,0,0,0,0,0,0,0,0,0,0,0,0,0,0,0,0,0,0,0],"sum_hessian":[8.296853E1,2.2578028E1,6.03905E1,1.3707229E1,8.870798E0,8.602801E0,5.1787697E1,1.7489499E0,1.1958279E1,6.9004817E0,1.9703163E0,4.078367E0,4.524434E0,4.2593403E0,4.752836E1,1.05526705E1,1.405608E0,2.2749975E0,1.8033699E0,1.0791582E0,3.4452758E0,1.1969509E0,3.0623894E0,2.9233692E1,1.8294666E1,1.7299873E0,8.822683E0,1.0121387E0,1.2628589E0,1.0779933E0,2.3672824E0,1.0921423E0,1.970247E0,1.5478724E0,2.768582E1,1.3352735E1,4.941932E0,3.0366964E0,5.7859874E0,1.2627627E0,1.1045197E0,9.827669E0,1.785815E1,3.4009438E0,9.951791E0,2.1916895E0,2.7502425E0],"tree_param":{"num_deleted":"0","num_feature":"9","num_nodes":"47","size_leaf_vector":"0"}},{"base_weights":[7.9026416E-2,2.559592E-1,-2.6643444E-2,9.020312E-2,7.6441216E-1,-3.6161387E-1,4.23936E-2,1.8409522E-1,-5.209247E-1,8.729763E-1,5.0284423E-2,7.5386846E-1,-7.0288205E-1,1.4624359E-1,-3.2828572E-1,4.2545003E-1,-6.3023925E-2,-1.1500121E0,3.0612168E-1,4.0351248E-1,-1.2747463E0,3.6948815E-1,1.7304659E-2,-4.4274405E-1,9.7216345E-2,1.5754807E-1,8.393827E-1,-7.773577E-1,1.8864381E-1,9.994741E-3,5.947465E-1,-2.451444E-1,-1.5517397E0,-3.5748392E-1,5.939611E-1,2.2846727E-1,-1.5126927E-1,-7.807429E-1,-2.7925076E-2,7.761819E-1,-1.3221845E-1,7.4246377E-1,-2.0162512E-2,-1.0521463E0,3.7197614E-1,8.390229E-1,3.1505965E-2,3.8939816E-1,-2.3900196E-1,-5.076621E-1,9.2037305E-2,-8.018052E-2,-1.0668418E0,3.1987667E-1,-4.9919114E-1],"categories":[],"categories_nodes":[],"categories_segments":[],"categories_sizes":[],"default_left":[true,true,true,true,true,true,true,true,true,false,false,false,true,true,true,true,true,false,false,true,true,true,true,true,false,true,false,false,true,false,false,false,false,true,true,true,true,true,true,false,false,false,false,false,false,false,false,false,false,false,false,false,false,false,false],"id":12,"left_children":[1,3,5,7,9,11,13,15,17,-1,-1,-1,19,21,23,25,27,-1,-1,29,31,33,35,37,-1,39,-1,-1,41,-1,-1,-1,-1,43,45,47,49,51,53,-1,-1,-1,-1,-1,-1,-1,-1,-1,-1,-1,-1,-1,-1,-1,-1],"loss_changes":[1.5133795E0,2.4783401E0,1.2029443E0,1.4688609E0,5.218277E-1,3.91053E0,1.7215773E0,1.3079411E0,2.1458285E0,0E0,0E0,0E0,5.144315E0,9.910693E-1,5.2142453E-1,1.0871022E0,2.2112012E0,0E0,0E0,2.3886037E-1,1.0639915E0,2.274592E0,8.5380566E-1,1.0887164E0,0E0,1.5199182E0,0E0,0E0,1.090079E0,0E0,0E0,0E0,0E0,2.2185464E0,1.3562965E0,8.91647E-1,1.2086418E0,7.8177524E-1,9.125416E-1,0E0,0E0,0E0,0E0,0E0,0E0,0E0,0E0,0E0,0E0,0E0,0E0,0E0,0E0,0E0,0E0],"parents":[2147483647,0,0,1,1,2,2,3,3,4,4,5,5,6,6,7,7,8,8,12,12,13,13,14,14,15,15,16,16,19,19,20,20,21,21,22,22,23,23,25,25,28,28,33,33,34,34,35,35,36,36,37,37,38,38],"right_children":[2,4,6,8,10,12,14,16,18,-1,-1,-1,20,22,24,26,28,-1,-1,30,32,34,36,38,-1,40,-1,-1,42,-1,-1,-1,-1,44,46,48,50,52,54,-1,-1,-1,-1,-1,-1,-1,-1,-1,-1,-1,-1,-1,-1,-1,-1],"split_conditions":[4.855E-1,3E-1,5.2E-1,7.0716743E0,8.649789E-1,-4.0506327E-1,5E-1,1.4767933E-1,-2.5E-1,2.618929E-1,1.5085327E-2,2.2616054E-1,-1.6666667E-1,6.505E-1,1.1666667E0,5.863216E0,3.3122364E-1,-3.4500366E-1,9.1836505E-2,4.95203E0,9.85E1,5.77E-1,1.7510548E-1,-7.3628694E-1,2.9164905E-2,4.886177E0,2.518148E-1,-2.3320732E-1,-1.25E-1,2.9984224E-3,1.7842394E-1,-7.3543325E-2,-4.6552193E-1,-2.3417722E-1,6.835E-1,1E-1,5.6267295E0,-1.628692E0,1.1E0,2.3285457E-1,-3.9665535E-2,2.2273915E-1,-6.048754E-3,-3.156439E-1,1.11592844E-1,2.5170687E-1,9.45179E-3,1.1681945E-1,-7.170059E-2,-1.5229864E-1,2.7611192E-2,-2.4054157E-2,-3.2005256E-1,9.596301E-2,-1.4975734E-1],"split_indices":[6,2,6,1,7,7,4,7,3,0,0,0,4,6,4,1,7,0,0,1,0,5,7,7,0,1,0,0,3,0,0,0,0,7,5,2,1,7,2,0,0,0,0,0,0,0,0,0,0,0,0,0,0,0,0],"split_type":[0,0,0,0,0,0,0,0,0,0,0,0,0,0,0,0,0,0,0,0,0,0,0,0,0,0,0,0,0,0,0,0,0,0,0,0,0,0,0,0,0,0,0,0,0,0,0,0,0,0,0,0,0,0,0],"sum_hessian":[7.957993E1,2.9224463E1,5.035547E1,2.2927488E1,6.2969737E0,7.8805866E0,4.2474884E1,2.0479788E1,2.4477003E0,5.272928E0,1.0240457E0,1.5629259E0,6.317661E0,3.3652287E1,8.822597E0,9.995655E0,1.0484134E1,1.1684338E0,1.2792665E0,2.253047E0,4.064614E0,1.1637515E1,2.201477E1,6.9204907E0,1.9021056E0,6.9063797E0,3.0892751E0,2.1871893E0,8.296945E0,1.0809509E0,1.1720961E0,1.2613002E0,2.8033135E0,2.6058226E0,9.031693E0,9.615148E0,1.2399624E1,3.3272688E0,3.5932221E0,1.6675713E0,5.238808E0,1.5719327E0,6.725012E0,1.1081611E0,1.4976614E0,5.9483023E0,3.0833907E0,7.276983E0,2.338165E0,4.58989E0,7.8097334E0,1.3360285E0,1.9912403E0,2.2522593E0,1.340963E0],"tree_param":{"num_deleted":"0","num_feature":"9","num_nodes":"55","size_leaf_vector":"0"}},{"base_weights":[6.319189E-2,7.2005516E-1,3.8692955E-2,1.0052744E-1,-1.70805E-1,2.3122421E-1,-8.873216E-2,-6.993174E-1,1.4893492E-1,1.402628E-1,7.706709E-1,-4.6502888E-1,-1.4901193E-4,-1.6095747E-1,-1.1311746E0,7.2764385E-1,-1.00616515E-1,6.108233E-1,5.8297273E-2,-6.238089E-2,-5.6660545E-1,5.379346E-1,-8.8119216E-2,1.928472E-1,-6.4530516E-1,-3.319102E-1,2.6220238E-1,8.320797E-1,-5.312648E-2,-6.0912985E-1,2.0202036E-1,-6.712695E-1,-1.5065381E-1,-2.9925558E-1,1.3358654E-1,-2.816617E-1,6.000943E-1,-6.059057E-1,5.448794E-3,8.2876474E-1,-4.276586E-1],"categories":[],"categories_nodes":[],"categories_segments":[],"categories_sizes":[],"default_left":[true,false,true,true,true,true,true,true,true,true,false,true,true,true,false,false,true,true,true,false,true,false,true,true,false,true,true,false,false,false,false,false,false,false,false,false,false,false,false,false,false],"id":13,"left_children":[1,-1,3,5,7,9,11,13,15,17,-1,19,21,23,-1,-1,25,27,29,-1,31,-1,33,35,-1,37,39,-1,-1,-1,-1,-1,-1,-1,-1,-1,-1,-1,-1,-1,-1],"loss_changes":[1.2172892E0,0E0,9.971495E-1,1.4808859E0,3.0800748E0,1.6191244E0,8.279077E-1,1.4020636E0,1.7768749E0,1.1732994E0,0E0,1.582241E-1,1.0464785E0,8.4396106E-1,0E0,0E0,8.5243905E-1,7.117621E-1,2.7896922E0,0E0,5.8020234E-2,0E0,9.2936146E-1,7.866776E-1,0E0,5.589668E-1,1.9606421E0,0E0,0E0,0E0,0E0,0E0,0E0,0E0,0E0,0E0,0E0,0E0,0E0,0E0,0E0],"parents":[2147483647,0,0,2,2,3,3,4,4,5,5,6,6,7,7,8,8,9,9,11,11,12,12,13,13,16,16,17,17,18,18,20,20,22,22,23,23,25,25,26,26],"right_children":[2,-1,4,6,8,10,12,14,16,18,-1,20,22,24,-1,-1,26,28,30,-1,32,-1,34,36,-1,38,40,-1,-1,-1,-1,-1,-1,-1,-1,-1,-1,-1,-1,-1,-1],"split_conditions":[3.9499998E-2,2.1601656E-1,7.1428575E-2,7.1E-1,3.642857E0,3E-1,7.125E-1,-3E-1,-5.2742615E-2,-5.780591E-1,2.3120128E-1,5.12945E0,7.905E-1,4.265E-1,-3.3935237E-1,2.1829316E-1,6.5212116E0,5.485E-1,-3.607595E-1,-1.8714268E-2,2.5E-1,1.6138038E-1,4.8523206E-2,4.365E-1,-1.9359155E-1,-5E-1,7.3452506E0,2.4962392E-1,-1.5937945E-2,-1.8273896E-1,6.060611E-2,-2.0138085E-1,-4.5196146E-2,-8.977668E-2,4.0075965E-2,-8.449851E-2,1.800283E-1,-1.8177173E-1,1.6346383E-3,2.4862944E-1,-1.2829758E-1],"split_indices":[6,0,8,5,8,2,6,2,7,7,0,1,5,6,0,0,1,6,7,0,3,0,7,5,0,2,1,0,0,0,0,0,0,0,0,0,0,0,0,0,0],"split_type":[0,0,0,0,0,0,0,0,0,0,0,0,0,0,0,0,0,0,0,0,0,0,0,0,0,0,0,0,0,0,0,0,0,0,0,0,0,0,0,0,0],"sum_hessian":[7.63748E1,1.7252868E0,7.464951E1,5.80391E1,1.6610415E1,3.419995E1,2.383915E1,5.8136415E0,1.0796772E1,3.0343456E1,3.856497E0,3.7327948E0,2.0106354E1,3.1987453E0,2.6148963E0,2.6757982E0,8.120974E0,3.5441942E0,2.6799261E1,1.077143E0,2.6556518E0,2.1065211E0,1.7999832E1,2.1962657E0,1.0024796E0,5.0114264E0,3.1095476E0,2.468393E0,1.0758011E0,4.1746473E0,2.2624615E1,1.6313471E0,1.0243049E0,9.040518E0,8.959315E0,1.156792E0,1.0394738E0,2.3261514E0,2.685275E0,1.5967959E0,1.5127516E0],"tree_param":{"num_deleted":"0","num_feature":"9","num_nodes":"41","size_leaf_vector":"0"}},{"base_weights":[5.176039E-2,2.4640381E-1,-1.6557451E-2,-2.2328089E-1,3.9755425E-1,9.445308E-3,-6.5389144E-1,4.9180853E-1,-5.135439E-1,1.5544471E-1,7.5100034E-1,-4.6893936E-1,3.3653278E-2,-7.3621684E-1,-4.5271423E-2,3.6080194E-1,-6.4886534E-1,8.744743E-1,7.679982E-2,5.341585E-1,3.6353834E-3,5.635209E-1,-3.4661645E-1,-1.4525038E-1,1.0738654E-1,7.509682E-1,-1.09519385E-1,-3.2686743E-1,4.8363325E-1,2.372784E-1,-2.7967617E-1],"categories":[],"categories_nodes":[],"categories_segments":[],"categories_sizes":[],"default_left":[true,true,true,true,true,true,false,false,true,true,true,false,true,false,false,true,false,false,false,false,true,true,false,true,true,false,false,false,false,false,false],"id":14,"left_children":[1,3,5,7,9,11,-1,-1,13,15,17,-1,19,-1,-1,21,-1,-1,-1,-1,23,25,-1,27,29,-1,-1,-1,-1,-1,-1],"loss_changes":[9.973507E-1,1.470928E0,9.379853E-1,1.369328E0,1.1744363E0,6.528149E-1,0E0,0E0,4.1671968E-1,1.9214493E0,4.2174006E-1,0E0,7.987174E-1,0E0,0E0,1.4545227E0,0E0,0E0,0E0,0E0,8.077722E-1,9.913113E-1,0E0,2.61209E0,1.6147442E0,0E0,0E0,0E0,0E0,0E0,0E0],"parents":[2147483647,0,0,1,1,2,2,3,3,4,4,5,5,8,8,9,9,10,10,12,12,15,15,20,20,21,21,23,23,24,24],"right_children":[2,4,6,8,10,12,-1,-1,14,16,18,-1,20,-1,-1,22,-1,-1,-1,-1,24,26,-1,28,30,-1,-1,-1,-1,-1,-1],"split_conditions":[4.115E-1,-7.0000005E-1,1.125E0,5.2510314E0,3.105E-1,4.185E-1,-1.9616744E-1,1.4754257E-1,5.9362535E0,2.915E-1,7.1346793E0,-1.4068182E-1,4.425E-1,-2.2086506E-1,-1.3581428E-2,4.835E-1,-1.946596E-1,2.623423E-1,2.3039946E-2,1.6024756E-1,-3E-1,9.198312E-1,-1.0398494E-1,4.6624473E-1,5.7172996E-1,2.2529048E-1,-3.2855816E-2,-9.8060235E-2,1.4508998E-1,7.1183525E-2,-8.390285E-2],"split_indices":[6,2,3,1,6,6,0,0,1,6,1,0,6,0,0,5,0,0,0,0,2,7,0,7,7,0,0,0,0,0,0],"split_type":[0,0,0,0,0,0,0,0,0,0,0,0,0,0,0,0,0,0,0,0,0,0,0,0,0,0,0,0,0,0,0],"sum_hessian":[7.369539E1,1.8468971E1,5.5226418E1,4.38033E0,1.4088642E1,5.4008106E1,1.2183112E0,1.0642061E0,3.316124E0,9.215708E0,4.872935E0,1.7164898E0,5.229162E1,1.8596332E0,1.4564908E0,7.780577E0,1.4351302E0,3.8675697E0,1.005365E0,2.0084772E0,5.0283142E1,6.20568E0,1.5748973E0,2.0485662E1,2.9797478E1,4.7632813E0,1.4423984E0,1.6267862E1,4.2177997E0,2.26002E1,7.197278E0],"tree_param":{"num_deleted":"0","num_feature":"9","num_nodes":"31","size_leaf_vector":"0"}},{"base_weights":[4.001491E-2,1.6140083E-2,6.371481E-1,4.0592026E-2,-8.049453E-1,2.525911E-1,-1.0277683E-2,6.78219E-1,-5.3393826E-2,-3.0141896E-1,7.1664125E-2,-6.620078E-2,8.575255E-1,4.4898403E-1,-2.7047455E-1,-4.423879E-1,4.839312E-1,7.06853E-1,2.0168647E-2,-1.0878233E-2,6.926859E-1,3.1916556E-1,-4.9044284E-1,5.1099557E-2,-6.1836797E-1,1.505345E-1,-1.6445737E-1],"categories":[],"categories_nodes":[],"categories_segments":[],"categories_sizes":[],"default_left":[true,true,false,true,false,true,true,true,true,true,true,false,false,true,true,true,false,false,true,false,false,false,false,false,false,false,false],"id":15,"left_children":[1,3,-1,5,-1,7,9,11,13,15,17,-1,-1,19,21,23,-1,-1,25,-1,-1,-1,-1,-1,-1,-1,-1],"loss_changes":[1.0273224E0,1.4583395E0,0E0,7.5650585E-1,0E0,1.8031852E0,1.3895501E0,8.2392263E-1,1.0833323E0,1.6296225E0,1.4757984E0,0E0,0E0,3.4791452E-1,1.0362906E0,1.0183735E0,0E0,0E0,1.0637535E0,0E0,0E0,0E0,0E0,0E0,0E0,0E0,0E0],"parents":[2147483647,0,0,1,1,3,3,5,5,6,6,7,7,8,8,9,9,10,10,13,13,14,14,15,15,18,18],"right_children":[2,4,-1,6,-1,8,10,12,14,16,18,-1,-1,20,22,24,-1,-1,26,-1,-1,-1,-1,-1,-1,-1,-1],"split_conditions":[1.2383966E0,1.1244726E0,1.9114444E-1,-5.1054853E-1,-2.414836E-1,5.3849995E-1,-1.7510548E-1,4.93396E0,5E-1,4.285714E0,-7.172996E-2,-1.9860234E-2,2.5725767E-1,5.441596E0,4.9788814E0,9.85E1,1.4517938E-1,2.120559E-1,6.128047E0,-3.26347E-3,2.0780578E-1,9.574967E-2,-1.4713286E-1,1.5329868E-2,-1.855104E-1,4.516035E-2,-4.9337212E-2],"split_indices":[7,7,0,7,0,6,7,1,4,8,7,0,0,1,1,0,0,0,1,0,0,0,0,0,0,0,0],"split_type":[0,0,0,0,0,0,0,0,0,0,0,0,0,0,0,0,0,0,0,0,0,0,0,0,0,0,0],"sum_hessian":[7.178151E1,7.000939E1,1.7721156E0,6.8907875E1,1.1015154E0,1.2567495E1,5.634038E1,4.7473607E0,7.8201346E0,1.17859955E1,4.4554386E1,1.0439652E0,3.7033954E0,2.0372224E0,5.7829123E0,1.0362623E1,1.4233724E0,2.38682E0,4.216757E1,1.0365771E0,1.0006454E0,1.4486759E0,4.3342366E0,2.9105155E0,7.452108E0,2.4823883E1,1.7343683E1],"tree_param":{"num_deleted":"0","num_feature":"9","num_nodes":"27","size_leaf_vector":"0"}},{"base_weights":[3.8470328E-2,1.1186637E-2,4.2704958E-1,6.9635436E-2,-2.3687866E-1,6.881164E-1,-1.7266443E-1,2.4980672E-2,6.262693E-1,-4.94081E-1,-2.3540087E-2,1.3365594E-1,8.673613E-1,8.353343E-2,-4.241875E-1,8.092921E-1,6.762608E-2,-1.4689907E-1,-7.6096976E-1,2.8407228E-1,-2.2600384E-1,2.966661E-2,7.841704E-1,-7.200446E-1,3.2068425E-1,-4.4770074E-1,1.6628656E-1,-2.6126537E-1,7.0562625E-1,-6.598715E-1,6.4152464E-2,-2.593927E-2,4.6684602E-1,-1.2694128E-1,-9.227303E-1,-3.4133637E-1,3.4443069E-1],"categories":[],"categories_nodes":[],"categories_segments":[],"categories_sizes":[],"default_left":[true,true,true,true,true,true,false,true,true,true,true,false,false,true,true,false,false,true,false,true,true,true,false,true,false,false,false,false,false,false,true,false,false,false,false,false,false],"id":16,"left_children":[1,3,5,7,9,11,-1,13,15,17,19,-1,-1,21,23,-1,-1,25,-1,27,29,31,-1,33,-1,-1,-1,-1,-1,-1,35,-1,-1,-1,-1,-1,-1],"loss_changes":[7.5319976E-1,9.999838E-1,8.4898365E-1,1.3680873E0,7.1057177E-1,2.2692943E-1,0E0,1.4181956E0,3.6372972E-1,4.3651378E-1,5.776649E-1,0E0,0E0,1.7637215E0,1.6033808E0,0E0,0E0,4.3347353E-1,0E0,1.0385118E0,7.383597E-1,1.1062297E0,0E0,4.557531E-1,0E0,0E0,0E0,0E0,0E0,0E0,5.976851E-1,0E0,0E0,0E0,0E0,0E0,0E0],"parents":[2147483647,0,0,1,1,2,2,3,3,4,4,5,5,7,7,8,8,9,9,10,10,13,13,14,14,17,17,19,19,20,20,21,21,23,23,30,30],"right_children":[2,4,6,8,10,12,-1,14,16,18,20,-1,-1,22,24,-1,-1,26,-1,28,30,32,-1,34,-1,-1,-1,-1,-1,-1,36,-1,-1,-1,-1,-1,-1],"split_conditions":[1.3E0,8.255E-1,1.7E0,7.9086475E0,9.045E-1,8.47E-1,-5.179933E-2,7.0748386E0,3.5714287E-1,5.5739202E0,1E-1,4.0096782E-2,2.602084E-1,8.225E-1,4.071429E0,2.4278763E-1,2.0287825E-2,4.0084388E-2,-2.2829093E-1,5.5696707E0,1.25E-1,6.5722933E0,2.3525113E-1,3.8599998E-1,9.620528E-2,-1.3431023E-1,4.988597E-2,-7.8379616E-2,2.1168788E-1,-1.9796146E-1,-7.3628694E-1,-7.7817817E-3,1.4005381E-1,-3.8082384E-2,-2.768191E-1,-1.02400914E-1,1.0332921E-1],"split_indices":[2,6,2,1,5,6,0,1,8,1,2,0,0,5,8,0,0,7,0,1,3,1,0,6,0,0,0,0,0,0,7,0,0,0,0,0,0],"split_type":[0,0,0,0,0,0,0,0,0,0,0,0,0,0,0,0,0,0,0,0,0,0,0,0,0,0,0,0,0,0,0,0,0,0,0,0,0],"sum_hessian":[7.0494606E1,6.683093E1,3.6636765E0,5.4669147E1,1.2161782E1,2.4498174E0,1.2138592E0,5.157642E1,3.09273E0,4.917393E0,7.2443886E0,1.0249593E0,1.424858E0,4.6348534E1,5.2278852E0,1.9915754E0,1.1011546E0,2.8110523E0,2.1063411E0,2.7155116E0,4.5288773E0,4.4007465E1,2.341068E0,3.7655642E0,1.4623212E0,1.2147907E0,1.5962616E0,1.3497099E0,1.3658016E0,1.3043312E0,3.224546E0,3.9876186E1,4.1312795E0,1.373295E0,2.3922691E0,1.2288603E0,1.9956857E0],"tree_param":{"num_deleted":"0","num_feature":"9","num_nodes":"37","size_leaf_vector":"0"}},{"base_weights":[3.2041356E-2,5.960704E-1,1.3507353E-2,7.1870804E-2,-1.851804E-1,1.8657628E-1,-9.147517E-2,-5.788409E-1,8.704153E-2,1.2049911E-1,6.651067E-1,2.555597E-1,-1.5304056E-1,4.565452E-2,-7.6758504E-1,5.653359E-1,-9.118319E-2,2.714805E-2,5.303549E-1,-9.087735E-2,4.665638E-1,-2.3748793E-2,-3.6610022E-1,-1.2132283E0,-2.0549913E-1,-2.6776883E-1,2.0389023E-1,1.094321E-1,-7.509026E-1,-2.3215154E-2,7.069381E-1,-1.8086557E-1,3.5243037E-1,-5.6297517E-1,2.9952306E-1,1.6179948E-1,-4.4005027E-1,-4.704194E-1,-9.327308E-3,6.9044125E-1,-3.3246344E-1],"categories":[],"categories_nodes":[],"categories_segments":[],"categories_sizes":[],"default_left":[true,false,true,true,true,true,true,true,true,true,false,true,true,false,true,false,true,true,true,false,false,true,true,false,true,true,true,false,false,false,false,false,false,false,false,false,false,false,false,false,false],"id":17,"left_children":[1,-1,3,5,7,9,11,13,15,17,-1,19,21,-1,23,-1,25,27,29,-1,-1,31,33,-1,35,37,39,-1,-1,-1,-1,-1,-1,-1,-1,-1,-1,-1,-1,-1,-1],"loss_changes":[7.242778E-1,0E0,8.1168765E-1,1.02767E0,1.755532E0,9.321759E-1,5.288447E-1,8.171866E-1,9.2752194E-1,1.1086278E0,0E0,3.2224572E-1,5.4482126E-1,0E0,1.0411377E0,0E0,4.8955065E-1,1.6801978E0,5.4341054E-1,0E0,0E0,8.6604834E-1,1.1539667E0,0E0,3.7118784E-1,2.9176104E-1,1.1932786E0,0E0,0E0,0E0,0E0,0E0,0E0,0E0,0E0,0E0,0E0,0E0,0E0,0E0,0E0],"parents":[2147483647,0,0,2,2,3,3,4,4,5,5,6,6,7,7,8,8,9,9,11,11,12,12,14,14,16,16,17,17,18,18,21,21,22,22,24,24,25,25,26,26],"right_children":[2,-1,4,6,8,10,12,14,16,18,-1,20,22,-1,24,-1,26,28,30,-1,-1,32,34,-1,36,38,40,-1,-1,-1,-1,-1,-1,-1,-1,-1,-1,-1,-1,-1,-1],"split_conditions":[3.9499998E-2,1.7882113E-1,7.1428575E-2,7.1E-1,3.642857E0,3E-1,-1.3670886E0,2.54E-1,-5.2742615E-2,5.675E-1,1.9953202E-1,-1.7130802E0,6.3404427E0,1.3696357E-2,-1.7088607E-1,1.6960078E-1,6.5212116E0,5.5700004E-1,6.125E-1,-2.7263205E-2,1.3996914E-1,5.5990915E0,9.535042E0,-3.6396852E-1,4.265E-1,-5E-1,7.3452506E0,3.282963E-2,-2.252708E-1,-6.9645466E-3,2.1208143E-1,-5.4259673E-2,1.0572912E-1,-1.6889256E-1,8.985692E-2,4.8539843E-2,-1.320151E-1,-1.4112583E-1,-2.7981927E-3,2.0713238E-1,-9.973904E-2],"split_indices":[6,0,8,5,8,2,7,6,7,6,0,7,1,0,7,0,1,6,5,0,0,1,1,0,6,2,1,0,0,0,0,0,0,0,0,0,0,0,0,0,0],"split_type":[0,0,0,0,0,0,0,0,0,0,0,0,0,0,0,0,0,0,0,0,0,0,0,0,0,0,0,0,0,0,0,0,0,0,0,0,0,0,0,0,0],"sum_hessian":[6.905444E1,1.2055669E0,6.784888E1,5.293715E1,1.4911728E1,3.1015266E1,2.1921883E1,5.635649E0,9.276078E0,2.8352116E1,2.6631494E0,2.828277E0,1.9093605E1,1.4839236E0,4.151726E0,1.9285276E0,7.3475504E0,2.3960888E1,4.391228E0,1.2860637E0,1.5422134E0,1.2574464E1,6.519141E0,1.6695796E0,2.4821463E0,4.654573E0,2.6929774E0,2.2446384E1,1.5145041E0,1.2720412E0,3.119187E0,9.236081E0,3.338382E0,5.1500864E0,1.3690553E0,1.088215E0,1.3939312E0,2.149152E0,2.505421E0,1.2614087E0,1.4315689E0],"tree_param":{"num_deleted":"0","num_feature":"9","num_nodes":"41","size_leaf_vector":"0"}},{"base_weights":[2.7133105E-2,7.362547E-3,5.389488E-1,3.1948175E-2,-7.9502434E-1,1.194066E-2,6.124031E-1,1.117466E-1,-1.0395481E-1,2.2922317E-2,5.5730706E-1,-4.3951163E-1,3.0173318E-2,3.3451557E-1,-9.160871E-2,7.51246E-1,-4.0920037E-3,-7.06241E-1,1.4182578E-1,-5.5574524E-1,1.3894501E-1],"categories":[],"categories_nodes":[],"categories_segments":[],"categories_sizes":[],"default_left":[true,true,false,true,false,true,false,true,true,true,true,true,true,false,false,false,false,false,false,false,false],"id":18,"left_children":[1,3,-1,5,-1,7,-1,9,11,13,15,17,19,-1,-1,-1,-1,-1,-1,-1,-1],"loss_changes":[6.8127203E-1,1.33162E0,0E0,7.499672E-1,0E0,7.525355E-1,0E0,1.3683695E0,1.3705211E0,1.106262E0,6.299646E-1,1.4454564E0,1.5099152E0,0E0,0E0,0E0,0E0,0E0,0E0,0E0,0E0],"parents":[2147483647,0,0,1,1,3,3,5,5,7,7,8,8,9,9,10,10,11,11,12,12],"right_children":[2,4,-1,6,-1,8,-1,10,12,14,16,18,20,-1,-1,-1,-1,-1,-1,-1,-1],"split_conditions":[1.2383966E0,1.1371307E0,1.6168463E-1,9.8312235E-1,-2.3850732E-1,1.4978904E-1,1.8372093E-1,4.219409E-2,3.3544305E-1,4.425E-1,8.655E-1,-1E-1,4.80589E0,1.0035468E-1,-2.7482614E-2,2.253738E-1,-1.2276012E-3,-2.1187231E-1,4.2547736E-2,-1.6672358E-1,4.1683506E-2],"split_indices":[7,7,0,7,0,7,0,7,7,6,6,2,1,0,0,0,0,0,0,0,0],"split_type":[0,0,0,0,0,0,0,0,0,0,0,0,0,0,0,0,0,0,0,0,0],"sum_hessian":[6.671895E1,6.521422E1,1.5047278E0,6.420706E1,1.0071604E0,6.3054234E1,1.1528252E0,3.389801E1,2.9156223E1,2.9140234E1,4.7577777E0,7.6759667E0,2.1480257E1,7.3158855E0,2.1824348E1,3.2848408E0,1.472937E0,5.114483E0,2.5614836E0,2.7198744E0,1.8760382E1],"tree_param":{"num_deleted":"0","num_feature":"9","num_nodes":"21","size_leaf_vector":"0"}},{"base_weights":[2.2466356E-2,2.1968237E-1,-1.9283507E-2,5.9478337E-1,-1.509488E-2,-6.16465E-1,8.838837E-3,7.741584E-1,-9.711902E-3,-4.3250376E-1,1.6830045E-1,1.1359384E-1,-1.1516705E-1,3.877042E-1,-1.7825599E-1,-4.1660197E-2,5.005137E-1,5.079432E-1,-2.0689872E-1,5.5117387E-1,-1.6231194E-2,-3.0161878E-1,4.225704E-2,2.568459E-1,-2.3485877E-1,-2.887159E-1,6.451284E-1,7.493483E-1,4.071181E-3,-9.412262E-1,-1.13141365E-1,7.607475E-1,6.229863E-2,-4.1719005E-1,4.1056782E-1,1.9316642E-1,-3.951276E-1,7.4907184E-1,7.11865E-2,7.3277074E-1,-2.3416452E-1],"categories":[],"categories_nodes":[],"categories_segments":[],"categories_sizes":[],"default_left":[true,true,true,true,true,false,true,false,false,false,true,true,true,true,true,true,true,true,true,true,false,false,false,true,true,false,true,false,false,false,true,false,false,false,false,false,false,false,false,false,false],"id":19,"left_children":[1,3,5,7,9,-1,11,-1,-1,-1,13,15,17,19,21,23,25,27,29,31,-1,-1,-1,33,35,-1,37,-1,-1,-1,39,-1,-1,-1,-1,-1,-1,-1,-1,-1,-1],"loss_changes":[5.5207413E-1,1.0397978E0,9.430747E-1,4.9879408E-1,6.985506E-1,0E0,7.185233E-1,0E0,0E0,0E0,5.5566865E-1,1.8194427E0,1.5548906E0,2.8847772E-1,9.886351E-2,1.3458384E0,1.1735921E0,4.2806745E-1,1.4646354E0,2.6430726E-1,0E0,0E0,0E0,1.128259E0,1.0404571E0,0E0,4.012761E-1,0E0,0E0,0E0,2.3596413E0,0E0,0E0,0E0,0E0,0E0,0E0,0E0,0E0,0E0,0E0],"parents":[2147483647,0,0,1,1,2,2,3,3,4,4,6,6,10,10,11,11,12,12,13,13,14,14,15,15,16,16,17,17,18,18,19,19,23,23,24,24,26,26,30,30],"right_children":[2,4,6,8,10,-1,12,-1,-1,-1,14,16,18,20,22,24,26,28,30,32,-1,-1,-1,34,36,-1,38,-1,-1,-1,40,-1,-1,-1,-1,-1,-1,-1,-1,-1,-1],"split_conditions":[-5.1054853E-1,5.3849995E-1,-4.7890297E-1,2.4285712E0,-3E-1,-1.849395E-1,5.893128E0,2.3224753E-1,-2.9135705E-3,-1.2975113E-1,9.26E-1,5.507224E0,-2.5949368E-1,3E-1,-8.649789E-1,-1.6666667E-1,4.645E-1,5.365E-1,-1.7510548E-1,8.32E-1,-4.8693586E-3,-9.048564E-2,1.2677113E-2,-1.1E0,4.58E-1,-8.661477E-2,8.1434596E-1,2.2480449E-1,1.2213544E-3,-2.8236786E-1,-4.219409E-3,2.2822426E-1,1.868959E-2,-1.2515701E-1,1.2317035E-1,5.7949927E-2,-1.1853828E-1,2.2472157E-1,2.135595E-2,2.1983123E-1,-7.024936E-2],"split_indices":[7,6,7,8,2,0,1,0,0,0,6,1,7,2,7,4,5,6,7,6,0,0,0,2,6,0,7,0,0,0,7,0,0,0,0,0,0,0,0,0,0],"split_type":[0,0,0,0,0,0,0,0,0,0,0,0,0,0,0,0,0,0,0,0,0,0,0,0,0,0,0,0,0,0,0,0,0,0,0,0,0,0,0,0,0],"sum_hessian":[6.553572E1,1.0705189E1,5.483053E1,3.5307515E0,7.174437E0,1.5250512E0,5.3305477E1,2.506358E0,1.0243936E0,1.7753701E0,5.399067E0,2.8941158E1,2.4364319E1,3.2333257E0,2.1657412E0,2.1290527E1,7.6506305E0,2.544294E0,2.1820024E1,2.0423086E0,1.1910172E0,1.1529405E0,1.0128007E0,8.235945E0,1.3054584E1,1.0304642E0,6.6201663E0,1.390788E0,1.1535062E0,1.4470971E0,2.0372927E1,1.0402505E0,1.002058E0,1.2111963E0,7.0247483E0,3.5005374E0,9.554047E0,5.3467174E0,1.273449E0,1.9172417E0,1.8455687E1],"tree_param":{"num_deleted":"0","num_feature":"9","num_nodes":"41","size_leaf_vector":"0"}},{"base_weights":[2.3516126E-2,-1.7070016E-2,2.5252888E-1,1.2570834E-1,-1.1016835E-1,4.4492102E-1,3.8597113E-3,-1.1681564E-1,3.03418E-1,-5.444005E-1,-2.339555E-2,-1.2565643E-1,7.4233043E-1,5.8527404E-1,-3.11237E-1,4.5675433E-1,-2.771798E-1,5.109913E-1,-1.1856296E-1,-7.89376E-1,2.359695E-1,3.050314E-1,-1.2592342E-1,3.1378287E-1,9.3823075E-1,-6.007151E-1,1.3313842E-1,5.5731855E-2,-4.8461452E-1,1.950931E-1,7.232156E-1,3.6071295E-1,-4.186999E-1,-9.885984E-1,-1.3039352E-1,2.6947923E-3,5.9878105E-1,-6.1602247E-1,-3.308367E-2,3.5605425E-1,-2.9173583E-1,-2.2329354E-1,-6.949692E-1,-9.410245E-2,3.9682597E-1,-6.681014E-1,7.856949E-2,2.5628674E-1,-4.3880454E-1,7.293353E-1,1.5117972E-1,-8.1440485E-1,-9.203129E-2,6.8118736E-2,-4.4844556E-1],"categories":[],"categories_nodes":[],"categories_segments":[],"categories_sizes":[],"default_left":[true,true,true,true,true,true,true,true,true,true,true,false,true,false,true,false,true,true,true,true,false,true,true,false,false,false,false,true,true,true,false,false,true,false,false,true,true,true,true,false,false,false,false,false,false,false,false,false,false,false,false,false,false,false,false],"id":20,"left_children":[1,3,5,7,9,11,13,15,17,19,21,-1,23,-1,25,-1,27,29,31,33,-1,35,37,-1,-1,-1,-1,39,41,43,-1,-1,45,-1,-1,47,49,51,53,-1,-1,-1,-1,-1,-1,-1,-1,-1,-1,-1,-1,-1,-1,-1,-1],"loss_changes":[6.0858136E-1,7.6037407E-1,4.695459E-1,1.0109241E0,1.2882673E0,1.0342183E0,1.1541407E0,1.0733876E0,1.2290773E0,1.2770393E0,1.042618E0,0E0,2.3757458E-2,0E0,6.065702E-1,0E0,6.2550217E-1,4.7099638E-1,9.004987E-1,4.7140837E-1,0E0,6.544534E-1,1.0459373E0,0E0,0E0,0E0,0E0,5.4464775E-1,1.4400399E-1,3.3127755E-1,0E0,0E0,5.0722396E-1,0E0,0E0,6.3250756E-1,1.0842466E-1,3.0712748E-1,9.031915E-1,0E0,0E0,0E0,0E0,0E0,0E0,0E0,0E0,0E0,0E0,0E0,0E0,0E0,0E0,0E0,0E0],"parents":[2147483647,0,0,1,1,2,2,3,3,4,4,5,5,6,6,7,7,8,8,9,9,10,10,12,12,14,14,16,16,17,17,18,18,19,19,21,21,22,22,27,27,28,28,29,29,32,32,35,35,36,36,37,37,38,38],"right_children":[2,4,6,8,10,12,14,16,18,20,22,-1,24,-1,26,-1,28,30,32,34,-1,36,38,-1,-1,-1,-1,40,42,44,-1,-1,46,-1,-1,48,50,52,54,-1,-1,-1,-1,-1,-1,-1,-1,-1,-1,-1,-1,-1,-1,-1,-1],"split_conditions":[7.414131E0,5.404153E0,8.588813E0,4.926697E0,4.4950002E-1,4.56E-1,6.71E-1,4.87E-1,7.095E-1,1.25E-1,4.6850002E-1,-3.7696928E-2,9.0250003E-1,1.7558222E-1,2.763713E-1,1.3702631E-1,4.529221E0,-5E-1,5.1408396E0,9.95E1,7.079085E-2,5.5050004E-1,5.77E-1,9.413487E-2,2.8146923E-1,-1.8021454E-1,3.9941527E-2,-1E-1,3.75E-1,2.9746836E-1,2.1696468E-1,1.0821389E-1,5.3548126E0,-2.9657954E-1,-3.911806E-2,4.105E-1,5.855E-1,-2.1729958E-1,7.531645E-1,1.0681628E-1,-8.752075E-2,-6.6988066E-2,-2.0849076E-1,-2.8230736E-2,1.190478E-1,-2.0043042E-1,2.3570847E-2,7.688603E-2,-1.3164137E-1,2.188006E-1,4.5353916E-2,-2.4432147E-1,-2.760939E-2,2.0435622E-2,-1.3453367E-1],"split_indices":[1,1,1,1,5,6,6,5,6,3,6,0,6,0,7,0,1,2,1,0,0,5,5,0,0,0,0,2,3,7,0,0,1,0,0,6,5,7,7,0,0,0,0,0,0,0,0,0,0,0,0,0,0,0,0],"split_type":[0,0,0,0,0,0,0,0,0,0,0,0,0,0,0,0,0,0,0,0,0,0,0,0,0,0,0,0,0,0,0,0,0,0,0,0,0,0,0,0,0,0,0,0,0,0,0,0,0,0,0,0,0,0,0],"sum_hessian":[6.4012085E1,5.5161674E1,8.8504095E0,2.1633549E1,3.3528126E1,4.5448833E0,4.3055267E0,9.2933655E0,1.2340183E1,4.705716E0,2.8822407E1,1.7551464E0,2.789737E0,1.211898E0,3.0936286E0,1.6267573E0,7.666609E0,8.130057E0,4.2101254E0,3.5726433E0,1.133073E0,6.3872046E0,2.2435204E1,1.691404E0,1.0983329E0,1.6602671E0,1.4333614E0,3.2239017E0,4.442707E0,4.038293E0,4.091765E0,1.5435185E0,2.6666071E0,2.3592193E0,1.213424E0,3.6449146E0,2.74229E0,2.675574E0,1.9759628E1,1.7160113E0,1.5078905E0,2.900706E0,1.5420008E0,1.8786584E0,2.1596344E0,1.5471208E0,1.1194862E0,2.581589E0,1.0633256E0,1.6357512E0,1.1065389E0,1.5387655E0,1.1368084E0,1.6560648E1,3.19898E0],"tree_param":{"num_deleted":"0","num_feature":"9","num_nodes":"55","size_leaf_vector":"0"}},{"base_weights":[2.0135717E-2,3.5042136E-3,4.6523002E-1,2.400497E-2,-6.2087137E-1,4.4675383E-1,3.3960333E-3,4.0004748E-1,-2.4181804E-2,5.7705563E-1,-3.3365667E-2,-1.3745293E-1,5.5468246E-2,-2.2348227E-1,6.3601786E-1,3.123546E-1,-5.048092E-2],"categories":[],"categories_nodes":[],"categories_segments":[],"categories_sizes":[],"default_left":[true,true,false,true,false,false,true,true,true,false,false,true,true,false,false,false,false],"id":21,"left_children":[1,3,-1,5,-1,-1,7,9,11,-1,-1,13,15,-1,-1,-1,-1],"loss_changes":[4.670123E-1,8.089647E-1,0E0,5.301645E-1,0E0,0E0,6.572149E-1,3.1885177E-1,5.1548976E-1,0E0,0E0,1.7077351E0,9.3470114E-1,0E0,0E0,0E0,0E0],"parents":[2147483647,0,0,1,1,3,3,6,6,7,7,8,8,11,11,12,12],"right_children":[2,4,-1,6,-1,-1,8,10,12,-1,-1,14,16,-1,-1,-1,-1],"split_conditions":[1.2383966E0,1.1371307E0,1.3956901E-1,-5E-1,-1.8626142E-1,1.3402615E-1,3.6949998E-1,1.99E-1,5.2E-1,1.731167E-1,-1.00097E-2,3E-1,6.405E-1,-6.704468E-2,1.9080536E-1,9.3706384E-2,-1.5144276E-2],"split_indices":[7,7,0,4,0,0,5,6,6,0,0,2,6,0,0,0,0],"split_type":[0,0,0,0,0,0,0,0,0,0,0,0,0,0,0,0,0],"sum_hessian":[6.2307945E1,6.103516E1,1.2727818E0,6.0025826E1,1.009335E0,1.82905E0,5.8196777E1,2.9052017E0,5.5291576E1,1.8274429E0,1.0777587E0,2.2528236E1,3.276334E1,2.0913227E1,1.6150093E0,8.998135E0,2.3765203E1],"tree_param":{"num_deleted":"0","num_feature":"9","num_nodes":"17","size_leaf_vector":"0"}},{"base_weights":[2.293569E-2,-1.2661751E-2,2.2852959E-1,1.4255905E-1,-7.8361936E-2,4.455276E-1,4.4727035E-2,-8.631958E-2,4.1973493E-1,-7.0619845E-1,-3.1609613E-2,6.492565E-1,1.3620768E-1,3.348262E-1,-2.531802E-1,3.8999185E-1,-2.1908212E-1,6.224312E-1,9.922504E-3,7.002886E-1,-7.647847E-2,-1.0286468E-1,5.529819E-1,-4.655921E-1,1.427034E-1,6.135393E-4,-4.825465E-1,1.11744136E-1,8.1872064E-1,2.9014507E-1,-3.38938E-1,-4.201014E-1,-1.0099368E-2,2.2107476E-1,-4.5361206E-1,-1.4027455E-1,-6.5549296E-1,-5.840123E-1,1.6620772E-1,3.2786885E-1,-1.1147834E-1],"categories":[],"categories_nodes":[],"categories_segments":[],"categories_sizes":[],"default_left":[true,true,true,true,true,true,true,true,true,false,true,false,false,true,true,false,true,true,true,false,true,false,false,false,false,true,true,false,false,false,false,true,true,false,false,false,false,false,false,false,false],"id":22,"left_children":[1,3,5,7,9,11,13,15,17,-1,19,-1,-1,21,23,-1,25,27,29,-1,31,-1,-1,-1,-1,33,35,-1,-1,-1,-1,37,39,-1,-1,-1,-1,-1,-1,-1,-1],"loss_changes":[4.6199125E-1,5.661409E-1,3.5143366E-1,1.0854325E0,1.1189353E0,1.7360836E-1,6.164943E-1,7.1071625E-1,6.29344E-1,0E0,1.2762653E0,0E0,0E0,3.9563525E-1,3.695765E-1,0E0,4.849369E-1,4.2001367E-1,4.4519004E-1,0E0,8.165246E-1,0E0,0E0,0E0,0E0,6.574996E-1,1.3349307E-1,0E0,0E0,0E0,0E0,6.5456927E-1,1.1049575E0,0E0,0E0,0E0,0E0,0E0,0E0,0E0,0E0],"parents":[2147483647,0,0,1,1,2,2,3,3,4,4,5,5,6,6,7,7,8,8,10,10,13,13,14,14,16,16,17,17,18,18,20,20,25,25,26,26,31,31,32,32],"right_children":[2,4,6,8,10,12,14,16,18,-1,20,-1,-1,22,24,-1,26,28,30,-1,32,-1,-1,-1,-1,34,36,-1,-1,-1,-1,38,40,-1,-1,-1,-1,-1,-1,-1,-1],"split_conditions":[7.414131E0,5.2596054E0,1.6666667E-1,4.926697E0,5.3231354E0,3.0379748E-1,8.588813E0,4.87E-1,7.095E-1,-2.1185954E-1,5.34708E0,1.9477697E-1,4.0862307E-2,5.0699997E-1,6.25E-1,1.1699756E-1,4.6599817E0,5.052144E0,5.1078043E0,2.1008658E-1,4.4950002E-1,-3.0859405E-2,1.6589458E-1,-1.3967763E-1,4.281102E-2,5.3586495E-1,5.6949997E-1,3.3523243E-2,2.456162E-1,8.7043524E-2,-1.01681404E-1,1.25E-1,4.6850002E-1,6.632243E-2,-1.3608362E-1,-4.208237E-2,-1.966479E-1,-1.7520371E-1,4.9862318E-2,9.836066E-2,-3.3443503E-2],"split_indices":[1,1,4,1,1,7,1,5,6,0,1,0,0,6,3,0,1,1,1,0,5,0,0,0,0,7,5,0,0,0,0,3,6,0,0,0,0,0,0,0,0],"split_type":[0,0,0,0,0,0,0,0,0,0,0,0,0,0,0,0,0,0,0,0,0,0,0,0,0,0,0,0,0,0,0,0,0,0,0,0,0,0,0,0,0],"sum_hessian":[6.1730114E1,5.3419277E1,8.310837E0,1.5538576E1,3.78807E1,3.158249E0,5.1525884E0,8.887926E0,6.6506505E0,1.647766E0,3.6232933E1,1.2415442E0,1.9167048E0,2.5477178E0,2.6048706E0,1.5150117E0,7.372914E0,4.1026363E0,2.5480142E0,1.2491652E0,3.498377E1,1.0232426E0,1.5244752E0,1.5806742E0,1.0241963E0,4.5644317E0,2.8084822E0,1.5747874E0,2.527849E0,1.5063463E0,1.0416678E0,4.8011193E0,3.018265E1,3.4185233E0,1.1459086E0,1.5506785E0,1.2578037E0,3.755214E0,1.0459052E0,6.4491053E0,2.3733545E1],"tree_param":{"num_deleted":"0","num_feature":"9","num_nodes":"41","size_leaf_vector":"0"}},{"base_weights":[2.2832844E-2,1.3317437E-3,3.370198E-1,4.3083776E-2,-1.7656386E-1,5.468386E-1,7.68266E-2,1.2048968E-2,4.7431093E-1,-4.277784E-1,2.1725098E-2,-2.157906E-2,4.4528222E-1,5.797806E-1,1.2126627E-1,1.09784044E-1,-6.067589E-1,3.2581526E-1,-2.1847613E-1,-2.0026186E-1,4.8855472E-2,5.830998E-1,6.398253E-2,-4.1740544E-2,-7.886368E-1,-6.77678E-2,5.655954E-1,-5.8362085E-1,5.467193E-2,-3.2157872E-2,-4.0097058E-1,3.128744E-1,-3.105835E-2,-2.2150846E-1,2.5052395E-1],"categories":[],"categories_nodes":[],"categories_segments":[],"categories_sizes":[],"default_left":[true,true,true,true,true,false,false,true,true,true,true,true,true,false,false,false,true,true,true,true,true,false,false,false,false,false,false,false,true,false,false,false,false,false,false],"id":23,"left_children":[1,3,5,7,9,-1,-1,11,13,15,17,19,21,-1,-1,-1,23,25,27,29,31,-1,-1,-1,-1,-1,-1,-1,33,-1,-1,-1,-1,-1,-1],"loss_changes":[4.1467744E-1,4.4225928E-1,1.7265195E-1,6.3934046E-1,5.731712E-1,0E0,0E0,6.7962015E-1,4.9214065E-2,5.517053E-1,6.0279006E-1,5.588952E-1,1.3919854E-1,0E0,0E0,0E0,3.7153113E-1,3.793245E-1,4.971643E-1,4.0993774E-1,6.8695784E-1,0E0,0E0,0E0,0E0,0E0,0E0,0E0,2.4929352E-1,0E0,0E0,0E0,0E0,0E0,0E0],"parents":[2147483647,0,0,1,1,2,2,3,3,4,4,7,7,8,8,9,9,10,10,11,11,12,12,16,16,17,17,18,18,19,19,20,20,28,28],"right_children":[2,4,6,8,10,-1,-1,12,14,16,18,20,22,-1,-1,-1,24,26,28,30,32,-1,-1,-1,-1,-1,-1,-1,34,-1,-1,-1,-1,-1,-1],"split_conditions":[1.3E0,8.255E-1,8.125E-1,7.9086475E0,9.0250003E-1,1.6405158E-1,2.3047982E-2,8.225E-1,5.76E-1,5.20905E0,9.225E-1,-7.0000005E-1,-6E-1,1.7393418E-1,3.637988E-2,3.2935213E-2,1.392405E-1,5.600856E0,-1.25E-1,5.1549995E-1,9.85E1,1.7492995E-1,1.919476E-2,-1.2522164E-2,-2.3659106E-1,-2.033034E-2,1.6967863E-1,-1.7508626E-1,9.44E-1,-9.647362E-3,-1.2029118E-1,9.3862325E-2,-9.317505E-3,-6.645254E-2,7.515719E-2],"split_indices":[2,6,5,1,6,0,0,5,6,1,6,2,2,0,0,0,7,1,3,6,0,0,0,0,0,0,0,0,6,0,0,0,0,0,0],"split_type":[0,0,0,0,0,0,0,0,0,0,0,0,0,0,0,0,0,0,0,0,0,0,0,0,0,0,0,0,0,0,0,0,0,0,0],"sum_hessian":[6.045134E1,5.7519295E1,2.9320424E0,4.719942E1,1.0319874E1,1.0132765E0,1.9187658E0,4.4989532E1,2.2098918E0,4.041854E0,6.27802E0,4.2630684E1,2.3588486E0,1.2070607E0,1.0028311E0,1.1061577E0,2.9356961E0,2.6132581E0,3.6647615E0,1.1532096E1,3.1098587E1,1.343874E0,1.0149745E0,1.0142729E0,1.9214232E0,1.2609189E0,1.3523393E0,1.0818698E0,2.5828917E0,6.9071884E0,4.6249075E0,6.5485077E0,2.4550077E1,1.0173203E0,1.5655713E0],"tree_param":{"num_deleted":"0","num_feature":"9","num_nodes":"35","size_leaf_vector":"0"}},{"base_weights":[2.155118E-2,6.7031933E-3,4.2981118E-1,2.3347178E-2,-4.7889525E-1,3.9412057E-1,5.4223677E-3,3.537559E-1,-1.807773E-2,5.5215275E-3,5.8094823E-1,-1.07351534E-1,5.877982E-2,-1.8902792E-1,2.8814363E-1,1.649086E-1,-2.2513218E-1],"categories":[],"categories_nodes":[],"categories_segments":[],"categories_sizes":[],"default_left":[true,true,false,true,false,false,true,true,true,false,false,true,true,false,false,false,false],"id":24,"left_children":[1,3,-1,5,-1,-1,7,9,11,-1,-1,13,15,-1,-1,-1,-1],"loss_changes":[3.6281726E-1,4.8986864E-1,0E0,3.8477904E-1,0E0,0E0,4.692796E-1,2.833831E-1,3.7630484E-1,0E0,0E0,8.717526E-1,9.2971724E-1,0E0,0E0,0E0,0E0],"parents":[2147483647,0,0,1,1,3,3,6,6,7,7,8,8,11,11,12,12],"right_children":[2,4,-1,6,-1,-1,8,10,12,-1,-1,14,16,-1,-1,-1,-1],"split_conditions":[1.2383966E0,1.1371307E0,1.2894335E-1,-5E-1,-1.4366858E-1,1.1823618E-1,3.6949998E-1,3.02E-1,-3E-1,1.6564584E-3,1.7428447E-1,5.548523E-1,5.1054853E-1,-5.6708377E-2,8.64431E-2,4.947258E-2,-6.7539655E-2],"split_indices":[7,7,0,4,0,0,5,5,2,0,0,7,7,0,0,0,0],"split_type":[0,0,0,0,0,0,0,0,0,0,0,0,0,0,0,0,0],"sum_hessian":[5.9327953E1,5.822673E1,1.1012259E0,5.7217506E1,1.0092211E0,1.6707493E0,5.5546757E1,2.6224053E0,5.2924355E1,1.4398085E0,1.1825968E0,2.4300903E1,2.862345E1,2.0574062E1,3.726842E0,2.1140211E1,7.4832387E0],"tree_param":{"num_deleted":"0","num_feature":"9","num_nodes":"17","size_leaf_vector":"0"}},{"base_weights":[2.0758344E-2,3.5881374E-2,-3.4582302E-1,1.4354857E-2,3.606129E-1,6.777556E-2,-1.5519565E-1,1.4465149E-1,4.444712E-1,4.63232E-4,3.2976943E-1,-4.151418E-1,4.002478E-2,1.130751E-1,-1.847404E-1,6.0136557E-1,-1.0351349E-1,1.0201292E-1,-6.057509E-1,3.5329014E-1,-2.548722E-1,6.281596E-4,6.145538E-1,-3.4780604E-1,2.7951208E-1,7.9884213E-1,2.2472532E-1,1.839228E-1,-3.8568166E-1,-9.480933E-1,-1.3648441E-1,5.969774E-1,-1.0611608E-1,-6.34182E-1,3.7737858E-2],"categories":[],"categories_nodes":[],"categories_segments":[],"categories_sizes":[],"default_left":[true,true,false,true,true,true,true,false,false,true,true,true,true,true,true,true,true,false,true,true,true,false,false,false,false,false,false,false,false,false,false,false,false,false,false],"id":25,"left_children":[1,3,-1,5,7,9,11,-1,-1,13,15,17,19,21,23,25,27,-1,29,31,33,-1,-1,-1,-1,-1,-1,-1,-1,-1,-1,-1,-1,-1,-1],"loss_changes":[3.4449127E-1,4.0329778E-1,0E0,5.16315E-1,7.4619055E-4,7.6098657E-1,7.1098936E-1,0E0,0E0,7.579238E-1,1.1002531E0,6.489626E-1,8.9620656E-1,1.2738364E0,1.1375563E0,2.3467946E-1,4.1578323E-1,0E0,5.929704E-1,5.839849E-1,5.8731127E-1,0E0,0E0,0E0,0E0,0E0,0E0,0E0,0E0,0E0,0E0,0E0,0E0,0E0,0E0],"parents":[2147483647,0,0,1,1,3,3,4,4,5,5,6,6,9,9,10,10,11,11,12,12,13,13,14,14,15,15,16,16,18,18,19,19,20,20],"right_children":[2,4,-1,6,8,10,12,-1,-1,14,16,18,20,22,24,26,28,-1,30,32,34,-1,-1,-1,-1,-1,-1,-1,-1,-1,-1,-1,-1,-1,-1],"split_conditions":[1.125E0,1.3E0,-1.0374691E-1,7.1428575E-2,9.493671E-2,6.308017E-1,3.7142859E0,4.339545E-2,1.3334137E-1,1.3291138E-1,6.835E-1,2.755E-1,3.6708862E-1,4.219409E-2,1.25E-1,8.5021096E-1,5.9271874E0,3.0603876E-2,-1.7088607E-1,1.005E2,-5E-1,1.884479E-4,1.8436615E-1,-1.0434181E-1,8.3853625E-2,2.3965265E-1,6.74176E-2,5.5176843E-2,-1.157045E-1,-2.84428E-1,-4.0945325E-2,1.7909323E-1,-3.1834826E-2,-1.902546E-1,1.1321357E-2],"split_indices":[3,2,0,8,7,7,8,0,0,7,5,6,7,7,3,7,1,0,7,0,2,0,0,0,0,0,0,0,0,0,0,0,0,0,0],"split_type":[0,0,0,0,0,0,0,0,0,0,0,0,0,0,0,0,0,0,0,0,0,0,0,0,0,0,0,0,0,0,0,0,0,0,0],"sum_hessian":[5.8901413E1,5.743413E1,1.4672813E0,5.4842796E1,2.5913343E0,4.21597E1,1.2683099E1,1.4869426E0,1.1043918E0,3.433898E1,7.820716E0,4.9565997E0,7.7264986E0,2.1596703E1,1.274228E1,4.568869E0,3.2518466E0,1.4600481E0,3.4965518E0,3.6505516E0,4.0759473E0,1.8458902E1,3.1378005E0,9.615666E0,3.126614E0,2.2619402E0,2.3069289E0,1.7833656E0,1.4684811E0,1.4317089E0,2.0648427E0,2.1896305E0,1.460921E0,1.2666558E0,2.8092914E0],"tree_param":{"num_deleted":"0","num_feature":"9","num_nodes":"35","size_leaf_vector":"0"}},{"base_weights":[1.89108E-2,6.1037052E-2,-1.1453053E-1,3.0925877E-2,4.5906284E-1,2.1601759E-1,-1.968013E-1,1.8271437E-1,-5.2599475E-2,6.2851113E-1,6.0035378E-2,3.2946333E-1,-1.6510954E-2,-6.146904E-1,2.067883E-2,6.743901E-2,5.989831E-1,-2.7925822E-1,7.852675E-2,-1.5145478E-1,-7.710679E-1,-1.7614138E-1,2.8169242E-1,1.6778252E-1,-5.4491097E-1,3.7045395E-1,-4.0457308E-1,-2.081176E-1,2.5461113E-1,2.3905006E-1,-4.2827693E-1,5.3022826E-1,-1.6320443E-1,3.7011367E-1,-1.2192176E-1,-6.221829E-1,-1.3882329E-1,4.0253446E-1,-4.113865E-1,3.6655858E-1,-2.564898E-1,-6.836208E-1,4.7006413E-2],"categories":[],"categories_nodes":[],"categories_segments":[],"categories_sizes":[],"default_left":[true,true,true,true,true,true,true,true,true,false,false,false,false,true,true,true,false,true,true,false,false,true,true,true,false,false,true,true,true,false,true,false,false,false,false,false,false,false,false,false,false,false,false],"id":26,"left_children":[1,3,5,7,9,11,13,15,17,-1,-1,-1,-1,19,21,23,-1,25,27,-1,-1,29,31,33,-1,-1,35,37,39,-1,41,-1,-1,-1,-1,-1,-1,-1,-1,-1,-1,-1,-1],"loss_changes":[3.3708736E-1,5.2853423E-1,4.3513274E-1,5.5694693E-1,1.7272604E-1,9.391567E-2,1.1108937E0,7.056542E-1,8.7266374E-1,0E0,0E0,0E0,0E0,1.8519068E-1,5.076018E-1,9.088037E-1,0E0,1.0218737E0,1.0076491E0,0E0,0E0,6.9884264E-1,5.5284363E-1,7.5990057E-1,0E0,0E0,4.6048367E-1,1.1272917E0,7.901344E-1,0E0,5.0582653E-1,0E0,0E0,0E0,0E0,0E0,0E0,0E0,0E0,0E0,0E0,0E0,0E0],"parents":[2147483647,0,0,1,1,2,2,3,3,4,4,5,5,6,6,7,7,8,8,13,13,14,14,15,15,17,17,18,18,21,21,22,22,23,23,26,26,27,27,28,28,30,30],"right_children":[2,4,6,8,10,12,14,16,18,-1,-1,-1,-1,20,22,24,-1,26,28,-1,-1,30,32,34,-1,-1,36,38,40,-1,42,-1,-1,-1,-1,-1,-1,-1,-1,-1,-1,-1,-1],"split_conditions":[7.8849995E-1,7.9086475E0,-1.3670886E0,5.404153E0,3E-1,7.7886186E0,-9.07173E-2,5.315879E0,5.5050004E-1,1.8855335E-1,1.8010614E-2,9.883901E-2,-4.9532866E-3,4.9788814E0,9.045E-1,5.2596054E0,1.7969494E-1,-3.7763715E-1,-3.75E-1,-4.5436434E-2,-2.3132038E-1,1.9620253E-1,9.95E1,1.25E-1,-1.634733E-1,1.1113619E-1,5.9890304E0,4.855E-1,8.3966243E-1,7.171502E-2,6.097046E-1,1.5906848E-1,-4.896133E-2,1.110341E-1,-3.657653E-2,-1.8665488E-1,-4.1646987E-2,1.20760344E-1,-1.23415954E-1,1.0996758E-1,-7.6946944E-2,-2.0508625E-1,1.4101924E-2],"split_indices":[6,1,7,1,2,1,7,1,5,0,0,0,0,1,6,1,0,7,3,0,0,7,0,3,0,0,1,6,7,0,7,0,0,0,0,0,0,0,0,0,0,0,0],"split_type":[0,0,0,0,0,0,0,0,0,0,0,0,0,0,0,0,0,0,0,0,0,0,0,0,0,0,0,0,0,0,0,0,0,0,0,0,0,0,0,0,0,0,0],"sum_hessian":[5.7721626E1,4.4284115E1,1.3437512E1,4.2171486E1,2.11263E0,2.3539805E0,1.1083531E1,1.4547377E1,2.762411E1,1.0792259E0,1.033404E0,1.3019259E0,1.0520548E0,3.1686103E0,7.9149213E0,1.2302508E1,2.2448683E0,9.710059E0,1.7914051E1,1.2965051E0,1.8721052E0,4.697718E0,3.217203E0,1.1194164E1,1.1083436E0,1.2537313E0,8.456327E0,6.747692E0,1.1166358E1,1.7945435E0,2.9031749E0,1.9410565E0,1.2761464E0,6.4275613E0,4.7666035E0,3.9118586E0,4.5444694E0,1.4403491E0,5.307343E0,9.392013E0,1.7743454E0,1.6034076E0,1.2997673E0],"tree_param":{"num_deleted":"0","num_feature":"9","num_nodes":"43","size_leaf_vector":"0"}},{"base_weights":[1.4806307E-2,1.50917E-1,-2.7308485E-2,-4.2042154E-1,2.571622E-1,7.409064E-2,-1.8585156E-1,-1.3504876E-1,3.899207E-1,-1.1389598E-1,2.0333204E-1,4.643239E-2,-3.3701104E-1,1.233666E-1,-2.814526E-1,5.542005E-1,6.1916254E-2,-4.5017618E-1,1.5887046E-1,5.1866984E-1,6.680216E-2,5.0238985E-1,-1.5219261E-1,-4.5374158E-1,1.6039197E-1,6.7717874E-1,1.3845211E-1,-2.8484145E-1,3.6028954E-1,-1.98937E-2,-7.5622207E-1,-4.2193764E-1,3.429779E-1,8.1634074E-1,-7.414177E-2,-2.9941931E-2,4.1112554E-1,2.7762341E-1,-3.303907E-1,-5.469839E-1,6.644169E-2,3.4576198E-1,-4.0456688E-1,-1.0157274E0,-8.467503E-2,5.8257526E-1,-1.0361983E-1,1.3447116E-1,-5.3993136E-1,-6.375136E-1,1.01666085E-1,-2.974076E-1,-7.904797E-1],"categories":[],"categories_nodes":[],"categories_segments":[],"categories_sizes":[],"default_left":[true,true,true,false,true,true,true,true,true,true,true,true,true,false,false,true,true,true,true,true,true,false,true,true,false,false,false,false,false,true,true,false,true,false,false,true,false,false,true,true,false,false,false,false,false,false,false,false,false,false,false,false,false],"id":27,"left_children":[1,3,5,-1,7,9,11,13,15,17,19,21,23,-1,-1,25,27,29,31,33,35,-1,37,39,-1,-1,-1,-1,-1,41,43,-1,45,-1,-1,47,-1,-1,49,51,-1,-1,-1,-1,-1,-1,-1,-1,-1,-1,-1,-1,-1],"loss_changes":[3.31905E-1,9.376335E-1,7.2942674E-1,0E0,6.849435E-1,7.00193E-1,6.35383E-1,1.7900193E-1,4.6840322E-1,1.1716813E0,6.9176286E-1,7.862073E-1,7.0062244E-1,0E0,0E0,2.1763372E-1,5.412189E-1,7.266735E-1,9.318931E-1,9.340348E-1,4.4276994E-1,0E0,5.686191E-1,4.7380078E-1,0E0,0E0,0E0,0E0,0E0,6.136313E-1,4.8287714E-1,0E0,7.175085E-1,0E0,0E0,9.9662685E-1,0E0,0E0,7.0946485E-1,2.3627734E-1,0E0,0E0,0E0,0E0,0E0,0E0,0E0,0E0,0E0,0E0,0E0,0E0,0E0],"parents":[2147483647,0,0,1,1,2,2,4,4,5,5,6,6,7,7,8,8,9,9,10,10,11,11,12,12,15,15,16,16,17,17,18,18,19,19,20,20,22,22,23,23,29,29,30,30,32,32,35,35,38,38,39,39],"right_children":[2,4,6,-1,8,10,12,14,16,18,20,22,24,-1,-1,26,28,30,32,34,36,-1,38,40,-1,-1,-1,-1,-1,42,44,-1,46,-1,-1,48,-1,-1,50,52,-1,-1,-1,-1,-1,-1,-1,-1,-1,-1,-1,-1,-1],"split_conditions":[4.115E-1,9.75E1,1.6666667E-1,-1.2612647E-1,-7.0000005E-1,5.46E-1,-5.1687765E-1,5.377255E0,1.2857144E0,5.5092983E0,6.405E-1,5E-1,7.3571424E0,3.700998E-2,-8.443578E-2,7.0748386E0,3.642857E0,-1.6666667E-1,4.21E-1,6.835E-1,6.8969736E0,1.5071696E-1,4.9788814E0,2.78481E-1,4.8117593E-2,2.0315363E-1,4.1535635E-2,-8.545244E-2,1.0808687E-1,5.9150004E-1,5.145E-1,-1.265813E-1,5.085E-1,2.4490224E-1,-2.2242531E-2,6.3313847E0,1.2333766E-1,8.328703E-2,6.321815E0,6.285932E0,1.9932508E-2,1.037286E-1,-1.2137007E-1,-3.0471823E-1,-2.540251E-2,1.7477259E-1,-3.108595E-2,4.034135E-2,-1.619794E-1,-1.9125408E-1,3.0499827E-2,-8.922228E-2,-2.3714392E-1],"split_indices":[6,0,4,0,2,6,7,1,8,1,6,4,8,0,0,1,8,4,6,5,1,0,1,7,0,0,0,0,0,5,6,0,6,0,0,1,0,0,1,1,0,0,0,0,0,0,0,0,0,0,0,0,0],"split_type":[0,0,0,0,0,0,0,0,0,0,0,0,0,0,0,0,0,0,0,0,0,0,0,0,0,0,0,0,0,0,0,0,0,0,0,0,0,0,0,0,0,0,0,0,0,0,0,0,0,0,0,0,0],"sum_hessian":[5.6182148E1,1.2665401E1,4.3516747E1,1.5222648E0,1.1143137E1,2.6866478E1,1.6650269E1,2.8136034E0,8.329534E0,1.0994005E1,1.5872472E1,6.8369217E0,9.813346E0,1.0744538E0,1.7391495E0,5.090409E0,3.2391243E0,4.632463E0,6.3615427E0,3.9501092E0,1.1922362E1,1.610521E0,5.226401E0,8.019183E0,1.7941633E0,3.4431171E0,1.6472917E0,1.5190713E0,1.720053E0,2.3680818E0,2.2643812E0,1.2202356E0,5.141307E0,2.3786447E0,1.5714645E0,1.0020076E1,1.9022864E0,1.36824E0,3.8581607E0,6.7565556E0,1.2626274E0,1.2659099E0,1.1021719E0,1.2635788E0,1.0008024E0,3.1479657E0,1.9933414E0,8.13409E0,1.8859856E0,1.9771752E0,1.8809856E0,4.4336243E0,2.3229313E0],"tree_param":{"num_deleted":"0","num_feature":"9","num_nodes":"53","size_leaf_vector":"0"}},{"base_weights":[8.982255E-3,-7.789251E-3,2.6695952E-1,3.3846844E-2,-1.8601686E-1,5.480193E-2,3.7082437E-1,3.3263454E-1,-4.7031585E-3,-3.760857E-1,-2.9156456E-2,-5.958292E-2,6.6452587E-1,-1.06882155E-1,1.2347075E-1,5.7779036E-2,-5.2037364E-1,1.5878424E-1,-2.669531E-1,2.528824E-1,-3.7017873E-1,-2.7253768E-1,2.0459916E-1,-4.292044E-1,1.9242264E-1,-1.7302278E-1,-6.2142545E-1,4.255206E-1,-1.04937404E-1,-3.28494E-1,-6.651567E-2,1.3633147E-2,-4.732163E-1,-1.84251E-1,3.7222728E-1,4.792443E-1,-3.5799254E-2],"categories":[],"categories_nodes":[],"categories_segments":[],"categories_sizes":[],"default_left":[true,true,true,true,true,false,false,true,true,true,true,true,false,true,true,false,true,true,true,false,false,true,true,false,true,false,false,false,false,false,false,false,false,false,false,false,false],"id":28,"left_children":[1,3,5,7,9,-1,-1,11,13,15,17,19,-1,21,23,-1,25,27,29,-1,-1,31,33,-1,35,-1,-1,-1,-1,-1,-1,-1,-1,-1,-1,-1,-1],"loss_changes":[2.4080369E-1,3.9795098E-1,5.4520383E-2,5.041055E-1,2.916128E-1,0E0,0E0,6.904424E-1,5.3221935E-1,3.1206226E-1,3.3932614E-1,4.0508217E-1,0E0,1.2212257E0,7.70169E-1,0E0,1.4640987E-2,3.4981605E-1,1.8929914E-2,0E0,0E0,8.778689E-1,6.1697084E-1,0E0,1.1124189E0,0E0,0E0,0E0,0E0,0E0,0E0,0E0,0E0,0E0,0E0,0E0,0E0],"parents":[2147483647,0,0,1,1,2,2,3,3,4,4,7,7,8,8,9,9,10,10,11,11,13,13,14,14,16,16,17,17,18,18,21,21,22,22,24,24],"right_children":[2,4,6,8,10,-1,-1,12,14,16,18,20,-1,22,24,-1,26,28,30,-1,-1,32,34,-1,36,-1,-1,-1,-1,-1,-1,-1,-1,-1,-1,-1,-1],"split_conditions":[1.3E0,8.255E-1,6.9543085E0,-5.780591E-1,9.045E-1,1.644058E-2,1.11247316E-1,-8.7552744E-1,5.2E-1,5.1575193E0,9.95E1,6.075E-1,1.9935776E-1,9.95E1,-4.535865E-1,1.7333712E-2,1.3291138E-1,1E-1,1.25E-1,7.586472E-2,-1.1105362E-1,9.85E1,4.865885E0,-1.2876132E-1,6.505E-1,-5.1906835E-2,-1.8642764E-1,1.2765619E-1,-3.148122E-2,-9.854821E-2,-1.9954702E-2,4.089944E-3,-1.419649E-1,-5.5275302E-2,1.1166819E-1,1.4377329E-1,-1.0739776E-2],"split_indices":[2,6,1,7,5,0,0,7,6,1,0,5,0,0,7,0,7,2,3,0,0,0,1,0,6,0,0,0,0,0,0,0,0,0,0,0,0],"split_type":[0,0,0,0,0,0,0,0,0,0,0,0,0,0,0,0,0,0,0,0,0,0,0,0,0,0,0,0,0,0,0,0,0,0,0,0,0],"sum_hessian":[5.41751E1,5.177869E1,2.3964074E0,4.2629925E1,9.1487665E0,1.2896847E0,1.1067228E0,3.9998467E0,3.8630077E1,3.5046163E0,5.6441507E0,2.209368E0,1.7904786E0,2.1587137E1,1.704294E1,1.0242672E0,2.480349E0,3.3381438E0,2.306007E0,1.1939983E0,1.0153698E0,1.4173991E1,7.413146E0,1.3108994E0,1.573204E1,1.1701944E0,1.3101547E0,1.3545688E0,1.983575E0,1.2755004E0,1.0305064E0,6.2266936E0,7.9472976E0,2.203193E0,5.209953E0,6.483673E0,9.248368E0],"tree_param":{"num_deleted":"0","num_feature":"9","num_nodes":"37","size_leaf_vector":"0"}},{"base_weights":[7.2507663E-3,1.2575339E-1,-2.9755905E-2,-2.18929E-1,2.6460359E-1,4.731349E-2,-1.4939755E-1,-3.517165E-1,5.989093E-2,2.2498293E-2,6.0665244E-1,1.4863242E-1,-1.1649946E-1,1.09165415E-1,-2.173064E-1,-1.1047791E-3,-5.2928007E-1,1.9386068E-1,-4.3101785E-1,7.157197E-1,1.4502232E-1,-2.0700805E-1,2.773723E-1,-4.2015767E-1,2.4142566E-1,2.944867E-1,-1.7381546E-1,1.8020046E-1,-2.8486618E-1,3.7366337E-1,-2.6742634E-1,3.6167137E-2,-4.6693036E-1,-5.897684E-2,4.018487E-1,-5.90889E-1,1.02836706E-1,3.744902E-1,-7.046397E-3,-1.4536008E-1,-4.771161E-1,5.706727E-1,-1.23185314E-1,-1.6182677E-1,2.6670584E-1,-4.8353556E-1,3.063657E-1,7.091889E-1,4.058314E-2,-1.4738008E-1,-6.753219E-1,3.5530704E-1,-2.7063575E-1,-6.170076E-1,-6.2091883E-2],"categories":[],"categories_nodes":[],"categories_segments":[],"categories_sizes":[],"default_left":[true,true,true,true,true,true,true,true,false,true,true,true,true,true,true,false,false,true,false,false,false,true,true,true,true,false,false,false,true,true,false,true,false,true,true,true,false,false,false,true,true,false,false,false,false,false,false,false,false,false,false,false,false,false,false],"id":29,"left_children":[1,3,5,7,9,11,13,15,-1,17,19,21,23,25,27,-1,-1,29,-1,-1,-1,31,33,35,37,-1,-1,-1,39,41,-1,43,-1,45,47,49,-1,-1,-1,51,53,-1,-1,-1,-1,-1,-1,-1,-1,-1,-1,-1,-1,-1,-1],"loss_changes":[2.421875E-1,6.863436E-1,3.965723E-1,1.8092413E-1,7.989611E-1,4.5634314E-1,3.1854412E-1,1.9056052E-1,0E0,6.1080426E-1,9.903014E-2,8.258153E-1,1.2610152E0,2.6925278E-1,4.174379E-1,0E0,0E0,5.655222E-1,0E0,0E0,0E0,3.3501798E-1,5.5749E-1,6.08745E-1,1.8554243E-1,0E0,0E0,0E0,2.5354666E-1,5.065004E-1,0E0,2.0421822E-1,0E0,8.1756985E-1,1.0186492E0,7.927394E-2,0E0,0E0,0E0,6.239567E-1,2.3018324E-1,0E0,0E0,0E0,0E0,0E0,0E0,0E0,0E0,0E0,0E0,0E0,0E0,0E0,0E0],"parents":[2147483647,0,0,1,1,2,2,3,3,4,4,5,5,6,6,7,7,9,9,10,10,11,11,12,12,13,13,14,14,17,17,21,21,22,22,23,23,24,24,28,28,29,29,31,31,33,33,34,34,35,35,39,39,40,40],"right_children":[2,4,6,8,10,12,14,16,-1,18,20,22,24,26,28,-1,-1,30,-1,-1,-1,32,34,36,38,-1,-1,-1,40,42,-1,44,-1,46,48,50,-1,-1,-1,52,54,-1,-1,-1,-1,-1,-1,-1,-1,-1,-1,-1,-1,-1,-1],"split_conditions":[4.115E-1,-7.0000005E-1,1.6666667E-1,3.7552744E-1,3.105E-1,5.960537E0,-8.75E-1,-1.6877636E-2,1.796728E-2,2.915E-1,3.865E-1,4.949809E0,6.6088505E0,7.3452506E0,-1.628692E0,-3.3143372E-4,-1.5878403E-1,4.835E-1,-1.2930536E-1,2.1471591E-1,4.3506697E-2,5.3586495E-1,5.1100004E-1,3.75E-1,5.1054853E-1,8.834601E-2,-5.214464E-2,5.406014E-2,6.285932E0,9.198312E-1,-8.0227904E-2,-3E-1,-1.4007911E-1,5.5092983E0,6.98E-1,6.7510545E-2,3.0851012E-2,1.1234707E-1,-2.1139192E-3,5.77E-1,2.78481E-1,1.7120181E-1,-3.6955595E-2,-4.8548035E-2,8.0011755E-2,-1.4506067E-1,9.1909714E-2,2.1275668E-1,1.21749425E-2,-4.4214025E-2,-2.0259658E-1,1.0659212E-1,-8.119073E-2,-1.8510228E-1,-1.8627565E-2],"split_indices":[6,2,4,7,6,1,3,7,0,6,6,1,1,1,7,0,0,5,0,0,0,7,6,3,7,0,0,0,1,7,0,2,0,1,6,7,0,0,0,5,7,0,0,0,0,0,0,0,0,0,0,0,0,0,0],"split_type":[0,0,0,0,0,0,0,0,0,0,0,0,0,0,0,0,0,0,0,0,0,0,0,0,0,0,0,0,0,0,0,0,0,0,0,0,0,0,0,0,0,0,0,0,0,0,0,0,0,0,0,0,0,0,0],"sum_hessian":[5.3372757E1,1.2130473E1,4.1242283E1,3.3177495E0,8.812724E0,2.5451662E1,1.5790622E1,2.0703175E0,1.247432E0,5.7843113E0,3.0284128E0,1.5782682E1,9.668979E0,3.15821E0,1.2632412E1,1.0342803E0,1.0360372E0,4.6135907E0,1.1707202E0,2.0044198E0,1.023993E0,4.033179E0,1.1749503E1,5.1369762E0,4.5320024E0,1.8838419E0,1.2743682E0,1.5928952E0,1.1039517E1,3.4563234E0,1.1572677E0,2.528473E0,1.5047061E0,3.315865E0,8.433639E0,3.7748568E0,1.3621194E0,2.6211321E0,1.9108704E0,7.4149556E0,3.6245615E0,2.368562E0,1.0877613E0,1.5205909E0,1.007882E0,1.3840129E0,1.9318521E0,4.036549E0,4.3970895E0,1.0427952E0,2.7320616E0,1.1165273E0,6.298428E0,2.3468382E0,1.2777233E0],"tree_param":{"num_deleted":"0","num_feature":"9","num_nodes":"55","size_leaf_vector":"0"}},{"base_weights":[5.505758E-3,4.4047527E-2,-1.15743645E-1,-3.0245605E-1,7.07074E-2,-3.476667E-1,6.1614003E-2,-2.8375229E-2,-4.362099E-1,6.962519E-1,2.2147244E-2,