{"learner":{"attributes":{"scikit_learn":"{\"use_label_encoder\": true, \"n_estimators\": 100, \"objective\": \"binary:logistic\", \"max_depth\": 6, \"learning_rate\": 0.300000012, \"verbosity\": null, \"booster\": \"gbtree\", \"tree_method\": \"exact\", \"gamma\": 0, \"min_child_weight\": 1, \"max_delta_step\": 0, \"subsample\": 1, \"colsample_bytree\": 1, \"colsample_bylevel\": 1, \"colsample_bynode\": 1, \"reg_alpha\": 0, \"reg_lambda\": 1, \"scale_pos_weight\": 1, \"base_score\": 0.5, \"missing\": NaN, \"num_parallel_tree\": 1, \"kwargs\": {\"probability\": true, \"learningRate\": 0.44999999999999996, \"nEstimators\": 148.0, \"maxDepth\": 4.0, \"minChildWeight\": 1.89, \"gammaValue\": 8.81, \"subSample\": 0.66, \"colSampleByTree\": 0.02}, \"random_state\": 0, \"n_jobs\": 3, \"monotone_constraints\": \"()\", \"interaction_constraints\": \"\", \"importance_type\": \"gain\", \"gpu_id\": -1, \"validate_parameters\": 1, \"classes_\": [0.0, 1.0], \"n_classes_\": 2, \"_le\": {\"classes_\": [0.0, 1.0]}, \"_features_count\": 9, \"n_features_in_\": 9, \"type\": \"XGBClassifier\"}"},"gradient_booster":{"model":{"gbtree_model_param":{"num_trees":"100","size_leaf_vector":"0"},"tree_info":[0,0,0,0,0,0,0,0,0,0,0,0,0,0,0,0,0,0,0,0,0,0,0,0,0,0,0,0,0,0,0,0,0,0,0,0,0,0,0,0,0,0,0,0,0,0,0,0,0,0,0,0,0,0,0,0,0,0,0,0,0,0,0,0,0,0,0,0,0,0,0,0,0,0,0,0,0,0,0,0,0,0,0,0,0,0,0,0,0,0,0,0,0,0,0,0,0,0,0,0],"trees":[{"base_weights":[-1.9302832E0,-1.9684684E0,-7.058824E-1,9.3333334E-1,-1.6521739E0,-0E0,1.2727273E0],"categories":[],"categories_nodes":[],"categories_segments":[],"categories_sizes":[],"default_left":[true,false,true,true,false,false,false],"id":0,"left_children":[1,-1,3,5,-1,-1,-1],"loss_changes":[9.340515E0,0E0,1.4727024E1,1.1878788E0,0E0,0E0,0E0],"parents":[2147483647,0,0,2,2,3,3],"right_children":[2,-1,4,6,-1,-1,-1],"split_conditions":[1.9E0,-5.905405E-1,1.685E-1,6.0732718E0,-4.9565217E-1,-0E0,3.818182E-1],"split_indices":[2,0,6,1,0,0,0],"split_type":[0,0,0,0,0,0,0],"sum_hessian":[2.285E2,2.21E2,7.5E0,2.75E0,4.75E0,1E0,1.75E0],"tree_param":{"num_deleted":"0","num_feature":"9","num_nodes":"7","size_leaf_vector":"0"}},{"base_weights":[-1.4908671E0,-1.5360004E0,-7.894213E-1,3.5989922E-1,-1.3297215E0,-2.2217031E-1,1.0565835E0,-4.793107E-1,-1.4072944E0,3.4612608E-1,-8.302325E-1],"categories":[],"categories_nodes":[],"categories_segments":[],"categories_sizes":[],"default_left":[true,false,true,true,true,true,false,false,false,false,false],"id":1,"left_children":[1,-1,3,5,7,9,-1,-1,-1,-1,-1],"loss_changes":[5.4660645E0,0E0,9.675537E0,2.474431E0,4.1179657E-3,1.6126851E0,0E0,0E0,0E0,0E0,0E0],"parents":[2147483647,0,0,2,2,3,3,4,4,5,5],"right_children":[2,-1,4,6,8,10,-1,-1,-1,-1,-1],"split_conditions":[1.5E0,-4.6080014E-1,1.645E-1,6.0732718E0,1.6666667E-1,-1.9620253E-1,3.1697506E-1,-1.4379321E-1,-4.2218834E-1,1.03837825E-1,-2.4906977E-1],"split_indices":[2,0,6,1,4,7,0,0,0,0,0],"split_type":[0,0,0,0,0,0,0,0,0,0,0],"sum_hessian":[2.0995674E2,1.9614629E2,1.381046E1,4.523024E0,9.287436E0,2.8352869E0,1.6877372E0,1.3764651E0,7.9109707E0,1.6882325E0,1.1470543E0],"tree_param":{"num_deleted":"0","num_feature":"9","num_nodes":"11","size_leaf_vector":"0"}},{"base_weights":[-1.2856307E0,-1.3291786E0,-6.547127E-1,2.9577973E-1,-1.1363055E0,-2.0060636E-1,9.1065615E-1,4.0588844E-1,-6.3601696E-1],"categories":[],"categories_nodes":[],"categories_segments":[],"categories_sizes":[],"default_left":[true,false,true,true,false,true,false,false,false],"id":2,"left_children":[1,-1,3,5,-1,7,-1,-1,-1],"loss_changes":[4.0068665E0,0E0,6.4845314E0,1.8035126E0,0E0,1.2504933E0,0E0,0E0,0E0],"parents":[2147483647,0,0,2,2,3,3,5,5],"right_children":[2,-1,4,6,-1,8,-1,-1,-1],"split_conditions":[1.5E0,-3.9875358E-1,1.645E-1,6.0732718E0,-3.4089166E-1,-8.75E-1,2.7319685E-1,1.2176654E-1,-1.9080509E-1],"split_indices":[2,0,6,1,0,3,0,0,0],"split_type":[0,0,0,0,0,0,0,0,0],"sum_hessian":[1.765093E2,1.6407744E2,1.2431855E1,4.310431E0,8.121424E0,2.7578113E0,1.5526197E0,1.1808197E0,1.5769917E0],"tree_param":{"num_deleted":"0","num_feature":"9","num_nodes":"9","size_leaf_vector":"0"}},{"base_weights":[-1.1630757E0,-1.2101508E0,-5.433648E-1,2.5862643E-1,-9.936418E-1,-2.4679579E-1,8.570069E-1,-2.4622796E-1,-1.0835824E0,-7.7759254E-1,2.9089332E-1],"categories":[],"categories_nodes":[],"categories_segments":[],"categories_sizes":[],"default_left":[true,false,true,true,true,true,false,false,false,false,false],"id":3,"left_children":[1,-1,3,5,7,9,-1,-1,-1,-1,-1],"loss_changes":[3.5294952E0,0E0,4.5715494E0,1.7507576E0,2.614479E-1,1.2352383E0,0E0,0E0,0E0,0E0,0E0],"parents":[2147483647,0,0,2,2,3,3,4,4,5,5],"right_children":[2,-1,4,6,8,10,-1,-1,-1,-1,-1],"split_conditions":[1.5E0,-3.6304528E-1,1.645E-1,3.1E-1,1.6666667E-1,8.333334E-1,2.5710207E-1,-7.3868394E-2,-3.2507473E-1,-2.3327777E-1,8.7267995E-2],"split_indices":[2,0,6,5,4,4,0,0,0,0,0],"split_type":[0,0,0,0,0,0,0,0,0,0,0],"sum_hessian":[1.4252544E2,1.3157764E2,1.0947801E1,4.0895333E0,6.8582673E0,2.5354908E0,1.5540425E0,1.1381152E0,5.720152E0,1.0513966E0,1.4840943E0],"tree_param":{"num_deleted":"0","num_feature":"9","num_nodes":"11","size_leaf_vector":"0"}},{"base_weights":[-1.0802794E0,-1.132756E0,-4.684451E-1,2.087202E-1,-8.920379E-1,-2.243196E-1,7.143704E-1,-2.117532E-1,-9.8620653E-1,3.1766105E-1,-6.5719366E-1],"categories":[],"categories_nodes":[],"categories_segments":[],"categories_sizes":[],"default_left":[true,false,true,true,true,true,false,false,false,false,false],"id":4,"left_children":[1,-1,3,5,7,9,-1,-1,-1,-1,-1],"loss_changes":[3.1230164E0,0E0,3.2537851E0,1.2388299E0,2.247734E-1,1.0098228E0,0E0,0E0,0E0,0E0,0E0],"parents":[2147483647,0,0,2,2,3,3,4,4,5,5],"right_children":[2,-1,4,6,8,10,-1,-1,-1,-1,-1],"split_conditions":[1.5E0,-3.3982682E-1,1.645E-1,3.1E-1,1.6666667E-1,2E-2,2.1431114E-1,-6.352597E-2,-2.9586196E-1,9.529832E-2,-1.9715811E-1],"split_indices":[2,0,6,5,4,6,0,0,0,0,0],"split_type":[0,0,0,0,0,0,0,0,0,0,0],"sum_hessian":[1.1279582E2,1.0310145E2,9.694371E0,3.925784E0,5.768587E0,2.414433E0,1.5113512E0,1.09644E0,4.672147E0,1.1902885E0,1.2241445E0],"tree_param":{"num_deleted":"0","num_feature":"9","num_nodes":"11","size_leaf_vector":"0"}},{"base_weights":[-1.0166221E0,-1.0775297E0,-4.023156E-1,1.736186E-1,-8.0703163E-1,-2.1008585E-1,7.1605444E-1,-9.2393947E-1,-1.4844398E-1,-5.4204196E-1,2.385266E-1],"categories":[],"categories_nodes":[],"categories_segments":[],"categories_sizes":[],"default_left":[true,false,true,true,true,true,false,false,false,false,false],"id":5,"left_children":[1,-1,3,5,7,9,-1,-1,-1,-1,-1],"loss_changes":[2.9102173E0,0E0,2.3910887E0,1.151242E0,3.1315756E-1,6.6383123E-1,0E0,0E0,0E0,0E0,0E0],"parents":[2147483647,0,0,2,2,3,3,4,4,5,5],"right_children":[2,-1,4,6,8,10,-1,-1,-1,-1,-1],"split_conditions":[1.5E0,-3.232589E-1,1.645E-1,6.0732718E0,6.428571E0,2.8350002E-1,2.1481635E-1,-2.7718186E-1,-4.4533197E-2,-1.6261259E-1,7.1557984E-2],"split_indices":[2,0,6,1,8,5,0,0,0,0,0],"split_type":[0,0,0,0,0,0,0,0,0,0,0],"sum_hessian":[8.8366234E1,7.970913E1,8.657106E0,3.80846E0,4.8486466E0,2.5894513E0,1.2190087E0,3.7755306E0,1.073116E0,1.3685288E0,1.2209225E0],"tree_param":{"num_deleted":"0","num_feature":"9","num_nodes":"11","size_leaf_vector":"0"}},{"base_weights":[-9.633393E-1,-1.034443E0,-3.4536356E-1,1.561331E-1,-7.287492E-1,-1.7739837E-1,6.4605933E-1,-8.5131735E-1,-1.276195E-1,2.7274403E-1,-5.233839E-1],"categories":[],"categories_nodes":[],"categories_segments":[],"categories_sizes":[],"default_left":[true,false,true,true,true,true,false,false,false,false,false],"id":6,"left_children":[1,-1,3,5,7,9,-1,-1,-1,-1,-1],"loss_changes":[2.7127686E0,0E0,1.788544E0,8.658738E-1,2.680843E-1,6.909532E-1,0E0,0E0,0E0,0E0,0E0],"parents":[2147483647,0,0,2,2,3,3,4,4,5,5],"right_children":[2,-1,4,6,8,10,-1,-1,-1,-1,-1],"split_conditions":[1.5E0,-3.1033292E-1,1.645E-1,6.0732718E0,6.428571E0,-8.75E-1,1.9381781E-1,-2.553952E-1,-3.828585E-2,8.1823215E-2,-1.5701517E-1],"split_indices":[2,0,6,1,8,3,0,0,0,0,0],"split_type":[0,0,0,0,0,0,0,0,0,0,0],"sum_hessian":[6.8867966E1,6.115734E1,7.7106237E0,3.5975351E0,4.1130886E0,2.5199287E0,1.0776066E0,3.0707736E0,1.042315E0,1.1871213E0,1.3328074E0],"tree_param":{"num_deleted":"0","num_feature":"9","num_nodes":"11","size_leaf_vector":"0"}},{"base_weights":[-9.140765E-1,-9.9752206E-1,-2.9617873E-1,-1.036848E0,-5.4460555E-1,6.95247E-2,-7.894462E-1,4.3989927E-1,-8.442011E-1,-3.499496E-1,4.038174E-1,3.5335895E-2,5.687802E-1],"categories":[],"categories_nodes":[],"categories_segments":[],"categories_sizes":[],"default_left":[true,true,true,false,true,true,false,false,false,false,true,false,false],"id":7,"left_children":[1,3,5,-1,7,9,-1,-1,-1,-1,11,-1,-1],"loss_changes":[2.5240974E0,2.8591156E-1,1.4851158E0,0E0,2.1179607E0,9.086485E-1,0E0,0E0,0E0,0E0,1.932289E-1,0E0,0E0],"parents":[2147483647,0,0,1,1,2,2,4,4,5,5,10,10],"right_children":[2,4,6,-1,8,10,-1,-1,-1,-1,12,-1,-1],"split_conditions":[1.5E0,8.027237E0,3.57E-1,-3.110544E-1,8.514934E0,5.1973577E0,-2.3683386E-1,1.3196978E-1,-2.5326034E-1,-1.0498489E-1,1E-1,1.0600769E-2,1.7063406E-1],"split_indices":[2,1,5,0,1,1,0,0,0,0,6,0,0],"split_type":[0,0,0,0,0,0,0,0,0,0,0,0,0],"sum_hessian":[5.3683826E1,4.6755264E1,6.928561E0,4.1833656E1,4.921607E0,4.4720683E0,2.456493E0,1.0390059E0,3.8826008E0,1.962573E0,2.5094953E0,1.1515205E0,1.3579746E0],"tree_param":{"num_deleted":"0","num_feature":"9","num_nodes":"13","size_leaf_vector":"0"}},{"base_weights":[-8.639453E-1,-9.636192E-1,-2.5123277E-1,-1.0131209E0,-4.7341067E-1,6.272674E-2,-7.279908E-1,4.3206912E-1,-7.999913E-1,-2.9004514E-1,3.3426112E-1,2.970695E-2,4.6987835E-1],"categories":[],"categories_nodes":[],"categories_segments":[],"categories_sizes":[],"default_left":[true,true,true,false,true,true,false,false,false,false,true,false,false],"id":8,"left_children":[1,3,5,-1,7,9,-1,-1,-1,-1,11,-1,-1],"loss_changes":[2.4019852E0,4.1542435E-1,1.154856E0,0E0,1.9011493E0,6.1312836E-1,0E0,0E0,0E0,0E0,1.3099399E-1,0E0,0E0],"parents":[2147483647,0,0,1,1,2,2,4,4,5,5,10,10],"right_children":[2,4,6,-1,8,10,-1,-1,-1,-1,12,-1,-1],"split_conditions":[1.5E0,8.027237E0,3.57E-1,-3.0393627E-1,8.45186E0,5.1973577E0,-2.1839724E-1,1.2962075E-1,-2.399974E-1,-8.701354E-2,1E-1,8.912086E-3,1.4096351E-1],"split_indices":[2,1,5,0,1,1,0,0,0,0,6,0,0],"split_type":[0,0,0,0,0,0,0,0,0,0,0,0,0],"sum_hessian":[4.2294865E1,3.5884583E1,6.4102836E0,3.1624405E1,4.2601757E0,4.3886538E0,2.0216296E0,1.0436196E0,3.216556E0,1.8791412E0,2.5095127E0,1.1487736E0,1.360739E0],"tree_param":{"num_deleted":"0","num_feature":"9","num_nodes":"13","size_leaf_vector":"0"}},{"base_weights":[-8.1195873E-1,-9.918186E-1,-3.8099617E-1,-6.632229E-1,3.2714605E-1,-2.329156E-1,-8.6308914E-1,-5.7877563E-2,6.427246E-1,-5.263532E-1,2.9709652E-1],"categories":[],"categories_nodes":[],"categories_segments":[],"categories_sizes":[],"default_left":[true,false,true,true,true,true,false,false,false,false,false],"id":9,"left_children":[1,-1,3,5,7,9,-1,-1,-1,-1,-1],"loss_changes":[2.3055992E0,0E0,2.5788195E0,5.541158E-1,5.277622E-1,8.0248976E-1,0E0,0E0,0E0,0E0,0E0],"parents":[2147483647,0,0,2,2,3,3,4,4,5,5],"right_children":[2,-1,4,6,8,10,-1,-1,-1,-1,-1],"split_conditions":[7.0000005E-1,-2.9754558E-1,4.0714283E0,1.685E-1,2.41E-1,3.14E-1,-2.5892675E-1,-1.7363269E-2,1.9281738E-1,-1.5790597E-1,8.9128956E-2],"split_indices":[2,0,8,6,6,5,0,0,0,0,0],"split_type":[0,0,0,0,0,0,0,0,0,0,0],"sum_hessian":[3.3619755E1,2.2802042E1,1.0817714E1,7.780332E0,3.037382E0,3.1543813E0,4.625951E0,1.7359831E0,1.3013988E0,2.034756E0,1.1196253E0],"tree_param":{"num_deleted":"0","num_feature":"9","num_nodes":"11","size_leaf_vector":"0"}},{"base_weights":[-7.516805E-1,-9.699731E-1,-3.175712E-1,-6.028102E-1,2.3632343E-1,-2.0881276E-1,-8.09295E-1,5.2430815E-1,-3.3312795E-1,-4.3283677E-1,2.1523224E-1,8.297242E-3,8.444424E-1],"categories":[],"categories_nodes":[],"categories_segments":[],"categories_sizes":[],"default_left":[true,false,true,true,true,true,false,true,false,false,false,false,false],"id":10,"left_children":[1,-1,3,5,7,9,-1,11,-1,-1,-1,-1,-1],"loss_changes":[2.3581553E0,0E0,1.8647065E0,4.3929982E-1,9.001339E-1,4.654351E-1,0E0,5.4250765E-1,0E0,0E0,0E0,0E0,0E0],"parents":[2147483647,0,0,2,2,3,3,4,4,5,5,7,7],"right_children":[2,-1,4,6,8,10,-1,12,-1,-1,-1,-1,-1],"split_conditions":[7.0000005E-1,-2.9099193E-1,3.642857E0,1.685E-1,8.093395E0,3.14E-1,-2.4278851E-1,3.4149998E-1,-9.9938385E-2,-1.2985104E-1,6.4569674E-2,2.4891729E-3,2.5333273E-1],"split_indices":[2,0,8,6,1,5,0,5,0,0,0,0,0],"split_type":[0,0,0,0,0,0,0,0,0,0,0,0,0],"sum_hessian":[2.7135408E1,1.7234575E1,9.900833E0,6.477041E0,3.4237926E0,2.9188344E0,3.5582066E0,2.3265018E0,1.0972906E0,1.8962878E0,1.0225466E0,1.2835386E0,1.0429633E0],"tree_param":{"num_deleted":"0","num_feature":"9","num_nodes":"13","size_leaf_vector":"0"}},{"base_weights":[-6.873373E-1,-9.47074E-1,-2.6357087E-1,-5.334632E-1,1.8885736E-1,-7.070454E-1,-7.022167E-2,4.133087E-1,-2.890906E-1,-1.8849732E-1,-7.9880226E-1,-1.9577922E-1,7.488889E-1],"categories":[],"categories_nodes":[],"categories_segments":[],"categories_sizes":[],"default_left":[true,false,true,true,true,true,false,true,false,false,false,false,false],"id":11,"left_children":[1,-1,3,5,7,9,-1,11,-1,-1,-1,-1,-1],"loss_changes":[2.313343E0,0E0,1.3504195E0,4.868257E-1,6.089333E-1,7.5096846E-2,0E0,8.6531013E-1,0E0,0E0,0E0,0E0,0E0],"parents":[2147483647,0,0,2,2,3,3,4,4,5,5,7,7],"right_children":[2,-1,4,6,8,10,-1,12,-1,-1,-1,-1,-1],"split_conditions":[7.0000005E-1,-2.841222E-1,3.642857E0,1.9E0,8.093395E0,5.0924454E0,-2.1066502E-2,5.2396216E0,-8.672719E-2,-5.65492E-2,-2.3964068E-1,-5.873377E-2,2.2466668E-1],"split_indices":[2,0,8,2,1,1,0,1,0,0,0,0,0],"split_type":[0,0,0,0,0,0,0,0,0,0,0,0,0],"sum_hessian":[2.2285343E1,1.3051105E1,9.234238E0,5.671713E0,3.5625243E0,3.7429025E0,1.9288104E0,2.5161479E0,1.0463765E0,1.021934E0,2.7209685E0,1.0418161E0,1.4743319E0],"tree_param":{"num_deleted":"0","num_feature":"9","num_nodes":"13","size_leaf_vector":"0"}},{"base_weights":[-6.235505E-1,-9.2184025E-1,-2.2646514E-1,3.215814E-1,-3.9981353E-1,-2.925486E-3,-7.6901215E-1,-3.0411416E-1,1.8980518E-1,5.204615E-1,-2.6920733E-1],"categories":[],"categories_nodes":[],"categories_segments":[],"categories_sizes":[],"default_left":[true,false,true,false,true,true,false,false,true,false,false],"id":12,"left_children":[1,-1,3,-1,5,7,-1,-1,9,-1,-1],"loss_changes":[2.1233177E0,0E0,1.0568922E0,0E0,1.1508291E0,3.3613423E-1,0E0,0E0,6.774595E-1,0E0,0E0],"parents":[2147483647,0,0,2,2,4,4,5,5,8,8],"right_children":[2,-1,4,-1,6,8,-1,-1,10,-1,-1],"split_conditions":[7.0000005E-1,-2.7655208E-1,-1.1097046E0,9.6474424E-2,-3.75E-1,-2.8481013E-1,-2.3070365E-1,-9.123425E-2,5.214286E0,1.5613845E-1,-8.07622E-2],"split_indices":[2,0,7,0,3,7,0,0,8,0,0],"split_type":[0,0,0,0,0,0,0,0,0,0,0],"sum_hessian":[1.8688911E1,9.917435E0,8.771476E0,1.9022708E0,6.8692055E0,3.796209E0,3.0729964E0,1.2557969E0,2.5404122E0,1.3988546E0,1.1415575E0],"tree_param":{"num_deleted":"0","num_feature":"9","num_nodes":"11","size_leaf_vector":"0"}},{"base_weights":[-5.617682E-1,-8.932898E-1,-1.9240329E-1,-4.4999623E-1,2.1859118E-1,-8.5649945E-2,-7.179907E-1,-9.200461E-2,6.019667E-1,-3.4450725E-1,3.0004084E-1,2.1013585E-1,-3.5112578E-1],"categories":[],"categories_nodes":[],"categories_segments":[],"categories_sizes":[],"default_left":[true,false,true,true,true,true,false,true,false,false,false,false,false],"id":13,"left_children":[1,-1,3,5,7,9,-1,11,-1,-1,-1,-1,-1],"loss_changes":[1.8842878E0,0E0,1.0741565E0,5.236571E-1,5.583742E-1,4.703015E-1,0E0,3.2439378E-1,0E0,0E0,0E0,0E0,0E0],"parents":[2147483647,0,0,2,2,3,3,4,4,5,5,7,7],"right_children":[2,-1,4,6,8,10,-1,12,-1,-1,-1,-1,-1],"split_conditions":[7.0000005E-1,-2.6798695E-1,4.0714283E0,1.685E-1,8.05054E0,6.027736E0,-2.1539722E-1,5.2869706E0,1.8059E-1,-1.0335218E-1,9.001225E-2,6.3040756E-2,-1.0533774E-1],"split_indices":[2,0,8,6,1,1,0,1,0,0,0,0,0],"split_type":[0,0,0,0,0,0,0,0,0,0,0,0,0],"sum_hessian":[1.5791495E1,7.5745487E0,8.216947E0,4.992792E0,3.2241547E0,2.6752746E0,2.3175173E0,2.2010028E0,1.0231519E0,1.6647513E0,1.0105232E0,1.1034279E0,1.097575E0],"tree_param":{"num_deleted":"0","num_feature":"9","num_nodes":"13","size_leaf_vector":"0"}},{"base_weights":[-4.9681178E-1,-8.6079276E-1,-1.5845385E-1,-3.9478573E-1,1.7821798E-1,-5.9236556E-1,1.5023382E-2,4.9181226E-1,-8.381646E-2,5.7121414E-1,-6.4862454E-1],"categories":[],"categories_nodes":[],"categories_segments":[],"categories_sizes":[],"default_left":[true,false,true,true,true,false,false,false,true,false,false],"id":14,"left_children":[1,-1,3,5,7,-1,-1,-1,9,-1,-1],"loss_changes":[1.6658149E0,0E0,7.7128375E-1,4.5318192E-1,3.9639875E-1,0E0,0E0,0E0,1.5577765E0,0E0,0E0],"parents":[2147483647,0,0,2,2,3,3,4,4,8,8],"right_children":[2,-1,4,6,8,-1,-1,-1,10,-1,-1],"split_conditions":[7.0000005E-1,-2.5823784E-1,4.0714283E0,1.9E0,7.0714283E0,-1.7770967E-1,4.507015E-3,1.4754368E-1,5.365814E0,1.7136425E-1,-1.9458736E-1],"split_indices":[2,0,8,2,8,0,0,0,1,0,0],"split_type":[0,0,0,0,0,0,0,0,0,0,0],"sum_hessian":[1.3633578E1,5.8242464E0,7.8093324E0,4.487001E0,3.3223314E0,2.7268481E0,1.7601528E0,1.1131958E0,2.2091358E0,1.0176195E0,1.1915163E0],"tree_param":{"num_deleted":"0","num_feature":"9","num_nodes":"11","size_leaf_vector":"0"}},{"base_weights":[-4.3496436E-1,-1.2503281E-1,-8.280937E-1,-3.6754614E-1,3.3118007E-1,4.7153622E-2,-7.289006E-1,-1.2092244E-1,6.0592127E-1,2.9649302E-1,-1.5695174E-1],"categories":[],"categories_nodes":[],"categories_segments":[],"categories_sizes":[],"default_left":[true,true,false,true,true,true,false,false,false,false,false],"id":15,"left_children":[1,3,-1,5,7,9,-1,-1,-1,-1,-1],"loss_changes":[1.4740117E0,1.0530285E0,0E0,9.2899746E-1,5.0149983E-1,2.3580348E-1,0E0,0E0,0E0,0E0,0E0],"parents":[2147483647,0,0,1,1,3,3,4,4,5,5],"right_children":[2,4,-1,6,8,10,-1,-1,-1,-1,-1],"split_conditions":[4.6899998E-1,8.333334E-1,-2.4842812E-1,-3.75E-1,6.175667E0,1.6666667E-1,-2.1867019E-1,-3.627673E-2,1.8177639E-1,8.894791E-2,-4.7085524E-2],"split_indices":[5,4,0,3,1,4,0,0,0,0,0],"split_type":[0,0,0,0,0,0,0,0,0,0,0],"sum_hessian":[1.1947382E1,7.417606E0,4.5297756E0,4.970007E0,2.447599E0,2.7190564E0,2.2509506E0,1.1367987E0,1.3108002E0,1.0201603E0,1.698896E0],"tree_param":{"num_deleted":"0","num_feature":"9","num_nodes":"11","size_leaf_vector":"0"}},{"base_weights":[-3.8115352E-1,-7.8805625E-1,-9.477255E-2,3.9468524E-1,-2.2907072E-1,1.5150334E-1,-5.881037E-1,-1.8755165E-1,5.2202517E-1,-1.3169836E-1,-7.074567E-1],"categories":[],"categories_nodes":[],"categories_segments":[],"categories_sizes":[],"default_left":[true,false,true,false,true,true,true,false,false,false,false],"id":16,"left_children":[1,-1,3,-1,5,7,9,-1,-1,-1,-1],"loss_changes":[1.2691239E0,0E0,6.100357E-1,0E0,1.0231345E0,6.1467594E-1,1.0959482E-1,0E0,0E0,0E0,0E0],"parents":[2147483647,0,0,2,2,4,4,5,5,6,6],"right_children":[2,-1,4,-1,6,8,10,-1,-1,-1,-1],"split_conditions":[7.0000005E-1,-2.3641689E-1,9E-1,1.1840557E-1,1.645E-1,3.14E-1,5.329093E0,-5.6265496E-2,1.5660755E-1,-3.950951E-2,-2.1223702E-1],"split_indices":[2,0,2,0,6,5,1,0,0,0,0],"split_type":[0,0,0,0,0,0,0,0,0,0,0],"sum_hessian":[1.053196E1,3.6269097E0,6.9050493E0,1.0692459E0,5.8358035E0,3.1135123E0,2.7222912E0,1.88365E0,1.2298622E0,1.000359E0,1.7219322E0],"tree_param":{"num_deleted":"0","num_feature":"9","num_nodes":"11","size_leaf_vector":"0"}},{"base_weights":[-3.2958716E-1,-6.97976E-2,-7.509078E-1,-2.4453986E-1,4.25442E-1,3.9214614E-1,-4.7794878E-1,-7.557175E-1,7.593576E-2],"categories":[],"categories_nodes":[],"categories_segments":[],"categories_sizes":[],"default_left":[true,true,false,true,false,false,true,false,false],"id":17,"left_children":[1,3,-1,5,-1,-1,7,-1,-1],"loss_changes":[1.1019232E0,7.639997E-1,0E0,1.1195164E0,0E0,0E0,8.3284295E-1,0E0,0E0],"parents":[2147483647,0,0,1,1,3,3,6,6],"right_children":[2,4,-1,6,-1,-1,8,-1,-1],"split_conditions":[4.6899998E-1,8.05054E0,-2.2527234E-1,-1.375E0,1.276326E-1,1.1764385E-1,1.7E0,-2.2671527E-1,2.2780728E-2],"split_indices":[5,1,0,3,0,0,2,0,0],"split_type":[0,0,0,0,0,0,0,0,0],"sum_hessian":[9.546232E0,6.626157E0,2.9200757E0,5.2721353E0,1.3540214E0,1.2318498E0,4.0402856E0,2.448158E0,1.5921273E0],"tree_param":{"num_deleted":"0","num_feature":"9","num_nodes":"9","size_leaf_vector":"0"}},{"base_weights":[-2.857903E-1,-5.3659543E-2,-7.049999E-1,-2.6265675E-1,2.8783697E-1,6.886347E-2,-6.2687206E-1,-1.1939507E-1,5.432153E-1,-1.3771291E-1,2.9570785E-1],"categories":[],"categories_nodes":[],"categories_segments":[],"categories_sizes":[],"default_left":[true,true,false,true,true,true,false,false,false,false,false],"id":18,"left_children":[1,3,-1,5,7,9,-1,-1,-1,-1,-1],"loss_changes":[8.9625454E-1,5.9378654E-1,0E0,6.501281E-1,4.011408E-1,2.0625976E-1,0E0,0E0,0E0,0E0,0E0],"parents":[2147483647,0,0,1,1,3,3,4,4,5,5],"right_children":[2,4,-1,6,8,10,-1,-1,-1,-1,-1],"split_conditions":[4.6899998E-1,8.333334E-1,-2.1149999E-1,-3.75E-1,-6.25E-1,2.135E-1,-1.8806162E-1,-3.581852E-2,1.6296458E-1,-4.1313875E-2,8.871236E-2],"split_indices":[5,4,0,3,3,6,0,0,0,0,0],"split_type":[0,0,0,0,0,0,0,0,0,0,0],"sum_hessian":[8.598918E0,6.2603498E0,2.3385684E0,4.0267987E0,2.2335508E0,2.5325336E0,1.4942648E0,1.066062E0,1.1674888E0,1.5311276E0,1.0014061E0],"tree_param":{"num_deleted":"0","num_feature":"9","num_nodes":"11","size_leaf_vector":"0"}},{"base_weights":[-2.4834594E-1,-4.7805813E-1,1.1849912E-1,-4.4146493E-2,-7.252845E-1,-1.4226544E-1,4.7601813E-1,-2.6136604E-1,2.0931764E-1,8.2825445E-2,-3.095639E-1],"categories":[],"categories_nodes":[],"categories_segments":[],"categories_sizes":[],"default_left":[true,true,true,true,false,true,false,false,false,false,false],"id":19,"left_children":[1,3,5,7,-1,9,-1,-1,-1,-1,-1],"loss_changes":[8.098088E-1,5.7887566E-1,4.6327886E-1,2.2713505E-1,0E0,1.4702201E-1,0E0,0E0,0E0,0E0,0E0],"parents":[2147483647,0,0,1,1,2,2,3,3,5,5],"right_children":[2,4,6,8,-1,10,-1,-1,-1,-1,-1],"split_conditions":[4.0714283E0,1.655E-1,8.05054E0,-4.578059E-1,-2.1758537E-1,5.2565246E0,1.4280544E-1,-7.840981E-2,6.27953E-2,2.4847634E-2,-9.286918E-2],"split_indices":[8,6,1,7,0,1,0,0,0,0,0],"split_type":[0,0,0,0,0,0,0,0,0,0,0],"sum_hessian":[7.937585E0,4.694689E0,3.2428958E0,2.1317616E0,2.5629272E0,2.2233334E0,1.0195625E0,1.1311699E0,1.0005918E0,1.1632153E0,1.0601181E0],"tree_param":{"num_deleted":"0","num_feature":"9","num_nodes":"11","size_leaf_vector":"0"}},{"base_weights":[-2.0957667E-1,2.5310138E-1,-3.60768E-1,-3.6831472E-2,-6.8615055E-1,-2.1008459E-1,1.0872821E-1],"categories":[],"categories_nodes":[],"categories_segments":[],"categories_sizes":[],"default_left":[true,false,true,true,false,false,false],"id":20,"left_children":[1,-1,3,5,-1,-1,-1],"loss_changes":[6.8441933E-1,0E0,6.917606E-1,1.3546048E-1,0E0,0E0,0E0],"parents":[2147483647,0,0,2,2,3,3],"right_children":[2,-1,4,6,-1,-1,-1],"split_conditions":[-1.113924E0,7.593042E-2,-3.75E-1,1.5E0,-2.0584518E-1,-6.302538E-2,3.2618463E-2],"split_indices":[7,0,3,2,0,0,0],"split_type":[0,0,0,0,0,0,0],"sum_hessian":[7.478683E0,1.6759297E0,5.802753E0,3.4656746E0,2.3370786E0,1.3799245E0,2.08575E0],"tree_param":{"num_deleted":"0","num_feature":"9","num_nodes":"7","size_leaf_vector":"0"}},{"base_weights":[-1.8035786E-1,-3.9201555E-1,1.364318E-1,-6.668309E-1,-5.361278E-3,-1.23821296E-1,3.2651967E-1,4.3842096E-2,-5.46691E-2],"categories":[],"categories_nodes":[],"categories_segments":[],"categories_sizes":[],"default_left":[true,true,true,false,true,false,false,false,false],"id":21,"left_children":[1,3,5,-1,7,-1,-1,-1,-1],"loss_changes":[5.92463E-1,5.3589416E-1,2.3640475E-1,0E0,9.959928E-3,0E0,0E0,0E0,0E0],"parents":[2147483647,0,0,1,1,2,2,4,4],"right_children":[2,4,6,-1,8,-1,-1,-1,-1],"split_conditions":[4.857143E0,1.5E0,2.41E-1,-2.0004928E-1,1.16E-1,-3.714639E-2,9.7955905E-2,1.3152629E-2,-1.640073E-2],"split_indices":[8,2,6,0,6,0,0,0,0],"split_type":[0,0,0,0,0,0,0,0,0],"sum_hessian":[7.0383577E0,4.0769496E0,2.9614084E0,1.9595658E0,2.1173835E0,1.3971511E0,1.5642573E0,1.1152976E0,1.002086E0],"tree_param":{"num_deleted":"0","num_feature":"9","num_nodes":"9","size_leaf_vector":"0"}},{"base_weights":[-1.547334E-1,5.076965E-3,-5.534635E-1,3.169994E-1,-1.4823441E-1,6.0412906E-2,-4.7629437E-1,2.7902898E-1,-1.6614105E-1],"categories":[],"categories_nodes":[],"categories_segments":[],"categories_sizes":[],"default_left":[true,true,false,false,true,true,false,false,false],"id":22,"left_children":[1,3,-1,-1,5,7,-1,-1,-1],"loss_changes":[4.9622363E-1,3.587227E-1,0E0,0E0,3.7457296E-1,2.4325351E-1,0E0,0E0,0E0],"parents":[2147483647,0,0,1,1,4,4,5,5],"right_children":[2,4,-1,-1,6,8,-1,-1,-1],"split_conditions":[4.6899998E-1,-1.1097046E0,-1.6603906E-1,9.509983E-2,-3.75E-1,5.0714283E0,-1.4288832E-1,8.3708696E-2,-4.9842317E-2],"split_indices":[5,7,0,0,3,8,0,0,0],"split_type":[0,0,0,0,0,0,0,0,0],"sum_hessian":[6.74332E0,5.518701E0,1.2246189E0,1.4667715E0,4.0519295E0,2.9754076E0,1.0765221E0,1.3963548E0,1.5790528E0],"tree_param":{"num_deleted":"0","num_feature":"9","num_nodes":"9","size_leaf_vector":"0"}},{"base_weights":[-1.4055276E-1,-3.4906963E-1,1.3684976E-1,-2.90138E-2,-6.021155E-1,3.445887E-1,-8.958665E-2,-2.0421831E-1,1.6392949E-1],"categories":[],"categories_nodes":[],"categories_segments":[],"categories_sizes":[],"default_left":[true,true,true,true,false,false,false,false,false],"id":23,"left_children":[1,3,5,7,-1,-1,-1,-1,-1],"loss_changes":[4.780361E-1,3.4925854E-1,2.1481282E-1,1.3658011E-1,0E0,0E0,0E0,0E0,0E0],"parents":[2147483647,0,0,1,1,2,2,3,3],"right_children":[2,4,6,8,-1,-1,-1,-1,-1],"split_conditions":[4.857143E0,1.655E-1,-5.3586495E-1,3.02E-1,-1.8063466E-1,1.0337661E-1,-2.6875997E-2,-6.1265495E-2,4.917885E-2],"split_indices":[8,6,7,5,0,0,0,0,0],"split_type":[0,0,0,0,0,0,0,0,0],"sum_hessian":[6.438501E0,3.528135E0,2.9103658E0,2.0499673E0,1.4781679E0,1.2457191E0,1.6646467E0,1.0437449E0,1.0062222E0],"tree_param":{"num_deleted":"0","num_feature":"9","num_nodes":"9","size_leaf_vector":"0"}},{"base_weights":[-1.2108862E-1,-2.509831E-1,2.2649916E-1,3.1496578E-1,-4.6651483E-1,-7.163972E-1,5.6154534E-2],"categories":[],"categories_nodes":[],"categories_segments":[],"categories_sizes":[],"default_left":[true,true,false,false,true,false,false],"id":24,"left_children":[1,3,-1,-1,5,-1,-1],"loss_changes":[3.8242412E-1,8.4511393E-1,0E0,0E0,6.3424426E-1,0E0,0E0],"parents":[2147483647,0,0,1,1,4,4],"right_children":[2,4,-1,-1,6,-1,-1],"split_conditions":[8.05054E0,-1.375E0,6.794975E-2,9.448974E-2,1.7E0,-2.1491918E-1,1.684636E-2],"split_indices":[1,3,0,0,2,0,0],"split_type":[0,0,0,0,0,0,0],"sum_hessian":[6.2110434E0,4.7237096E0,1.4873339E0,1.1755573E0,3.5481522E0,2.1497364E0,1.3984159E0],"tree_param":{"num_deleted":"0","num_feature":"9","num_nodes":"7","size_leaf_vector":"0"}},{"base_weights":[-1.0068173E-1,-3.0038378E-1,1.1057886E-1,-5.202842E-1,-2.296683E-2,-9.779475E-2,3.4426892E-1],"categories":[],"categories_nodes":[],"categories_segments":[],"categories_sizes":[],"default_left":[true,true,true,false,false,false,false],"id":25,"left_children":[1,3,5,-1,-1,-1,-1],"loss_changes":[3.2268074E-1,2.1962932E-1,2.3161209E-1,0E0,0E0,0E0,0E0],"parents":[2147483647,0,0,1,1,2,2],"right_children":[2,4,6,-1,-1,-1,-1],"split_conditions":[3.642857E0,1.5E0,8.05054E0,-1.5608525E-1,-6.890049E-3,-2.9338425E-2,1.0328068E-1],"split_indices":[8,2,1,0,0,0,0],"split_type":[0,0,0,0,0,0,0],"sum_hessian":[5.861112E0,2.796115E0,3.0649972E0,1.0713934E0,1.7247217E0,1.9276742E0,1.137323E0],"tree_param":{"num_deleted":"0","num_feature":"9","num_nodes":"7","size_leaf_vector":"0"}},{"base_weights":[-8.728381E-2,1.954789E-1,-2.0375815E-1,3.0754212E-2,-5.2158874E-1,2.1227604E-1,-1.5417051E-1],"categories":[],"categories_nodes":[],"categories_segments":[],"categories_sizes":[],"default_left":[true,false,true,true,false,false,false],"id":26,"left_children":[1,-1,3,5,-1,-1,-1],"loss_changes":[2.6161486E-1,0E0,4.0802908E-1,1.6600877E-1,0E0,0E0,0E0],"parents":[2147483647,0,0,2,2,3,3],"right_children":[2,-1,4,6,-1,-1,-1],"split_conditions":[-1.113924E0,5.8643673E-2,-3.75E-1,5.0714283E0,-1.5647663E-1,6.368282E-2,-4.6251155E-2],"split_indices":[7,0,3,8,0,0,0],"split_type":[0,0,0,0,0,0,0],"sum_hessian":[5.7340856E0,1.4749864E0,4.259099E0,2.9705245E0,1.2885743E0,1.4244155E0,1.5461092E0],"tree_param":{"num_deleted":"0","num_feature":"9","num_nodes":"7","size_leaf_vector":"0"}},{"base_weights":[-7.706667E-2,-2.657049E-1,1.3345423E-1,-2.5752837E-2,-4.6399352E-1,-9.547271E-2,2.8256547E-1],"categories":[],"categories_nodes":[],"categories_segments":[],"categories_sizes":[],"default_left":[true,true,true,false,false,false,false],"id":27,"left_children":[1,3,5,-1,-1,-1,-1],"loss_changes":[2.963672E-1,1.6882554E-1,1.5568715E-1,0E0,0E0,0E0,0E0],"parents":[2147483647,0,0,1,1,2,2],"right_children":[2,4,6,-1,-1,-1,-1],"split_conditions":[4.857143E0,1.4050001E-1,2.41E-1,-7.725851E-3,-1.3919806E-1,-2.8641814E-2,8.4769644E-2],"split_indices":[8,6,6,0,0,0,0],"split_type":[0,0,0,0,0,0,0],"sum_hessian":[5.5699506E0,2.7994025E0,2.7705483E0,1.7778614E0,1.0215412E0,1.234686E0,1.5358622E0],"tree_param":{"num_deleted":"0","num_feature":"9","num_nodes":"7","size_leaf_vector":"0"}},{"base_weights":[-7.026677E-2,4.748529E-2,-3.5641643E-1,-1.9060831E-1,4.5218652E-1,-4.4870055E-1,2.4200685E-1],"categories":[],"categories_nodes":[],"categories_segments":[],"categories_sizes":[],"default_left":[true,true,false,true,false,false,false],"id":28,"left_children":[1,3,-1,5,-1,-1,-1],"loss_changes":[2.3578203E-1,6.1462283E-1,0E0,5.7265335E-1,0E0,0E0,0E0],"parents":[2147483647,0,0,1,1,3,3],"right_children":[2,4,-1,6,-1,-1,-1],"split_conditions":[8.068662E0,6.2021475E0,-1.06924936E-1,7.3571424E0,1.3565597E-1,-1.3461018E-1,7.2602056E-2],"split_indices":[1,1,0,8,0,0,0],"split_type":[0,0,0,0,0,0,0],"sum_hessian":[5.4953074E0,4.4841223E0,1.0111849E0,3.1562524E0,1.3278698E0,1.9535874E0,1.2026651E0],"tree_param":{"num_deleted":"0","num_feature":"9","num_nodes":"7","size_leaf_vector":"0"}},{"base_weights":[-5.7712153E-2,-1.8393385E-1,1.3916115E-1,1.4341739E-1,-4.1059044E-1,-6.7279036E-3,2.1565944E-1],"categories":[],"categories_nodes":[],"categories_segments":[],"categories_sizes":[],"default_left":[true,true,true,false,false,false,false],"id":29,"left_children":[1,3,5,-1,-1,-1,-1],"loss_changes":[1.8360381E-1,3.7831503E-1,3.5526976E-2,0E0,0E0,0E0,0E0],"parents":[2147483647,0,0,1,1,2,2],"right_children":[2,4,6,-1,-1,-1,-1],"split_conditions":[8.333334E-1,5.2550354E0,3.15E-1,4.3025218E-2,-1.2317713E-1,-2.0183711E-3,6.469783E-2],"split_indices":[4,1,5,0,0,0,0],"split_type":[0,0,0,0,0,0,0],"sum_hessian":[5.3585258E0,3.3051891E0,2.0533366E0,1.5024736E0,1.8027157E0,1.0200541E0,1.0332825E0],"tree_param":{"num_deleted":"0","num_feature":"9","num_nodes":"7","size_leaf_vector":"0"}},{"base_weights":[-4.577285E-2,-1.5727644E-1,1.998102E-1,-5.446824E-1,1.1323339E-1,3.1103358E-1,-1.6548936E-1],"categories":[],"categories_nodes":[],"categories_segments":[],"categories_sizes":[],"default_left":[true,true,false,false,true,false,false],"id":30,"left_children":[1,3,-1,-1,5,-1,-1],"loss_changes":[2.0200339E-1,5.692783E-1,0E0,0E0,2.543578E-1,0E0,0E0],"parents":[2147483647,0,0,1,1,4,4],"right_children":[2,4,-1,-1,6,-1,-1],"split_conditions":[8.05054E0,1.5E0,5.9943065E-2,-1.6340472E-1,5.3547354E0,9.331007E-2,-4.964681E-2],"split_indices":[1,2,0,0,1,0,0],"split_type":[0,0,0,0,0,0,0],"sum_hessian":[5.229249E0,3.8436654E0,1.3855835E0,1.1636393E0,2.680026E0,1.499767E0,1.180259E0],"tree_param":{"num_deleted":"0","num_feature":"9","num_nodes":"7","size_leaf_vector":"0"}},{"base_weights":[-4.5080114E-2,1.6940288E-1,-1.453203E-1,-3.5088485E-1,3.4047127E-2,3.010846E-1,-2.7798364E-1],"categories":[],"categories_nodes":[],"categories_segments":[],"categories_sizes":[],"default_left":[true,false,true,false,true,false,false],"id":31,"left_children":[1,-1,3,-1,5,-1,-1],"loss_changes":[1.5600038E-1,0E0,1.8534654E-1,0E0,3.6891282E-1,0E0,0E0],"parents":[2147483647,0,0,2,2,4,4],"right_children":[2,-1,4,-1,6,-1,-1],"split_conditions":[-1.113924E0,5.082087E-2,-2.5527427E-1,-1.0526546E-1,5.214286E0,9.0325385E-2,-8.339509E-2],"split_indices":[7,0,7,0,8,0,0],"split_type":[0,0,0,0,0,0,0],"sum_hessian":[5.1108766E0,1.4080707E0,3.7028058E0,1.2798241E0,2.4229815E0,1.3245261E0,1.0984555E0],"tree_param":{"num_deleted":"0","num_feature":"9","num_nodes":"7","size_leaf_vector":"0"}},{"base_weights":[-4.1288625E-2,-2.1442315E-1,1.2630017E-1,-3.4564596E-1,3.7457887E-2,-4.0898714E-2,2.7289265E-1],"categories":[],"categories_nodes":[],"categories_segments":[],"categories_sizes":[],"default_left":[true,true,true,false,false,false,false],"id":32,"left_children":[1,3,5,-1,-1,-1,-1],"loss_changes":[2.0124961E-1,1.22785166E-1,1.013451E-1,0E0,0E0,0E0,0E0],"parents":[2147483647,0,0,1,1,2,2],"right_children":[2,4,6,-1,-1,-1,-1],"split_conditions":[4.0714283E0,1.9E0,9.95E1,-1.0369379E-1,1.1237366E-2,-1.2269615E-2,8.18678E-2],"split_indices":[8,2,0,0,0,0,0],"split_type":[0,0,0,0,0,0,0],"sum_hessian":[5.002602E0,2.3231332E0,2.6794686E0,1.2826504E0,1.040483E0,1.5885832E0,1.0908854E0],"tree_param":{"num_deleted":"0","num_feature":"9","num_nodes":"7","size_leaf_vector":"0"}},{"base_weights":[-3.4078714E-2,-2.299885E-1,7.8797616E-2,3.600338E-1,-1.16563424E-1,-3.3258194E-1,1.8483649E-1],"categories":[],"categories_nodes":[],"categories_segments":[],"categories_sizes":[],"default_left":[true,false,true,false,true,false,false],"id":33,"left_children":[1,-1,3,-1,5,-1,-1],"loss_changes":[1.4894684E-1,0E0,2.8911173E-1,0E0,2.834785E-1,0E0,0E0],"parents":[2147483647,0,0,2,2,4,4],"right_children":[2,-1,4,-1,6,-1,-1],"split_conditions":[3.14E-1,-6.8996556E-2,1.645E-1,1.0801015E-1,3.2099998E-1,-9.9774584E-2,5.545095E-2],"split_indices":[5,0,6,0,6,0,0],"split_type":[0,0,0,0,0,0,0],"sum_hessian":[4.916016E0,1.4177765E0,3.4982398E0,1.088439E0,2.4098008E0,1.3434615E0,1.0663394E0],"tree_param":{"num_deleted":"0","num_feature":"9","num_nodes":"7","size_leaf_vector":"0"}},{"base_weights":[-2.5929367E-2,-1.9224468E-1,1.2833257E-1,-3.2514635E-1,4.438764E-2,-6.972972E-2,2.5348637E-1],"categories":[],"categories_nodes":[],"categories_segments":[],"categories_sizes":[],"default_left":[true,true,true,false,false,false,false],"id":34,"left_children":[1,3,5,-1,-1,-1,-1],"loss_changes":[1.7444983E-1,1.15368456E-1,1.0761711E-1,0E0,0E0,0E0,0E0],"parents":[2147483647,0,0,1,1,2,2],"right_children":[2,4,6,-1,-1,-1,-1],"split_conditions":[4.0714283E0,-2.5527427E-1,2.41E-1,-9.754391E-2,1.3316292E-2,-2.0918917E-2,7.6045915E-2],"split_indices":[8,7,6,0,0,0,0],"split_type":[0,0,0,0,0,0,0],"sum_hessian":[4.8379273E0,2.2095308E0,2.6283967E0,1.1753516E0,1.0341792E0,1.1892288E0,1.4391679E0],"tree_param":{"num_deleted":"0","num_feature":"9","num_nodes":"7","size_leaf_vector":"0"}},{"base_weights":[-2.3670375E-2,1.7973155E-1,-1.158066E-1,-4.166521E-1,1.8333502E-1],"categories":[],"categories_nodes":[],"categories_segments":[],"categories_sizes":[],"default_left":[true,false,true,false,false],"id":35,"left_children":[1,-1,3,-1,-1],"loss_changes":[1.3028593E-1,0E0,4.9292612E-1,0E0,0E0],"parents":[2147483647,0,0,2,2],"right_children":[2,-1,4,-1,-1],"split_conditions":[-1.375E0,5.3919468E-2,5.880512E0,-1.2499564E-1,5.500051E-2],"split_indices":[3,0,1,0,0],"split_type":[0,0,0,0,0],"sum_hessian":[4.8413997E0,1.2129499E0,3.6284494E0,1.6132176E0,2.0152318E0],"tree_param":{"num_deleted":"0","num_feature":"9","num_nodes":"5","size_leaf_vector":"0"}},{"base_weights":[-2.1208556E-2,1.5970187E-1,-1.379514E-1,-2.9903904E-1,1.7431955E-1],"categories":[],"categories_nodes":[],"categories_segments":[],"categories_sizes":[],"default_left":[true,false,true,false,false],"id":36,"left_children":[1,-1,3,-1,-1],"loss_changes":[1.4313349E-1,0E0,2.5442728E-1,0E0,0E0],"parents":[2147483647,0,0,2,2],"right_children":[2,-1,4,-1,-1],"split_conditions":[5.3211865E0,4.7910564E-2,3.055E-1,-8.971171E-2,5.2295867E-2],"split_indices":[1,0,6,0,0],"split_type":[0,0,0,0,0],"sum_hessian":[4.734015E0,1.7124064E0,3.0216086E0,2.0212848E0,1.0003238E0],"tree_param":{"num_deleted":"0","num_feature":"9","num_nodes":"5","size_leaf_vector":"0"}},{"base_weights":[-1.3536245E-2,-1.4774382E-1,1.0799824E-1,-3.0626234E-1,9.147647E-2,2.6385707E-1,-6.2288642E-2],"categories":[],"categories_nodes":[],"categories_segments":[],"categories_sizes":[],"default_left":[true,true,true,false,false,false,false],"id":37,"left_children":[1,3,5,-1,-1,-1,-1],"loss_changes":[1.0956861E-1,1.4745626E-1,1.117045E-1,0E0,0E0,0E0,0E0],"parents":[2147483647,0,0,1,1,2,2],"right_children":[2,4,6,-1,-1,-1,-1],"split_conditions":[4.0714283E0,1.9E0,5.321557E0,-9.1878705E-2,2.7442941E-2,7.915712E-2,-1.8686593E-2],"split_indices":[8,2,1,0,0,0,0],"split_type":[0,0,0,0,0,0,0],"sum_hessian":[4.7392807E0,2.1497312E0,2.5895493E0,1.1243994E0,1.0253317E0,1.0651561E0,1.5243933E0],"tree_param":{"num_deleted":"0","num_feature":"9","num_nodes":"7","size_leaf_vector":"0"}},{"base_weights":[-1.0946088E-2,-1.14342935E-1,1.2927252E-1,1.3438526E-1,-3.0939963E-1],"categories":[],"categories_nodes":[],"categories_segments":[],"categories_sizes":[],"default_left":[true,true,false,false,false],"id":38,"left_children":[1,3,-1,-1,-1],"loss_changes":[9.693331E-2,2.2555432E-1,0E0,0E0,0E0],"parents":[2147483647,0,0,1,1],"right_children":[2,4,-1,-1,-1],"split_conditions":[8.333334E-1,5.2550354E0,3.878176E-2,4.031558E-2,-9.281989E-2],"split_indices":[4,1,0,0,0],"split_type":[0,0,0,0,0],"sum_hessian":[4.666367E0,2.7920525E0,1.8743144E0,1.363904E0,1.4281486E0],"tree_param":{"num_deleted":"0","num_feature":"9","num_nodes":"5","size_leaf_vector":"0"}},{"base_weights":[-1.1069922E-2,-1.9724746E-1,7.66296E-2,3.0132374E-1,-1.0056649E-1,-2.8300977E-1,1.561542E-1],"categories":[],"categories_nodes":[],"categories_segments":[],"categories_sizes":[],"default_left":[true,false,true,false,true,false,false],"id":39,"left_children":[1,-1,3,-1,5,-1,-1],"loss_changes":[1.06270865E-1,0E0,2.1008253E-1,0E0,1.975507E-1,0E0,0E0],"parents":[2147483647,0,0,2,2,4,4],"right_children":[2,-1,4,-1,6,-1,-1],"split_conditions":[2.82E-1,-5.917424E-2,1.645E-1,9.039713E-2,8.05054E0,-8.4902935E-2,4.6846263E-2],"split_indices":[5,0,6,0,1,0,0],"split_type":[0,0,0,0,0,0,0],"sum_hessian":[4.5829034E0,1.0675248E0,3.5153787E0,1.2410946E0,2.2742844E0,1.2696096E0,1.0046747E0],"tree_param":{"num_deleted":"0","num_feature":"9","num_nodes":"7","size_leaf_vector":"0"}},{"base_weights":[-9.67851E-3,-1.4662786E-1,1.097218E-1,-9.001291E-2,2.4044773E-1],"categories":[],"categories_nodes":[],"categories_segments":[],"categories_sizes":[],"default_left":[true,false,true,false,false],"id":40,"left_children":[1,-1,3,-1,-1],"loss_changes":[1.0624377E-1,0E0,1.1348578E-1,0E0,0E0],"parents":[2147483647,0,0,2,2],"right_children":[2,-1,4,-1,-1],"split_conditions":[4.0714283E0,-4.398836E-2,2.41E-1,-2.7003873E-2,7.213432E-2],"split_indices":[8,0,6,0,0],"split_type":[0,0,0,0,0],"sum_hessian":[4.513492E0,1.9960425E0,2.5174496E0,1.1190711E0,1.3983785E0],"tree_param":{"num_deleted":"0","num_feature":"9","num_nodes":"5","size_leaf_vector":"0"}},{"base_weights":[-6.8818233E-3,-1.319087E-1,9.840483E-2,-1.5411445E-1,2.6525405E-1],"categories":[],"categories_nodes":[],"categories_segments":[],"categories_sizes":[],"default_left":[true,false,true,false,false],"id":41,"left_children":[1,-1,3,-1,-1],"loss_changes":[8.569056E-2,0E0,1.9134447E-1,0E0,0E0],"parents":[2147483647,0,0,2,2],"right_children":[2,-1,4,-1,-1],"split_conditions":[-5.590717E-1,-3.957261E-2,1.5E0,-4.623434E-2,7.957622E-2],"split_indices":[7,0,2,0,0],"split_type":[0,0,0,0,0],"sum_hessian":[4.5235476E0,1.9523263E0,2.5712214E0,1.0533481E0,1.5178732E0],"tree_param":{"num_deleted":"0","num_feature":"9","num_nodes":"5","size_leaf_vector":"0"}},{"base_weights":[-6.212979E-3,1.5743887E-1,-9.5976606E-2,9.235945E-2,-2.4056372E-1],"categories":[],"categories_nodes":[],"categories_segments":[],"categories_sizes":[],"default_left":[true,false,true,false,false],"id":42,"left_children":[1,-1,3,-1,-1],"loss_changes":[9.5504366E-2,0E0,1.3537544E-1,0E0,0E0],"parents":[2147483647,0,0,2,2],"right_children":[2,-1,4,-1,-1],"split_conditions":[-1.113924E0,4.7231663E-2,5.0714283E0,2.7707838E-2,-7.216912E-2],"split_indices":[7,0,8,0,0],"split_type":[0,0,0,0,0],"sum_hessian":[4.472703E0,1.317247E0,3.1554558E0,1.527277E0,1.6281787E0],"tree_param":{"num_deleted":"0","num_feature":"9","num_nodes":"5","size_leaf_vector":"0"}},{"base_weights":[-4.2874017E-3,-1.4150402E-1,1.14010684E-1,-6.0399383E-2,2.175892E-1],"categories":[],"categories_nodes":[],"categories_segments":[],"categories_sizes":[],"default_left":[true,false,true,false,false],"id":43,"left_children":[1,-1,3,-1,-1],"loss_changes":[1.04107924E-1,0E0,7.5725034E-2,0E0,0E0],"parents":[2147483647,0,0,2,2],"right_children":[2,-1,4,-1,-1],"split_conditions":[4.0714283E0,-4.2451207E-2,2.41E-1,-1.8119816E-2,6.5276764E-2],"split_indices":[8,0,6,0,0],"split_type":[0,0,0,0,0],"sum_hessian":[4.419692E0,1.9554068E0,2.4642854E0,1.0735193E0,1.3907659E0],"tree_param":{"num_deleted":"0","num_feature":"9","num_nodes":"5","size_leaf_vector":"0"}},{"base_weights":[-2.3852289E-3,1.0835429E-1,-1.1394479E-1,-1.394588E-1,2.8635016E-1,1.0946311E-1,-2.8586543E-1],"categories":[],"categories_nodes":[],"categories_segments":[],"categories_sizes":[],"default_left":[true,true,true,false,false,false,false],"id":44,"left_children":[1,3,5,-1,-1,-1,-1],"loss_changes":[7.941849E-2,1.827245E-1,1.5389103E-1,0E0,0E0,0E0,0E0],"parents":[2147483647,0,0,1,1,2,2],"right_children":[2,4,6,-1,-1,-1,-1],"split_conditions":[1.645E-1,2.82E-1,1.6666667E-1,-4.1837644E-2,8.590505E-2,3.2838933E-2,-8.575963E-2],"split_indices":[6,5,4,0,0,0,0],"split_type":[0,0,0,0,0,0,0],"sum_hessian":[4.429156E0,2.2371662E0,2.19199E0,1.0256792E0,1.2114869E0,1.1112423E0,1.0807476E0],"tree_param":{"num_deleted":"0","num_feature":"9","num_nodes":"7","size_leaf_vector":"0"}},{"base_weights":[-3.7928172E-3,-1.1298485E-1,1.3756323E-1,1.0447002E-1,-2.802059E-1],"categories":[],"categories_nodes":[],"categories_segments":[],"categories_sizes":[],"default_left":[true,true,false,false,false],"id":45,"left_children":[1,3,-1,-1,-1],"loss_changes":[9.844937E-2,1.5943484E-1,0E0,0E0,0E0],"parents":[2147483647,0,0,1,1],"right_children":[2,4,-1,-1,-1],"split_conditions":[8.333334E-1,5.2550354E0,4.126897E-2,3.134101E-2,-8.406177E-2],"split_indices":[4,1,0,0,0],"split_type":[0,0,0,0,0],"sum_hessian":[4.3713675E0,2.5795066E0,1.791861E0,1.2844548E0,1.2950517E0],"tree_param":{"num_deleted":"0","num_feature":"9","num_nodes":"5","size_leaf_vector":"0"}},{"base_weights":[-5.4535274E-3,-1.2560287E-1,1.447324E-1,-3.4974828E-1,2.1197975E-1],"categories":[],"categories_nodes":[],"categories_segments":[],"categories_sizes":[],"default_left":[true,true,false,false,false],"id":46,"left_children":[1,3,-1,-1,-1],"loss_changes":[1.1384235E-1,3.375106E-1,0E0,0E0,0E0],"parents":[2147483647,0,0,1,1],"right_children":[2,4,-1,-1,-1],"split_conditions":[6.2021475E0,7.3571424E0,4.3419722E-2,-1.0492449E-1,6.3593924E-2],"split_indices":[1,8,0,0,0],"split_type":[0,0,0,0,0],"sum_hessian":[4.301464E0,2.4806323E0,1.8208315E0,1.4691322E0,1.0115001E0],"tree_param":{"num_deleted":"0","num_feature":"9","num_nodes":"5","size_leaf_vector":"0"}},{"base_weights":[-4.170189E-3,-1.02422915E-1,1.15905665E-1,-2.9600593E-1,1.7938988E-1],"categories":[],"categories_nodes":[],"categories_segments":[],"categories_sizes":[],"default_left":[true,true,false,false,false],"id":47,"left_children":[1,3,-1,-1,-1],"loss_changes":[7.3954485E-2,2.3994893E-1,0E0,0E0,0E0],"parents":[2147483647,0,0,1,1],"right_children":[2,4,-1,-1,-1],"split_conditions":[6.2021475E0,7.3571424E0,3.47717E-2,-8.880179E-2,5.3816967E-2],"split_indices":[1,8,0,0,0],"split_type":[0,0,0,0,0],"sum_hessian":[4.2622685E0,2.4250076E0,1.8372611E0,1.4076797E0,1.017328E0],"tree_param":{"num_deleted":"0","num_feature":"9","num_nodes":"5","size_leaf_vector":"0"}},{"base_weights":[-3.4681645E-3,1.1072222E-1,-1.16514266E-1,2.9597783E-1,-1.2537625E-1,-2.63396E-1,9.514367E-2],"categories":[],"categories_nodes":[],"categories_segments":[],"categories_sizes":[],"default_left":[true,true,true,false,false,false,false],"id":48,"left_children":[1,3,5,-1,-1,-1,-1],"loss_changes":[8.045025E-2,1.7339742E-1,1.21959195E-1,0E0,0E0,0E0,0E0],"parents":[2147483647,0,0,1,1,2,2],"right_children":[2,4,6,-1,-1,-1,-1],"split_conditions":[1.645E-1,2.857143E-1,8.027224E0,8.879335E-2,-3.7612878E-2,-7.90188E-2,2.8543102E-2],"split_indices":[6,8,1,0,0,0,0],"split_type":[0,0,0,0,0,0,0],"sum_hessian":[4.2328367E0,2.1159875E0,2.1168492E0,1.0435454E0,1.0724422E0,1.1053445E0,1.0115047E0],"tree_param":{"num_deleted":"0","num_feature":"9","num_nodes":"7","size_leaf_vector":"0"}},{"base_weights":[-2.6329912E-3,1.2775718E-1,-9.348959E-2,1.3542496E-1,-3.264419E-1],"categories":[],"categories_nodes":[],"categories_segments":[],"categories_sizes":[],"default_left":[true,false,true,false,false],"id":49,"left_children":[1,-1,3,-1,-1],"loss_changes":[7.313289E-2,0E0,2.3732409E-1,0E0,0E0],"parents":[2147483647,0,0,2,2],"right_children":[2,-1,4,-1,-1],"split_conditions":[5.3211865E0,3.8327154E-2,5.0714283E0,4.0627487E-2,-9.793258E-2],"split_indices":[1,0,8,0,0],"split_type":[0,0,0,0,0],"sum_hessian":[4.165014E0,1.5436087E0,2.6214054E0,1.5333203E0,1.088085E0],"tree_param":{"num_deleted":"0","num_feature":"9","num_nodes":"5","size_leaf_vector":"0"}},{"base_weights":[-6.2190313E-3,-1.296483E-1,9.8122045E-2,1.6656832E-1,-7.1572214E-3],"categories":[],"categories_nodes":[],"categories_segments":[],"categories_sizes":[],"default_left":[true,false,true,false,false],"id":50,"left_children":[1,-1,3,-1,-1],"loss_changes":[7.86547E-2,0E0,2.5285345E-2,0E0,0E0],"parents":[2147483647,0,0,2,2],"right_children":[2,-1,4,-1,-1],"split_conditions":[4.0714283E0,-3.889449E-2,-5.3586495E-1,4.99705E-2,-2.1471665E-3],"split_indices":[8,0,7,0,0],"split_type":[0,0,0,0,0],"sum_hessian":[4.119548E0,1.7760469E0,2.3435009E0,1.0673906E0,1.2761104E0],"tree_param":{"num_deleted":"0","num_feature":"9","num_nodes":"5","size_leaf_vector":"0"}},{"base_weights":[-2.6881506E-3,-1.1962195E-1,9.74651E-2,2.6992425E-1,-1.1184519E-1],"categories":[],"categories_nodes":[],"categories_segments":[],"categories_sizes":[],"default_left":[true,false,true,false,false],"id":51,"left_children":[1,-1,3,-1,-1],"loss_changes":[7.148639E-2,0E0,1.494101E-1,0E0,0E0],"parents":[2147483647,0,0,2,2],"right_children":[2,-1,4,-1,-1],"split_conditions":[-5.590717E-1,-3.5886586E-2,5.0714283E0,8.0977276E-2,-3.355356E-2],"split_indices":[7,0,8,0,0],"split_type":[0,0,0,0,0],"sum_hessian":[4.1085215E0,1.8057876E0,2.3027341E0,1.103734E0,1.199E0],"tree_param":{"num_deleted":"0","num_feature":"9","num_nodes":"5","size_leaf_vector":"0"}},{"base_weights":[1.9096854E-4,1.4911638E-1,-8.6414434E-2,7.82603E-2,-1.9958924E-1],"categories":[],"categories_nodes":[],"categories_segments":[],"categories_sizes":[],"default_left":[true,false,true,false,false],"id":52,"left_children":[1,-1,3,-1,-1],"loss_changes":[7.8520924E-2,0E0,8.738726E-2,0E0,0E0],"parents":[2147483647,0,0,2,2],"right_children":[2,-1,4,-1,-1],"split_conditions":[-1.113924E0,4.4734918E-2,5.2550354E0,2.3478093E-2,-5.9876774E-2],"split_indices":[7,0,1,0,0],"split_type":[0,0,0,0,0],"sum_hessian":[4.0888824E0,1.2380898E0,2.8507926E0,1.2868562E0,1.5639364E0],"tree_param":{"num_deleted":"0","num_feature":"9","num_nodes":"5","size_leaf_vector":"0"}},{"base_weights":[1.5158555E-3,-1.5891498E-1,8.942717E-2,-7.211964E-2,2.4479336E-1],"categories":[],"categories_nodes":[],"categories_segments":[],"categories_sizes":[],"default_left":[true,false,true,false,false],"id":53,"left_children":[1,-1,3,-1,-1],"loss_changes":[8.540616E-2,0E0,1.155633E-1,0E0,0E0],"parents":[2147483647,0,0,2,2],"right_children":[2,-1,4,-1,-1],"split_conditions":[5.25009E0,-4.7674496E-2,-7.172996E-2,-2.1635892E-2,7.343801E-2],"split_indices":[1,0,7,0,0],"split_type":[0,0,0,0,0],"sum_hessian":[4.0479603E0,1.1470379E0,2.9009223E0,1.6848528E0,1.2160695E0],"tree_param":{"num_deleted":"0","num_feature":"9","num_nodes":"5","size_leaf_vector":"0"}},{"base_weights":[1.6634349E-3,-1.16225176E-1,9.971161E-2,1.6626464E-1,-5.894925E-3],"categories":[],"categories_nodes":[],"categories_segments":[],"categories_sizes":[],"default_left":[true,false,true,false,false],"id":54,"left_children":[1,-1,3,-1,-1],"loss_changes":[6.976336E-2,0E0,2.4074938E-2,0E0,0E0],"parents":[2147483647,0,0,2,2],"right_children":[2,-1,4,-1,-1],"split_conditions":[4.0714283E0,-3.4867555E-2,-5.3586495E-1,4.9879394E-2,-1.7684776E-3],"split_indices":[8,0,7,0,0],"split_type":[0,0,0,0,0],"sum_hessian":[4.0329223E0,1.7470098E0,2.2859128E0,1.0498936E0,1.2360191E0],"tree_param":{"num_deleted":"0","num_feature":"9","num_nodes":"5","size_leaf_vector":"0"}},{"base_weights":[3.7417922E-3,-1.2104927E-1,8.928694E-2,2.5812596E-1,-1.0906302E-1],"categories":[],"categories_nodes":[],"categories_segments":[],"categories_sizes":[],"default_left":[true,false,true,false,false],"id":55,"left_children":[1,-1,3,-1,-1],"loss_changes":[6.443533E-2,0E0,1.472367E-1,0E0,0E0],"parents":[2147483647,0,0,2,2],"right_children":[2,-1,4,-1,-1],"split_conditions":[1.5E0,-3.631478E-2,5.3547354E0,7.743779E-2,-3.2718908E-2],"split_indices":[2,0,1,0,0],"split_type":[0,0,0,0,0],"sum_hessian":[4.0235E0,1.4675875E0,2.5559127E0,1.217872E0,1.3380407E0],"tree_param":{"num_deleted":"0","num_feature":"9","num_nodes":"5","size_leaf_vector":"0"}},{"base_weights":[4.1838023E-3,-1.5872456E-1,9.2440635E-2,-4.76125E-2,2.1843325E-1],"categories":[],"categories_nodes":[],"categories_segments":[],"categories_sizes":[],"default_left":[true,false,true,false,false],"id":56,"left_children":[1,-1,3,-1,-1],"loss_changes":[8.6451374E-2,0E0,7.8689516E-2,0E0,0E0],"parents":[2147483647,0,0,2,2],"right_children":[2,-1,4,-1,-1],"split_conditions":[5.25009E0,-4.7617372E-2,-7.172996E-2,-1.428375E-2,6.552998E-2],"split_indices":[1,0,7,0,0],"split_type":[0,0,0,0,0],"sum_hessian":[3.992342E0,1.1223041E0,2.870038E0,1.6537895E0,1.2162484E0],"tree_param":{"num_deleted":"0","num_feature":"9","num_nodes":"5","size_leaf_vector":"0"}},{"base_weights":[3.4813974E-3,1.5556495E-1,-8.735731E-2,8.372186E-2,-2.1899322E-1],"categories":[],"categories_nodes":[],"categories_segments":[],"categories_sizes":[],"default_left":[true,false,true,false,false],"id":57,"left_children":[1,-1,3,-1,-1],"loss_changes":[8.237068E-2,0E0,1.0295043E-1,0E0,0E0],"parents":[2147483647,0,0,2,2],"right_children":[2,-1,4,-1,-1],"split_conditions":[-1.113924E0,4.6669487E-2,5.0714283E0,2.511656E-2,-6.569797E-2],"split_indices":[7,0,8,0,0],"split_type":[0,0,0,0,0],"sum_hessian":[3.9786885E0,1.2213482E0,2.7573404E0,1.3573128E0,1.4000275E0],"tree_param":{"num_deleted":"0","num_feature":"9","num_nodes":"5","size_leaf_vector":"0"}},{"base_weights":[3.3967402E-3,-1.4668861E-1,8.650174E-2,2.0610161E-1,-1.004894E-1],"categories":[],"categories_nodes":[],"categories_segments":[],"categories_sizes":[],"default_left":[true,false,true,false,false],"id":58,"left_children":[1,-1,3,-1,-1],"loss_changes":[7.430309E-2,0E0,1.0588341E-1,0E0,0E0],"parents":[2147483647,0,0,2,2],"right_children":[2,-1,4,-1,-1],"split_conditions":[3.14E-1,-4.4006586E-2,7.0714283E0,6.1830487E-2,-3.014682E-2],"split_indices":[5,0,8,0,0],"split_type":[0,0,0,0,0],"sum_hessian":[3.9398735E0,1.1314343E0,2.8084393E0,1.6505466E0,1.1578926E0],"tree_param":{"num_deleted":"0","num_feature":"9","num_nodes":"5","size_leaf_vector":"0"}},{"base_weights":[-3.0243996E-4,-1.2195809E-1,1.0459078E-1,1.5920104E-1,5.8409907E-3],"categories":[],"categories_nodes":[],"categories_segments":[],"categories_sizes":[],"default_left":[true,false,true,false,false],"id":59,"left_children":[1,-1,3,-1,-1],"loss_changes":[7.577061E-2,0E0,1.6273472E-2,0E0,0E0],"parents":[2147483647,0,0,2,2],"right_children":[2,-1,4,-1,-1],"split_conditions":[4.0714283E0,-3.658743E-2,-5.3586495E-1,4.7760315E-2,1.7522973E-3],"split_indices":[8,0,7,0,0],"split_type":[0,0,0,0,0],"sum_hessian":[3.9381437E0,1.7480543E0,2.1900895E0,1.016038E0,1.1740516E0],"tree_param":{"num_deleted":"0","num_feature":"9","num_nodes":"5","size_leaf_vector":"0"}},{"base_weights":[2.3470626E-3,-1.2922654E-1,9.2382945E-2,2.3734753E-1,-8.6518794E-2],"categories":[],"categories_nodes":[],"categories_segments":[],"categories_sizes":[],"default_left":[true,false,true,false,false],"id":60,"left_children":[1,-1,3,-1,-1],"loss_changes":[7.032642E-2,0E0,1.11550234E-1,0E0,0E0],"parents":[2147483647,0,0,2,2],"right_children":[2,-1,4,-1,-1],"split_conditions":[1.5E0,-3.8767964E-2,5.3547354E0,7.120426E-2,-2.595564E-2],"split_indices":[2,0,1,0,0],"split_type":[0,0,0,0,0],"sum_hessian":[3.9287848E0,1.419348E0,2.509437E0,1.2057346E0,1.3037024E0],"tree_param":{"num_deleted":"0","num_feature":"9","num_nodes":"5","size_leaf_vector":"0"}},{"base_weights":[2.8361029E-3,-1.5656652E-1,9.017466E-2,-5.8543645E-2,1.9400963E-1],"categories":[],"categories_nodes":[],"categories_segments":[],"categories_sizes":[],"default_left":[true,false,true,false,false],"id":61,"left_children":[1,-1,3,-1,-1],"loss_changes":[8.230956E-2,0E0,7.0020646E-2,0E0,0E0],"parents":[2147483647,0,0,2,2],"right_children":[2,-1,4,-1,-1],"split_conditions":[5.25009E0,-4.6969958E-2,8.333334E-1,-1.7563093E-2,5.8202893E-2],"split_indices":[1,0,4,0,0],"split_type":[0,0,0,0,0],"sum_hessian":[3.8980932E0,1.0992324E0,2.7988608E0,1.3300596E0,1.468801E0],"tree_param":{"num_deleted":"0","num_feature":"9","num_nodes":"5","size_leaf_vector":"0"}},{"base_weights":[6.604726E-4,-1.1776617E-1,1.0176167E-1,2.293288E-1,-7.468413E-2],"categories":[],"categories_nodes":[],"categories_segments":[],"categories_sizes":[],"default_left":[true,false,true,false,false],"id":62,"left_children":[1,-1,3,-1,-1],"loss_changes":[7.0095286E-2,0E0,8.8135794E-2,0E0,0E0],"parents":[2147483647,0,0,2,2],"right_children":[2,-1,4,-1,-1],"split_conditions":[-5.590717E-1,-3.5329852E-2,5.0714283E0,6.879864E-2,-2.2405239E-2],"split_indices":[7,0,8,0,0],"split_type":[0,0,0,0,0],"sum_hessian":[3.8534896E0,1.6987706E0,2.154719E0,1.0766257E0,1.0780933E0],"tree_param":{"num_deleted":"0","num_feature":"9","num_nodes":"5","size_leaf_vector":"0"}},{"base_weights":[2.6232325E-3,-1.1607536E-1,1.0492633E-1],"categories":[],"categories_nodes":[],"categories_segments":[],"categories_sizes":[],"default_left":[true,false,false],"id":63,"left_children":[1,-1,-1],"loss_changes":[7.097119E-2,0E0,0E0],"parents":[2147483647,0,0],"right_children":[2,-1,-1],"split_conditions":[4.0714283E0,-3.482261E-2,3.1477902E-2],"split_indices":[8,0,0],"split_type":[0,0,0],"sum_hessian":[3.8415298E0,1.7159514E0,2.1255784E0],"tree_param":{"num_deleted":"0","num_feature":"9","num_nodes":"3","size_leaf_vector":"0"}},{"base_weights":[1.0482111E-3,1.3372354E-1,-7.848083E-2,6.999035E-2,-1.8146205E-1],"categories":[],"categories_nodes":[],"categories_segments":[],"categories_sizes":[],"default_left":[true,false,true,false,false],"id":64,"left_children":[1,-1,3,-1,-1],"loss_changes":[6.1621618E-2,0E0,6.865573E-2,0E0,0E0],"parents":[2147483647,0,0,2,2],"right_children":[2,-1,4,-1,-1],"split_conditions":[-1.113924E0,4.0117063E-2,5.2550354E0,2.0997107E-2,-5.4438617E-2],"split_indices":[7,0,1,0,0],"split_type":[0,0,0,0,0],"sum_hessian":[3.8454413E0,1.1857896E0,2.6596518E0,1.2204498E0,1.4392018E0],"tree_param":{"num_deleted":"0","num_feature":"9","num_nodes":"5","size_leaf_vector":"0"}},{"base_weights":[1.9244604E-3,-1.4727503E-1,8.492748E-2,-5.616052E-2,2.1186005E-1],"categories":[],"categories_nodes":[],"categories_segments":[],"categories_sizes":[],"default_left":[true,false,true,false,false],"id":65,"left_children":[1,-1,3,-1,-1],"loss_changes":[7.210164E-2,0E0,7.863061E-2,0E0,0E0],"parents":[2147483647,0,0,2,2],"right_children":[2,-1,4,-1,-1],"split_conditions":[5.25009E0,-4.418251E-2,-7.172996E-2,-1.6848156E-2,6.355802E-2],"split_indices":[1,0,7,0,0],"split_type":[0,0,0,0,0],"sum_hessian":[3.8121696E0,1.0859036E0,2.726266E0,1.555194E0,1.1710719E0],"tree_param":{"num_deleted":"0","num_feature":"9","num_nodes":"5","size_leaf_vector":"0"}},{"base_weights":[1.7222125E-3,-1.3307741E-1,7.717371E-2,1.832739E-1,-9.180536E-2],"categories":[],"categories_nodes":[],"categories_segments":[],"categories_sizes":[],"default_left":[true,false,true,false,false],"id":66,"left_children":[1,-1,3,-1,-1],"loss_changes":[5.9078205E-2,0E0,8.333478E-2,0E0,0E0],"parents":[2147483647,0,0,2,2],"right_children":[2,-1,4,-1,-1],"split_conditions":[3.14E-1,-3.9923225E-2,7.0714283E0,5.498217E-2,-2.754161E-2],"split_indices":[5,0,8,0,0],"split_type":[0,0,0,0,0],"sum_hessian":[3.7988324E0,1.0891817E0,2.7096508E0,1.6125515E0,1.0970993E0],"tree_param":{"num_deleted":"0","num_feature":"9","num_nodes":"5","size_leaf_vector":"0"}},{"base_weights":[-1.5365662E-3,-1.3164186E-1,8.8336185E-2,-8.582885E-2,2.130696E-1],"categories":[],"categories_nodes":[],"categories_segments":[],"categories_sizes":[],"default_left":[true,false,true,false,false],"id":67,"left_children":[1,-1,3,-1,-1],"loss_changes":[6.772594E-2,0E0,9.293009E-2,0E0,0E0],"parents":[2147483647,0,0,2,2],"right_children":[2,-1,4,-1,-1],"split_conditions":[1.5E0,-3.9492562E-2,-5.801688E-1,-2.5748655E-2,6.3920885E-2],"split_indices":[2,0,7,0,0],"split_type":[0,0,0,0,0],"sum_hessian":[3.797535E0,1.3616167E0,2.4359183E0,1.1466937E0,1.2892245E0],"tree_param":{"num_deleted":"0","num_feature":"9","num_nodes":"5","size_leaf_vector":"0"}},{"base_weights":[-1.4750246E-3,1.3818145E-1,-8.582137E-2,4.985363E-2,-1.7487727E-1],"categories":[],"categories_nodes":[],"categories_segments":[],"categories_sizes":[],"default_left":[true,false,true,false,false],"id":68,"left_children":[1,-1,3,-1,-1],"loss_changes":[6.796751E-2,0E0,5.205337E-2,0E0,0E0],"parents":[2147483647,0,0,2,2],"right_children":[2,-1,4,-1,-1],"split_conditions":[-1.113924E0,4.1454434E-2,5.2550354E0,1.495609E-2,-5.2463185E-2],"split_indices":[7,0,1,0,0],"split_type":[0,0,0,0,0],"sum_hessian":[3.7632356E0,1.176682E0,2.5865536E0,1.1994352E0,1.3871185E0],"tree_param":{"num_deleted":"0","num_feature":"9","num_nodes":"5","size_leaf_vector":"0"}},{"base_weights":[-3.7768664E-4,-1.529065E-1,8.587417E-2,-6.596682E-2,1.7717932E-1],"categories":[],"categories_nodes":[],"categories_segments":[],"categories_sizes":[],"default_left":[true,false,true,false,false],"id":69,"left_children":[1,-1,3,-1,-1],"loss_changes":[7.5366326E-2,0E0,6.246024E-2,0E0,0E0],"parents":[2147483647,0,0,2,2],"right_children":[2,-1,4,-1,-1],"split_conditions":[5.25009E0,-4.5871954E-2,3.642857E0,-1.9790048E-2,5.3153798E-2],"split_indices":[1,0,8,0,0],"split_type":[0,0,0,0,0],"sum_hessian":[3.7306256E0,1.068423E0,2.6622028E0,1.1039088E0,1.558294E0],"tree_param":{"num_deleted":"0","num_feature":"9","num_nodes":"5","size_leaf_vector":"0"}},{"base_weights":[-3.0824717E-3,-8.193771E-2,1.3311711E-1,-1.7300427E-1,5.6816164E-2],"categories":[],"categories_nodes":[],"categories_segments":[],"categories_sizes":[],"default_left":[true,true,false,false,false],"id":70,"left_children":[1,3,-1,-1,-1],"loss_changes":[6.1625753E-2,5.544208E-2,0E0,0E0,0E0],"parents":[2147483647,0,0,1,1],"right_children":[2,4,-1,-1,-1],"split_conditions":[1.9E0,6.9285717E0,3.9935134E-2,-5.1901285E-2,1.704485E-2],"split_indices":[2,8,0,0,0],"split_type":[0,0,0,0,0],"sum_hessian":[3.7223659E0,2.6097836E0,1.1125822E0,1.4266233E0,1.1831604E0],"tree_param":{"num_deleted":"0","num_feature":"9","num_nodes":"5","size_leaf_vector":"0"}},{"base_weights":[-1.2749602E-3,-1.0751746E-1,8.905755E-2,2.2625558E-1,-9.123124E-2],"categories":[],"categories_nodes":[],"categories_segments":[],"categories_sizes":[],"default_left":[true,false,true,false,false],"id":71,"left_children":[1,-1,3,-1,-1],"loss_changes":[5.448211E-2,0E0,9.67249E-2,0E0,0E0],"parents":[2147483647,0,0,2,2],"right_children":[2,-1,4,-1,-1],"split_conditions":[-5.590717E-1,-3.225524E-2,5.0714283E0,6.7876674E-2,-2.7369374E-2],"split_indices":[7,0,8,0,0],"split_type":[0,0,0,0,0],"sum_hessian":[3.679187E0,1.6032823E0,2.0759048E0,1.0340447E0,1.0418601E0],"tree_param":{"num_deleted":"0","num_feature":"9","num_nodes":"5","size_leaf_vector":"0"}},{"base_weights":[7.6151337E-4,9.623901E-2,-9.7498745E-2],"categories":[],"categories_nodes":[],"categories_segments":[],"categories_sizes":[],"default_left":[true,false,false],"id":72,"left_children":[1,-1,-1],"loss_changes":[5.316643E-2,0E0,0E0],"parents":[2147483647,0,0],"right_children":[2,-1,-1],"split_conditions":[1.645E-1,2.8871704E-2,-2.9249625E-2],"split_indices":[6,0,0],"split_type":[0,0,0],"sum_hessian":[3.6669059E0,1.8702208E0,1.7966851E0],"tree_param":{"num_deleted":"0","num_feature":"9","num_nodes":"3","size_leaf_vector":"0"}},{"base_weights":[3.8443465E-4,-1.3557626E-1,7.784838E-2,1.7443563E-1,-8.035316E-2],"categories":[],"categories_nodes":[],"categories_segments":[],"categories_sizes":[],"default_left":[true,false,true,false,false],"id":73,"left_children":[1,-1,3,-1,-1],"loss_changes":[5.943843E-2,0E0,6.8903856E-2,0E0,0E0],"parents":[2147483647,0,0,2,2],"right_children":[2,-1,4,-1,-1],"split_conditions":[3.14E-1,-4.067288E-2,7.0714283E0,5.233069E-2,-2.410595E-2],"split_indices":[5,0,8,0,0],"split_type":[0,0,0,0,0],"sum_hessian":[3.641454E0,1.0494058E0,2.5920482E0,1.5457191E0,1.0463289E0],"tree_param":{"num_deleted":"0","num_feature":"9","num_nodes":"5","size_leaf_vector":"0"}},{"base_weights":[-2.533551E-3,-1.1740399E-1,9.854816E-2],"categories":[],"categories_nodes":[],"categories_segments":[],"categories_sizes":[],"default_left":[true,false,false],"id":74,"left_children":[1,-1,-1],"loss_changes":[6.54572E-2,0E0,0E0],"parents":[2147483647,0,0],"right_children":[2,-1,-1],"split_conditions":[4.0714283E0,-3.52212E-2,2.956445E-2],"split_indices":[8,0,0],"split_type":[0,0,0],"sum_hessian":[3.640932E0,1.6286448E0,2.0122871E0],"tree_param":{"num_deleted":"0","num_feature":"9","num_nodes":"3","size_leaf_vector":"0"}},{"base_weights":[-3.0752977E-3,-7.729455E-2,1.244973E-1,-1.7286348E-1,6.3763686E-2],"categories":[],"categories_nodes":[],"categories_segments":[],"categories_sizes":[],"default_left":[true,true,false,false,false],"id":75,"left_children":[1,3,-1,-1,-1],"loss_changes":[5.3578652E-2,5.8904395E-2,0E0,0E0,0E0],"parents":[2147483647,0,0,1,1],"right_children":[2,4,-1,-1,-1],"split_conditions":[1.9E0,6.9285717E0,3.734919E-2,-5.1859047E-2,1.9129107E-2],"split_indices":[2,8,0,0,0],"split_type":[0,0,0,0,0],"sum_hessian":[3.6423843E0,2.5518696E0,1.0905148E0,1.3868103E0,1.1650593E0],"tree_param":{"num_deleted":"0","num_feature":"9","num_nodes":"5","size_leaf_vector":"0"}},{"base_weights":[-1.3533317E-3,9.216592E-2,-9.632017E-2],"categories":[],"categories_nodes":[],"categories_segments":[],"categories_sizes":[],"default_left":[true,false,false],"id":76,"left_children":[1,-1,-1],"loss_changes":[4.9752407E-2,0E0,0E0],"parents":[2147483647,0,0],"right_children":[2,-1,-1],"split_conditions":[1.645E-1,2.7649777E-2,-2.889605E-2],"split_indices":[6,0,0],"split_type":[0,0,0],"sum_hessian":[3.6024013E0,1.829894E0,1.7725072E0],"tree_param":{"num_deleted":"0","num_feature":"9","num_nodes":"3","size_leaf_vector":"0"}},{"base_weights":[-1.2923607E-3,-9.045679E-2,1.0741538E-1,-1.8324535E-1,4.7826037E-2],"categories":[],"categories_nodes":[],"categories_segments":[],"categories_sizes":[],"default_left":[true,true,false,false,false],"id":77,"left_children":[1,3,-1,-1,-1],"loss_changes":[5.408741E-2,4.799825E-2,0E0,0E0,0E0],"parents":[2147483647,0,0,1,1],"right_children":[2,4,-1,-1,-1],"split_conditions":[6.2021475E0,5.285714E0,3.2224614E-2,-5.4973606E-2,1.4347811E-2],"split_indices":[1,8,0,0,0],"split_type":[0,0,0,0,0],"sum_hessian":[3.577694E0,2.0577626E0,1.5199312E0,1.0368688E0,1.0208938E0],"tree_param":{"num_deleted":"0","num_feature":"9","num_nodes":"5","size_leaf_vector":"0"}},{"base_weights":[-2.8831183E-3,-1.2844752E-1,6.86488E-2,1.751879E-1,-9.491989E-2],"categories":[],"categories_nodes":[],"categories_segments":[],"categories_sizes":[],"default_left":[true,false,true,false,false],"id":78,"left_children":[1,-1,3,-1,-1],"loss_changes":[4.9871482E-2,0E0,7.8729466E-2,0E0,0E0],"parents":[2147483647,0,0,2,2],"right_children":[2,-1,4,-1,-1],"split_conditions":[3.14E-1,-3.8534258E-2,7.0714283E0,5.2556373E-2,-2.8475968E-2],"split_indices":[5,0,8,0,0],"split_type":[0,0,0,0,0],"sum_hessian":[3.5707345E0,1.0071517E0,2.563583E0,1.5094073E0,1.0541756E0],"tree_param":{"num_deleted":"0","num_feature":"9","num_nodes":"5","size_leaf_vector":"0"}},{"base_weights":[-5.3090765E-3,-1.05458975E-1,8.0835894E-2,1.9497359E-1,-7.230142E-2],"categories":[],"categories_nodes":[],"categories_segments":[],"categories_sizes":[],"default_left":[true,false,true,false,false],"id":79,"left_children":[1,-1,3,-1,-1],"loss_changes":[4.7935948E-2,0E0,6.6915095E-2,0E0,0E0],"parents":[2147483647,0,0,2,2],"right_children":[2,-1,4,-1,-1],"split_conditions":[-5.590717E-1,-3.1637695E-2,5.285714E0,5.849208E-2,-2.1690426E-2],"split_indices":[7,0,8,0,0],"split_type":[0,0,0,0,0],"sum_hessian":[3.5681238E0,1.5462686E0,2.021855E0,1.0019088E0,1.0199465E0],"tree_param":{"num_deleted":"0","num_feature":"9","num_nodes":"5","size_leaf_vector":"0"}},{"base_weights":[-2.680392E-3,-1.1980585E-1,7.8329824E-2,2.0767131E-1,-8.435963E-2],"categories":[],"categories_nodes":[],"categories_segments":[],"categories_sizes":[],"default_left":[true,false,true,false,false],"id":80,"left_children":[1,-1,3,-1,-1],"loss_changes":[5.263038E-2,0E0,8.6937234E-2,0E0,0E0],"parents":[2147483647,0,0,2,2],"right_children":[2,-1,4,-1,-1],"split_conditions":[1.5E0,-3.5941757E-2,5.3547354E0,6.2301397E-2,-2.530789E-2],"split_indices":[2,0,1,0,0],"split_type":[0,0,0,0,0],"sum_hessian":[3.5577962E0,1.2588456E0,2.2989507E0,1.1267065E0,1.1722441E0],"tree_param":{"num_deleted":"0","num_feature":"9","num_nodes":"5","size_leaf_vector":"0"}},{"base_weights":[-1.7565611E-3,1.3021412E-1,-8.1737734E-2,4.9063157E-2,-1.6836867E-1],"categories":[],"categories_nodes":[],"categories_segments":[],"categories_sizes":[],"default_left":[true,false,true,false,false],"id":81,"left_children":[1,-1,3,-1,-1],"loss_changes":[5.8490366E-2,0E0,4.7204763E-2,0E0,0E0],"parents":[2147483647,0,0,2,2],"right_children":[2,-1,4,-1,-1],"split_conditions":[-1.113924E0,3.906424E-2,5.2550354E0,1.4718948E-2,-5.0510604E-2],"split_indices":[7,0,1,0,0],"split_type":[0,0,0,0,0],"sum_hessian":[3.5330348E0,1.0962079E0,2.4368267E0,1.1436795E0,1.2931472E0],"tree_param":{"num_deleted":"0","num_feature":"9","num_nodes":"5","size_leaf_vector":"0"}},{"base_weights":[-6.64793E-4,-1.4826661E-1,8.41511E-2,-3.9342444E-2,1.8598045E-1],"categories":[],"categories_nodes":[],"categories_segments":[],"categories_sizes":[],"default_left":[true,false,true,false,false],"id":82,"left_children":[1,-1,3,-1,-1],"loss_changes":[6.885513E-2,0E0,5.1304337E-2,0E0,0E0],"parents":[2147483647,0,0,2,2],"right_children":[2,-1,4,-1,-1],"split_conditions":[5.25009E0,-4.4479985E-2,-7.172996E-2,-1.1802734E-2,5.579414E-2],"split_indices":[1,0,7,0,0],"split_type":[0,0,0,0,0],"sum_hessian":[3.5034282E0,1.0054985E0,2.4979298E0,1.4062021E0,1.0917277E0],"tree_param":{"num_deleted":"0","num_feature":"9","num_nodes":"5","size_leaf_vector":"0"}},{"base_weights":[-7.044031E-4,-1.0301119E-1,8.8889755E-2],"categories":[],"categories_nodes":[],"categories_segments":[],"categories_sizes":[],"default_left":[true,false,false],"id":83,"left_children":[1,-1,-1],"loss_changes":[5.0325915E-2,0E0,0E0],"parents":[2147483647,0,0],"right_children":[2,-1,-1],"split_conditions":[4.0714283E0,-3.0903358E-2,2.6666928E-2],"split_indices":[8,0,0],"split_type":[0,0,0],"sum_hessian":[3.4914763E0,1.5601739E0,1.9313024E0],"tree_param":{"num_deleted":"0","num_feature":"9","num_nodes":"3","size_leaf_vector":"0"}},{"base_weights":[-1.4989525E-3,-7.4986085E-2,1.2312677E-1,-1.6415831E-1,5.904012E-2],"categories":[],"categories_nodes":[],"categories_segments":[],"categories_sizes":[],"default_left":[true,true,false,false,false],"id":84,"left_children":[1,3,-1,-1,-1],"loss_changes":[5.0377775E-2,5.0896034E-2,0E0,0E0,0E0],"parents":[2147483647,0,0,1,1],"right_children":[2,4,-1,-1,-1],"split_conditions":[1.9E0,6.9285717E0,3.693803E-2,-4.9247496E-2,1.7712038E-2],"split_indices":[2,8,0,0,0],"split_type":[0,0,0,0,0],"sum_hessian":[3.4926012E0,2.447633E0,1.0449681E0,1.3347534E0,1.1128798E0],"tree_param":{"num_deleted":"0","num_feature":"9","num_nodes":"5","size_leaf_vector":"0"}},{"base_weights":[-4.6410987E-6,-8.4146E-2,1.01566926E-1],"categories":[],"categories_nodes":[],"categories_segments":[],"categories_sizes":[],"default_left":[true,false,false],"id":85,"left_children":[1,-1,-1],"loss_changes":[4.663267E-2,0E0,0E0],"parents":[2147483647,0,0],"right_children":[2,-1,-1],"split_conditions":[6.2021475E0,-2.5243802E-2,3.0470079E-2],"split_indices":[1,0,0],"split_type":[0,0,0],"sum_hessian":[3.4564204E0,1.9842432E0,1.4721773E0],"tree_param":{"num_deleted":"0","num_feature":"9","num_nodes":"3","size_leaf_vector":"0"}},{"base_weights":[1.1143449E-3,9.697373E-2,-9.723184E-2],"categories":[],"categories_nodes":[],"categories_segments":[],"categories_sizes":[],"default_left":[true,false,false],"id":86,"left_children":[1,-1,-1],"loss_changes":[5.140162E-2,0E0,0E0],"parents":[2147483647,0,0],"right_children":[2,-1,-1],"split_conditions":[1.645E-1,2.909212E-2,-2.9169554E-2],"split_indices":[6,0,0],"split_type":[0,0,0],"sum_hessian":[3.4521992E0,1.7552693E0,1.6969299E0],"tree_param":{"num_deleted":"0","num_feature":"9","num_nodes":"3","size_leaf_vector":"0"}},{"base_weights":[7.0064265E-4,-9.4086334E-2,8.015754E-2],"categories":[],"categories_nodes":[],"categories_segments":[],"categories_sizes":[],"default_left":[true,false,false],"id":87,"left_children":[1,-1,-1],"loss_changes":[4.0900286E-2,0E0,0E0],"parents":[2147483647,0,0],"right_children":[2,-1,-1],"split_conditions":[-5.590717E-1,-2.82259E-2,2.4047263E-2],"split_indices":[7,0,0],"split_type":[0,0,0],"sum_hessian":[3.4292176E0,1.479797E0,1.9494206E0],"tree_param":{"num_deleted":"0","num_feature":"9","num_nodes":"3","size_leaf_vector":"0"}},{"base_weights":[-5.037019E-4,1.18816175E-1,-7.366462E-2,6.6857174E-2,-1.7159651E-1],"categories":[],"categories_nodes":[],"categories_segments":[],"categories_sizes":[],"default_left":[true,false,true,false,false],"id":88,"left_children":[1,-1,3,-1,-1],"loss_changes":[4.744472E-2,0E0,5.7778858E-2,0E0,0E0],"parents":[2147483647,0,0,2,2],"right_children":[2,-1,4,-1,-1],"split_conditions":[-1.113924E0,3.5644855E-2,5.2550354E0,2.0057153E-2,-5.1478956E-2],"split_indices":[7,0,1,0,0],"split_type":[0,0,0,0,0],"sum_hessian":[3.4323208E0,1.067413E0,2.364908E0,1.101575E0,1.2633328E0],"tree_param":{"num_deleted":"0","num_feature":"9","num_nodes":"5","size_leaf_vector":"0"}},{"base_weights":[4.355574E-4,-8.447685E-2,1.0293565E-1],"categories":[],"categories_nodes":[],"categories_segments":[],"categories_sizes":[],"default_left":[true,false,false],"id":89,"left_children":[1,-1,-1],"loss_changes":[4.7022223E-2,0E0,0E0],"parents":[2147483647,0,0],"right_children":[2,-1,-1],"split_conditions":[6.2021475E0,-2.5343057E-2,3.0880695E-2],"split_indices":[1,0,0],"split_type":[0,0,0],"sum_hessian":[3.403563E0,1.9576536E0,1.4459093E0],"tree_param":{"num_deleted":"0","num_feature":"9","num_nodes":"3","size_leaf_vector":"0"}},{"base_weights":[1.506486E-3,-8.730848E-2,8.3166935E-2],"categories":[],"categories_nodes":[],"categories_segments":[],"categories_sizes":[],"default_left":[true,false,false],"id":90,"left_children":[1,-1,-1],"loss_changes":[3.9171226E-2,0E0,0E0],"parents":[2147483647,0,0],"right_children":[2,-1,-1],"split_conditions":[4.857143E0,-2.6192546E-2,2.4950081E-2],"split_indices":[8,0,0],"split_type":[0,0,0],"sum_hessian":[3.3997648E0,1.5954106E0,1.8043542E0],"tree_param":{"num_deleted":"0","num_feature":"9","num_nodes":"3","size_leaf_vector":"0"}},{"base_weights":[7.219988E-4,-1.0387009E-1,7.2166316E-2,1.8912828E-1,-7.595811E-2],"categories":[],"categories_nodes":[],"categories_segments":[],"categories_sizes":[],"default_left":[true,false,true,false,false],"id":91,"left_children":[1,-1,3,-1,-1],"loss_changes":[4.0390804E-2,0E0,6.990208E-2,0E0,0E0],"parents":[2147483647,0,0,2,2],"right_children":[2,-1,4,-1,-1],"split_conditions":[1.5E0,-3.1161027E-2,5.3547354E0,5.6738485E-2,-2.2787433E-2],"split_indices":[2,0,1,0,0],"split_type":[0,0,0,0,0],"sum_hessian":[3.4021196E0,1.1965499E0,2.2055697E0,1.0777426E0,1.127827E0],"tree_param":{"num_deleted":"0","num_feature":"9","num_nodes":"5","size_leaf_vector":"0"}},{"base_weights":[1.0757688E-3,-8.130424E-2,9.9090554E-2],"categories":[],"categories_nodes":[],"categories_segments":[],"categories_sizes":[],"default_left":[true,false,false],"id":92,"left_children":[1,-1,-1],"loss_changes":[4.3435123E-2,0E0,0E0],"parents":[2147483647,0,0],"right_children":[2,-1,-1],"split_conditions":[6.2021475E0,-2.4391273E-2,2.9727167E-2],"split_indices":[1,0,0],"split_type":[0,0,0],"sum_hessian":[3.3815494E0,1.929947E0,1.4516023E0],"tree_param":{"num_deleted":"0","num_feature":"9","num_nodes":"3","size_leaf_vector":"0"}},{"base_weights":[1.9202888E-3,-6.587685E-2,1.1497562E-1,-1.7078216E-1,5.7257738E-2],"categories":[],"categories_nodes":[],"categories_segments":[],"categories_sizes":[],"default_left":[true,true,false,false,false],"id":93,"left_children":[1,3,-1,-1,-1],"loss_changes":[4.113128E-2,5.334372E-2,0E0,0E0,0E0],"parents":[2147483647,0,0,1,1],"right_children":[2,4,-1,-1,-1],"split_conditions":[1.9E0,2.425E-1,3.4492686E-2,-5.123465E-2,1.7177323E-2],"split_indices":[2,6,0,0,0],"split_type":[0,0,0,0,0],"sum_hessian":[3.3780563E0,2.3725734E0,1.005483E0,1.0721731E0,1.3004001E0],"tree_param":{"num_deleted":"0","num_feature":"9","num_nodes":"5","size_leaf_vector":"0"}},{"base_weights":[1.3269681E-3,9.080261E-2,-9.093646E-2],"categories":[],"categories_nodes":[],"categories_segments":[],"categories_sizes":[],"default_left":[true,false,false],"id":94,"left_children":[1,-1,-1],"loss_changes":[4.4216547E-2,0E0,0E0],"parents":[2147483647,0,0],"right_children":[2,-1,-1],"split_conditions":[1.645E-1,2.7240785E-2,-2.728094E-2],"split_indices":[6,0,0],"split_type":[0,0,0],"sum_hessian":[3.355887E0,1.7117202E0,1.6441667E0],"tree_param":{"num_deleted":"0","num_feature":"9","num_nodes":"3","size_leaf_vector":"0"}},{"base_weights":[8.677775E-4,-9.424314E-2,8.019011E-2],"categories":[],"categories_nodes":[],"categories_segments":[],"categories_sizes":[],"default_left":[true,false,false],"id":95,"left_children":[1,-1,-1],"loss_changes":[4.026681E-2,0E0,0E0],"parents":[2147483647,0,0],"right_children":[2,-1,-1],"split_conditions":[-5.590717E-1,-2.8272944E-2,2.4057033E-2],"split_indices":[7,0,0],"split_type":[0,0,0],"sum_hessian":[3.335581E0,1.431294E0,1.9042871E0],"tree_param":{"num_deleted":"0","num_feature":"9","num_nodes":"3","size_leaf_vector":"0"}},{"base_weights":[-4.1467755E-4,1.1183482E-1,-6.958109E-2,6.9779955E-2,-1.7587757E-1],"categories":[],"categories_nodes":[],"categories_segments":[],"categories_sizes":[],"default_left":[true,false,true,false,false],"id":96,"left_children":[1,-1,3,-1,-1],"loss_changes":[4.146408E-2,0E0,6.1168995E-2,0E0,0E0],"parents":[2147483647,0,0,2,2],"right_children":[2,-1,4,-1,-1],"split_conditions":[-1.113924E0,3.3550445E-2,5.0714283E0,2.0933988E-2,-5.2763272E-2],"split_indices":[7,0,8,0,0],"split_type":[0,0,0,0,0],"sum_hessian":[3.3383493E0,1.0375786E0,2.3007708E0,1.1441959E0,1.1565747E0],"tree_param":{"num_deleted":"0","num_feature":"9","num_nodes":"5","size_leaf_vector":"0"}},{"base_weights":[-5.266943E-5,-9.285257E-2,8.636706E-2],"categories":[],"categories_nodes":[],"categories_segments":[],"categories_sizes":[],"default_left":[true,false,false],"id":97,"left_children":[1,-1,-1],"loss_changes":[4.262401E-2,0E0,0E0],"parents":[2147483647,0,0],"right_children":[2,-1,-1],"split_conditions":[4.857143E0,-2.7855773E-2,2.591012E-2],"split_indices":[8,0,0],"split_type":[0,0,0],"sum_hessian":[3.3149273E0,1.5625648E0,1.7523625E0],"tree_param":{"num_deleted":"0","num_feature":"9","num_nodes":"3","size_leaf_vector":"0"}},{"base_weights":[-5.4143753E-4,-9.859535E-2,6.669346E-2,1.7990944E-1,-7.672811E-2],"categories":[],"categories_nodes":[],"categories_segments":[],"categories_sizes":[],"default_left":[true,false,true,false,false],"id":98,"left_children":[1,-1,3,-1,-1],"loss_changes":[3.503179E-2,0E0,6.506754E-2,0E0,0E0],"parents":[2147483647,0,0,2,2],"right_children":[2,-1,4,-1,-1],"split_conditions":[1.5E0,-2.9578606E-2,5.3547354E0,5.3972833E-2,-2.3018435E-2],"split_indices":[2,0,1,0,0],"split_type":[0,0,0,0,0],"sum_hessian":[3.3163445E0,1.1592656E0,2.1570787E0,1.0633042E0,1.0937746E0],"tree_param":{"num_deleted":"0","num_feature":"9","num_nodes":"5","size_leaf_vector":"0"}},{"base_weights":[-1.2232306E-4,1.08329274E-1,-6.742724E-2,6.439111E-2,-1.687702E-1],"categories":[],"categories_nodes":[],"categories_segments":[],"categories_sizes":[],"default_left":[true,false,true,false,false],"id":99,"left_children":[1,-1,3,-1,-1],"loss_changes":[3.867631E-2,0E0,5.4529674E-2,0E0,0E0],"parents":[2147483647,0,0,2,2],"right_children":[2,-1,4,-1,-1],"split_conditions":[-1.113924E0,3.2498784E-2,5.0714283E0,1.9317333E-2,-5.063106E-2],"split_indices":[7,0,8,0,0],"split_type":[0,0,0,0,0],"sum_hessian":[3.2979262E0,1.0295055E0,2.2684207E0,1.1444451E0,1.1239756E0],"tree_param":{"num_deleted":"0","num_feature":"9","num_nodes":"5","size_leaf_vector":"0"}}]},"name":"gbtree"},"learner_model_param":{"base_score":"5E-1","num_class":"0","num_feature":"9"},"objective":{"name":"binary:logistic","reg_loss_param":{"scale_pos_weight":"1"}}},"version":[1,3,3]}